ts,BTC,ETH,SOL,HYPE
2026-01-01 00:00:00+00:00,0.0,0.0,0.0,0.0
2026-01-01 04:00:00+00:00,0.0,0.0,0.0,0.0
2026-01-01 08:00:00+00:00,0.0,0.0,0.0,0.0
2026-01-01 12:00:00+00:00,0.0,0.0,0.0,0.0
2026-01-01 16:00:00+00:00,0.0,0.0,0.0,0.0
2026-01-01 20:00:00+00:00,0.0,0.0,0.0,0.0
2026-01-02 00:00:00+00:00,0.0,0.0,0.0,0.0
2026-01-02 04:00:00+00:00,0.0,0.0,0.0,0.0
2026-01-02 08:00:00+00:00,0.0,0.0,0.0,0.0
2026-01-02 12:00:00+00:00,0.0,0.0,0.0,0.0
2026-01-02 16:00:00+00:00,0.0,0.0,0.0,0.0
2026-01-02 20:00:00+00:00,0.0,0.0,0.0,0.0
2026-01-03 00:00:00+00:00,0.0,0.0,0.0,0.0
2026-01-03 04:00:00+00:00,0.0,0.0,0.0,0.0
2026-01-03 08:00:00+00:00,0.0,0.0,0.0,0.0
2026-01-03 12:00:00+00:00,0.0,0.0,0.0,0.0
2026-01-03 16:00:00+00:00,0.0,0.0,0.0,0.0
2026-01-03 20:00:00+00:00,0.0,0.0,0.0,0.0
2026-01-04 00:00:00+00:00,0.0,0.0,0.0,0.0
2026-01-04 04:00:00+00:00,0.0,0.0,0.0,0.0
2026-01-04 08:00:00+00:00,0.0,0.0,0.0,0.0
2026-01-04 12:00:00+00:00,0.0,0.0,0.0,0.0
2026-01-04 16:00:00+00:00,0.0,0.0,0.0,0.0
2026-01-04 20:00:00+00:00,0.0,0.0,0.0,0.0
2026-01-05 00:00:00+00:00,0.0,0.0,0.0,0.0
2026-01-05 04:00:00+00:00,0.0,0.0,0.0,0.0
2026-01-05 08:00:00+00:00,0.0,0.0,0.0,0.0
2026-01-05 12:00:00+00:00,0.0,0.0,0.0,0.0
2026-01-05 16:00:00+00:00,0.0,0.0,0.0,0.0
2026-01-05 20:00:00+00:00,0.0,0.0,0.0,0.0
2026-01-06 00:00:00+00:00,0.0,0.0,0.0,0.0
2026-01-06 04:00:00+00:00,0.0,0.0,0.0,0.0
2026-01-06 08:00:00+00:00,0.0,0.0,0.0,0.0
2026-01-06 12:00:00+00:00,0.0,0.0,0.0,0.0
2026-01-06 16:00:00+00:00,0.0,0.0,0.0,0.0
2026-01-06 20:00:00+00:00,0.0,0.0,0.0,0.0
2026-01-07 00:00:00+00:00,0.0,0.0,0.0,0.0
2026-01-07 04:00:00+00:00,0.0,0.0,0.0,0.0
2026-01-07 08:00:00+00:00,0.0,0.0,0.0,0.0
2026-01-07 12:00:00+00:00,0.0,0.0,0.0,0.0
2026-01-07 16:00:00+00:00,0.0,0.0,0.0,0.0
2026-01-07 20:00:00+00:00,0.0,0.0,0.0,0.0
2026-01-08 00:00:00+00:00,0.0,0.0,0.0,0.0
2026-01-08 04:00:00+00:00,0.0,0.0,0.0,0.0
2026-01-08 08:00:00+00:00,0.0,0.0,0.0,0.0
2026-01-08 12:00:00+00:00,0.0,0.0,0.0,0.0
2026-01-08 16:00:00+00:00,0.0,0.0,0.0,0.0
2026-01-08 20:00:00+00:00,0.0,0.0,0.0,0.0
2026-01-09 00:00:00+00:00,0.0,0.0,0.0,0.0
2026-01-09 04:00:00+00:00,0.0,0.0,0.0,0.0
2026-01-09 08:00:00+00:00,0.0,0.0,0.0,0.0
2026-01-09 12:00:00+00:00,0.0,0.0,0.0,0.0
2026-01-09 16:00:00+00:00,0.0,0.0,0.0,0.0
2026-01-09 20:00:00+00:00,0.0,0.0,0.0,0.0
2026-01-10 00:00:00+00:00,0.0,0.0,0.0,0.0
2026-01-10 04:00:00+00:00,0.0,0.0,0.0,0.0
2026-01-10 08:00:00+00:00,0.0,0.0,0.0,0.0
2026-01-10 12:00:00+00:00,0.0,0.0,0.0,0.0
2026-01-10 16:00:00+00:00,0.0,0.0,0.0,0.0
2026-01-10 20:00:00+00:00,0.0,0.0,0.0,0.0
2026-01-11 00:00:00+00:00,0.0,0.0,0.0,0.0
2026-01-11 04:00:00+00:00,0.0,0.0,0.0,0.0
2026-01-11 08:00:00+00:00,0.0,0.0,0.0,0.0
2026-01-11 12:00:00+00:00,0.0,0.0,0.0,0.0
2026-01-11 16:00:00+00:00,0.0,0.0,0.0,0.0
2026-01-11 20:00:00+00:00,0.0,0.0,0.0,0.0
2026-01-12 00:00:00+00:00,0.0,0.0,0.0,0.0
2026-01-12 04:00:00+00:00,0.0,0.0,0.0,0.0
2026-01-12 08:00:00+00:00,0.0,0.0,0.0,0.0
2026-01-12 12:00:00+00:00,0.0,0.0,0.0,0.0
2026-01-12 16:00:00+00:00,0.0,0.0,0.0,0.0
2026-01-12 20:00:00+00:00,0.0,0.0,0.0,0.0
2026-01-13 00:00:00+00:00,0.0,0.0,0.0,0.0
2026-01-13 04:00:00+00:00,0.0,0.0,0.0,0.0
2026-01-13 08:00:00+00:00,0.0,0.0,0.0,0.0
2026-01-13 12:00:00+00:00,0.0,0.0,0.0,0.0
2026-01-13 16:00:00+00:00,0.0,0.0,0.0,0.0
2026-01-13 20:00:00+00:00,0.0,0.0,0.0,0.0
2026-01-14 00:00:00+00:00,0.0,0.0,0.0,0.0
2026-01-14 04:00:00+00:00,0.0,0.0,0.0,0.0
2026-01-14 08:00:00+00:00,0.0,0.0,0.0,0.0
2026-01-14 12:00:00+00:00,0.0,0.0,0.0,0.0
2026-01-14 16:00:00+00:00,0.0,0.0,0.0,0.0
2026-01-14 20:00:00+00:00,0.0,0.0,0.0,0.0
2026-01-15 00:00:00+00:00,0.0,0.0,0.0,0.0
2026-01-15 04:00:00+00:00,0.0,0.0,0.0,0.0
2026-01-15 08:00:00+00:00,0.0,0.0,0.0,0.0
2026-01-15 12:00:00+00:00,0.0,0.0,0.0,0.0
2026-01-15 16:00:00+00:00,0.0,0.0,0.0,0.0
2026-01-15 20:00:00+00:00,0.0,0.0,0.0,0.0
2026-01-16 00:00:00+00:00,0.0,0.0,0.0,0.0
2026-01-16 04:00:00+00:00,0.0,0.0,0.0,0.0
2026-01-16 08:00:00+00:00,0.0,0.0,0.0,0.0
2026-01-16 12:00:00+00:00,0.0,0.0,0.0,0.0
2026-01-16 16:00:00+00:00,0.0,0.0,0.0,0.0
2026-01-16 20:00:00+00:00,0.0,0.0,0.0,0.0
2026-01-17 00:00:00+00:00,0.0,0.0,0.0,0.0
2026-01-17 04:00:00+00:00,0.0,0.0,0.0,0.0
2026-01-17 08:00:00+00:00,0.0,0.0,0.0,0.0
2026-01-17 12:00:00+00:00,0.0,0.0,0.0,0.0
2026-01-17 16:00:00+00:00,0.0,0.0,0.0,0.0
2026-01-17 20:00:00+00:00,0.0,0.0,0.0,0.0
2026-01-18 00:00:00+00:00,0.0,0.0,0.0,0.0
2026-01-18 04:00:00+00:00,0.0,0.0,0.0,0.0
2026-01-18 08:00:00+00:00,0.0,0.0,0.0,0.0
2026-01-18 12:00:00+00:00,0.0,0.0,0.0,0.0
2026-01-18 16:00:00+00:00,0.0,0.0,0.0,0.0
2026-01-18 20:00:00+00:00,0.0,0.0,0.0,0.0
2026-01-19 00:00:00+00:00,0.0,0.0,0.0,0.0
2026-01-19 04:00:00+00:00,0.0,0.0,0.0,0.0
2026-01-19 08:00:00+00:00,0.0,0.0,0.0,0.0
2026-01-19 12:00:00+00:00,0.0,0.0,0.0,0.0
2026-01-19 16:00:00+00:00,0.0,0.0,0.0,0.0
2026-01-19 20:00:00+00:00,0.0,0.0,0.0,0.0
2026-01-20 00:00:00+00:00,0.0,0.0,0.0,0.0
2026-01-20 04:00:00+00:00,0.0,0.0,0.0,0.0
2026-01-20 08:00:00+00:00,0.0,0.0,0.0,0.0
2026-01-20 12:00:00+00:00,0.0,0.0,0.0,0.0
2026-01-20 16:00:00+00:00,0.0,0.0,0.0,0.0
2026-01-20 20:00:00+00:00,0.0,0.0,0.0,0.0
2026-01-21 00:00:00+00:00,0.0,0.0,0.0,0.0
2026-01-21 04:00:00+00:00,0.0,0.0,0.0,0.0
2026-01-21 08:00:00+00:00,0.0,0.0,0.0,0.0
2026-01-21 12:00:00+00:00,0.0,0.0,0.0,0.0
2026-01-21 16:00:00+00:00,0.0,0.0,0.0,0.0
2026-01-21 20:00:00+00:00,0.0,0.0,0.0,0.0
2026-01-22 00:00:00+00:00,0.0,0.0,0.0,0.0
2026-01-22 04:00:00+00:00,0.0,0.0,0.0,0.0
2026-01-22 08:00:00+00:00,0.0,0.0,0.0,0.0
2026-01-22 12:00:00+00:00,0.0,0.0,0.0,0.0
2026-01-22 16:00:00+00:00,0.0,0.0,0.0,0.0
2026-01-22 20:00:00+00:00,0.0,0.0,0.0,0.0
2026-01-23 00:00:00+00:00,0.0,0.0,0.0,0.0
2026-01-23 04:00:00+00:00,0.0,0.0,0.0,0.0
2026-01-23 08:00:00+00:00,0.0,0.0,0.0,0.0
2026-01-23 12:00:00+00:00,0.0,0.0,0.0,0.0
2026-01-23 16:00:00+00:00,0.0,0.0,0.0,0.0
2026-01-23 20:00:00+00:00,0.0,0.0,0.0,0.0
2026-01-24 00:00:00+00:00,0.0,0.0,0.0,0.0
2026-01-24 04:00:00+00:00,0.0,0.0,0.0,0.0
2026-01-24 08:00:00+00:00,0.0,0.0,0.0,0.0
2026-01-24 12:00:00+00:00,0.0,0.0,0.0,0.0
2026-01-24 16:00:00+00:00,0.0,0.0,0.0,0.0
2026-01-24 20:00:00+00:00,0.0,0.0,0.0,0.0
2026-01-25 00:00:00+00:00,0.0,0.0,0.0,0.0
2026-01-25 04:00:00+00:00,0.0,0.0,0.0,0.0
2026-01-25 08:00:00+00:00,0.0,0.0,0.0,0.0
2026-01-25 12:00:00+00:00,0.0,0.0,0.0,0.0
2026-01-25 16:00:00+00:00,0.0,0.0,0.0,0.0
2026-01-25 20:00:00+00:00,0.0,0.0,0.0,0.0
2026-01-26 00:00:00+00:00,0.0,0.0,0.0,0.0
2026-01-26 04:00:00+00:00,0.0,0.0,0.0,0.0
2026-01-26 08:00:00+00:00,0.0,0.0,0.0,0.0
2026-01-26 12:00:00+00:00,0.0,0.0,0.0,0.0
2026-01-26 16:00:00+00:00,0.0,0.0,0.0,0.0
2026-01-26 20:00:00+00:00,0.0,0.0,0.0,0.0
2026-01-27 00:00:00+00:00,0.0,0.0,0.0,0.0
2026-01-27 04:00:00+00:00,0.0,0.0,0.0,0.0
2026-01-27 08:00:00+00:00,0.0,0.0,0.0,0.0
2026-01-27 12:00:00+00:00,0.0,0.0,0.0,0.0
2026-01-27 16:00:00+00:00,0.0,0.0,0.0,0.0
2026-01-27 20:00:00+00:00,0.0,0.0,0.0,0.0
2026-01-28 00:00:00+00:00,0.0,0.0,0.0,0.0
2026-01-28 04:00:00+00:00,0.0,0.0,0.0,0.0
2026-01-28 08:00:00+00:00,0.0,0.0,0.0,0.0
2026-01-28 12:00:00+00:00,0.0,0.0,0.0,0.0
2026-01-28 16:00:00+00:00,0.0,0.0,0.0,0.0
2026-01-28 20:00:00+00:00,0.0,0.0,0.0,0.0
2026-01-29 00:00:00+00:00,0.0,0.0,0.0,0.0
2026-01-29 04:00:00+00:00,0.0,0.0,0.0,0.0
2026-01-29 08:00:00+00:00,0.0,0.0,0.0,0.0
2026-01-29 12:00:00+00:00,0.0,0.0,0.0,0.0
2026-01-29 16:00:00+00:00,0.0,0.0,0.0,0.0
2026-01-29 20:00:00+00:00,0.0,0.0,0.0,0.0
2026-01-30 00:00:00+00:00,0.0,0.0,0.0,0.0
2026-01-30 04:00:00+00:00,0.0,0.0,0.0,0.0
2026-01-30 08:00:00+00:00,0.0,0.0,0.0,0.0
2026-01-30 12:00:00+00:00,0.0,0.0,0.0,0.0
2026-01-30 16:00:00+00:00,0.0,0.0,0.0,0.0
2026-01-30 20:00:00+00:00,0.0,0.0,0.0,0.0
2026-01-31 00:00:00+00:00,0.0,0.0,0.0,0.0
2026-01-31 04:00:00+00:00,0.0,0.0,0.0,0.0
2026-01-31 08:00:00+00:00,0.0,0.0,0.0,0.0
2026-01-31 12:00:00+00:00,0.0,0.0,0.0,0.0
2026-01-31 16:00:00+00:00,0.0,0.0,0.0,0.0
2026-01-31 20:00:00+00:00,0.0,0.0,0.0,0.0
2026-02-01 00:00:00+00:00,0.0,0.0,0.0,0.0
2026-02-01 04:00:00+00:00,0.0,0.0,0.0,0.0
2026-02-01 08:00:00+00:00,0.0,0.0,0.0,0.0
2026-02-01 12:00:00+00:00,0.0,0.0,0.0,0.0
2026-02-01 16:00:00+00:00,0.0,0.0,0.0,0.0
2026-02-01 20:00:00+00:00,0.0,0.0,0.0,0.0
2026-02-02 00:00:00+00:00,0.0,0.0,0.0,0.0
2026-02-02 04:00:00+00:00,0.0,0.0,0.0,0.0
2026-02-02 08:00:00+00:00,0.0,0.0,0.0,0.0
2026-02-02 12:00:00+00:00,0.0,0.0,0.0,0.0
2026-02-02 16:00:00+00:00,0.0,0.0,0.0,0.0
2026-02-02 20:00:00+00:00,0.0,0.0,0.0,0.0
2026-02-03 00:00:00+00:00,0.0,0.0,0.0,0.0
2026-02-03 04:00:00+00:00,0.0,0.0,0.0,0.0
2026-02-03 08:00:00+00:00,-0.119557,-0.10724,-0.059487,0.116914
2026-02-03 12:00:00+00:00,-0.130133,-0.099809,-0.060076,0.11634
2026-02-03 16:00:00+00:00,-0.132767,-0.095084,-0.053988,0.116175
2026-02-03 20:00:00+00:00,-0.122421,-0.092638,-0.062559,0.116491
2026-02-04 00:00:00+00:00,-0.123164,-0.087923,-0.066556,0.116403
2026-02-04 04:00:00+00:00,-0.12271,-0.086531,-0.068198,0.116392
2026-02-04 08:00:00+00:00,-0.120264,-0.088346,-0.067812,0.116379
2026-02-04 12:00:00+00:00,-0.125241,-0.084538,-0.063514,0.116166
2026-02-04 16:00:00+00:00,-0.130145,-0.082359,-0.062152,0.115756
2026-02-04 20:00:00+00:00,-0.12735,-0.082308,-0.063106,0.116006
2026-02-05 00:00:00+00:00,-0.133338,-0.079697,-0.059529,0.114397
2026-02-05 04:00:00+00:00,-0.134324,-0.079104,-0.059347,0.114218
2026-02-05 08:00:00+00:00,-0.135864,-0.07821,-0.059541,0.113693
2026-02-05 12:00:00+00:00,-0.130722,-0.074754,-0.056486,0.113231
2026-02-05 16:00:00+00:00,-0.130256,-0.068527,-0.060466,0.113106
2026-02-05 20:00:00+00:00,-0.129927,-0.066183,-0.058673,0.113565
2026-02-06 00:00:00+00:00,-0.120984,-0.059659,-0.068802,0.112902
2026-02-06 04:00:00+00:00,-0.122565,-0.064805,-0.061363,0.11177
2026-02-06 08:00:00+00:00,-0.110205,-0.068824,-0.06375,0.111831
2026-02-06 12:00:00+00:00,-0.09986,-0.074837,-0.061911,0.111266
2026-02-06 16:00:00+00:00,-0.090949,-0.071387,-0.067275,0.111149
2026-02-06 20:00:00+00:00,-0.092474,-0.072282,-0.065502,0.110876
2026-02-07 00:00:00+00:00,-0.093065,-0.072877,-0.064411,0.110789
2026-02-07 04:00:00+00:00,-0.096882,-0.069806,-0.061589,0.110798
2026-02-07 08:00:00+00:00,-0.09631,-0.070429,-0.06141,0.110943
2026-02-07 12:00:00+00:00,-0.091697,-0.072844,-0.061449,0.110748
2026-02-07 16:00:00+00:00,-0.096965,-0.070797,-0.059164,0.110666
2026-02-07 20:00:00+00:00,-0.094667,-0.072404,-0.059255,0.110702
2026-02-08 00:00:00+00:00,-0.09632,-0.071649,-0.059082,0.110695
2026-02-08 04:00:00+00:00,-0.09465,-0.073233,-0.058524,0.110699
2026-02-08 08:00:00+00:00,-0.089445,-0.071683,-0.062665,0.110598
2026-02-08 12:00:00+00:00,-0.086057,-0.074198,-0.062661,0.110481
2026-02-08 16:00:00+00:00,-0.086158,-0.072566,-0.064407,0.110268
2026-02-08 20:00:00+00:00,-0.088144,-0.071389,-0.063683,0.110253
2026-02-09 00:00:00+00:00,-0.080825,-0.073334,-0.066425,0.110334
2026-02-09 04:00:00+00:00,-0.081085,-0.072816,-0.066123,0.11016
2026-02-09 08:00:00+00:00,-0.086626,-0.07131,-0.06288,0.109822
2026-02-09 12:00:00+00:00,-0.090045,-0.067672,-0.063268,0.109886
2026-02-09 16:00:00+00:00,-0.087426,-0.065244,-0.065273,0.109712
2026-02-09 20:00:00+00:00,-0.086417,-0.063985,-0.066882,0.109489
2026-02-10 00:00:00+00:00,-0.0872,-0.065029,-0.065124,0.109392
2026-02-10 04:00:00+00:00,-0.084833,-0.066735,-0.064554,0.10916
2026-02-10 08:00:00+00:00,-0.085732,-0.064804,-0.06578,0.109061
2026-02-10 12:00:00+00:00,-0.082874,-0.063753,-0.068615,0.108996
2026-02-10 16:00:00+00:00,-0.078739,-0.065058,-0.070146,0.108939
2026-02-10 20:00:00+00:00,-0.081083,-0.061642,-0.071787,0.108508
2026-02-11 00:00:00+00:00,-0.085489,-0.063057,-0.067972,0.108723
2026-02-11 04:00:00+00:00,-0.085472,-0.062296,-0.067599,0.10874
2026-02-11 08:00:00+00:00,-0.087123,-0.060984,-0.067763,0.109024
2026-02-11 12:00:00+00:00,-0.087186,-0.060738,-0.068217,0.109114
2026-02-11 16:00:00+00:00,-0.082069,-0.05885,-0.073016,0.108895
2026-02-11 20:00:00+00:00,-0.083481,-0.059199,-0.071813,0.108943
2026-02-12 00:00:00+00:00,-0.085477,-0.059111,-0.070086,0.108609
2026-02-12 04:00:00+00:00,-0.08778,-0.058644,-0.069078,0.108579
2026-02-12 08:00:00+00:00,-0.084108,-0.060275,-0.069775,0.107924
2026-02-12 12:00:00+00:00,-0.086603,-0.059427,-0.068963,0.107667
2026-02-12 16:00:00+00:00,-0.089647,-0.056293,-0.069055,0.107348
2026-02-12 20:00:00+00:00,-0.088196,-0.058945,-0.068373,0.107048
2026-02-13 00:00:00+00:00,-0.087748,-0.059509,-0.068155,0.107052
2026-02-13 04:00:00+00:00,-0.08887,-0.060983,-0.066028,0.107094
2026-02-13 08:00:00+00:00,-0.085293,-0.062734,-0.066276,0.107153
2026-02-13 12:00:00+00:00,-0.085472,-0.060831,-0.066592,0.106923
2026-02-13 16:00:00+00:00,-0.088322,-0.059864,-0.065243,0.106921
2026-02-13 20:00:00+00:00,-0.087205,-0.06058,-0.06535,0.106995
2026-02-14 00:00:00+00:00,-0.087813,-0.061709,-0.064245,0.107814
2026-02-14 04:00:00+00:00,-0.085113,-0.062925,-0.065249,0.107832
2026-02-14 08:00:00+00:00,-0.081359,-0.063794,-0.065832,0.107792
2026-02-14 12:00:00+00:00,-0.086793,-0.063992,-0.061866,0.107744
2026-02-14 16:00:00+00:00,-0.093454,-0.066543,-0.054813,0.107671
2026-02-14 20:00:00+00:00,-0.092805,-0.065759,-0.05616,0.10771
2026-02-15 00:00:00+00:00,-0.088468,-0.068979,-0.056005,0.10765
2026-02-15 04:00:00+00:00,-0.087898,-0.071947,-0.052754,0.107577
2026-02-15 08:00:00+00:00,-0.086827,-0.071451,-0.053797,0.107639
2026-02-15 12:00:00+00:00,-0.084929,-0.071512,-0.05451,0.107597
2026-02-15 16:00:00+00:00,-0.081186,-0.074128,-0.05384,0.107434
2026-02-15 20:00:00+00:00,-0.082118,-0.074117,-0.052984,0.107431
2026-02-16 00:00:00+00:00,-0.084166,-0.072847,-0.052777,0.10742
2026-02-16 04:00:00+00:00,-0.080913,-0.072594,-0.055282,0.107291
2026-02-16 08:00:00+00:00,-0.078969,-0.073796,-0.055397,0.107276
2026-02-16 12:00:00+00:00,-0.080682,-0.069801,-0.057725,0.10746
2026-02-16 16:00:00+00:00,-0.080427,-0.073753,-0.053569,0.107333
2026-02-16 20:00:00+00:00,-0.077506,-0.078733,-0.049741,0.106471
2026-02-17 00:00:00+00:00,-0.080266,-0.080104,-0.046287,0.106281
2026-02-17 04:00:00+00:00,-0.081514,-0.080346,-0.0451,0.106087
2026-02-17 08:00:00+00:00,-0.085353,-0.078272,-0.044438,0.105928
2026-02-17 12:00:00+00:00,-0.089095,-0.074002,-0.046128,0.106118
2026-02-17 16:00:00+00:00,-0.090261,-0.073677,-0.045255,0.106318
2026-02-17 20:00:00+00:00,-0.095725,-0.074953,-0.040522,0.106317
2026-02-18 00:00:00+00:00,-0.092437,-0.074616,-0.044051,0.106662
2026-02-18 04:00:00+00:00,-0.089315,-0.07146,-0.049517,0.106897
2026-02-18 08:00:00+00:00,-0.086662,-0.069365,-0.053115,0.106821
2026-02-18 12:00:00+00:00,-0.072867,-0.076363,-0.055633,0.106652
2026-02-18 16:00:00+00:00,-0.07425,-0.073166,-0.057045,0.106718
2026-02-18 20:00:00+00:00,-0.077865,-0.071706,-0.055881,0.106843
2026-02-19 00:00:00+00:00,-0.068501,-0.071939,-0.061889,0.106714
2026-02-19 04:00:00+00:00,-0.067567,-0.069245,-0.065675,0.106923
2026-02-19 08:00:00+00:00,-0.064845,-0.06967,-0.066864,0.106641
2026-02-19 12:00:00+00:00,-0.063663,-0.0697,-0.067876,0.106931
2026-02-19 16:00:00+00:00,-0.068282,-0.068579,-0.065706,0.107297
2026-02-19 20:00:00+00:00,-0.081011,-0.062756,-0.062976,0.107749
2026-02-20 00:00:00+00:00,-0.074682,-0.062292,-0.06801,0.107669
2026-02-20 04:00:00+00:00,-0.068553,-0.065934,-0.068543,0.107487
2026-02-20 08:00:00+00:00,-0.076537,-0.065416,-0.063742,0.107937
2026-02-20 12:00:00+00:00,-0.09437,-0.066228,-0.05117,0.108311
2026-02-20 16:00:00+00:00,-0.095328,-0.071545,-0.045307,0.108099
2026-02-20 20:00:00+00:00,-0.073732,-0.075487,-0.057466,0.108343
2026-02-21 00:00:00+00:00,-0.082874,-0.074708,-0.051962,0.108362
2026-02-21 04:00:00+00:00,-0.075766,-0.065837,-0.065535,0.108536
2026-02-21 08:00:00+00:00,-0.090165,-0.065242,-0.055859,0.108614
2026-02-21 12:00:00+00:00,-0.105476,-0.057317,-0.052116,0.108505
2026-02-21 16:00:00+00:00,-0.094117,-0.058594,-0.059693,0.108808
2026-02-21 20:00:00+00:00,-0.116861,-0.035806,-0.062742,0.107386
2026-02-22 00:00:00+00:00,-0.119926,-0.017098,-0.075044,0.105499
2026-02-22 04:00:00+00:00,-0.120555,-0.003029,-0.084223,0.103354
2026-02-22 08:00:00+00:00,-0.114268,-0.023009,-0.074785,0.106427
2026-02-22 12:00:00+00:00,-0.096783,-0.04422,-0.070181,0.109153
2026-02-22 16:00:00+00:00,-0.10556,-0.032201,-0.073788,0.10808
2026-02-22 20:00:00+00:00,-0.100134,-0.021466,-0.085435,0.106725
2026-02-23 00:00:00+00:00,-0.117545,0.017383,-0.093004,0.098292
2026-02-23 04:00:00+00:00,-0.106935,0.022445,-0.101584,0.0966
2026-02-23 08:00:00+00:00,-0.127591,0.063364,-0.10445,0.083694
2026-02-23 12:00:00+00:00,-0.130257,0.018113,-0.083546,0.097704
2026-02-23 16:00:00+00:00,-0.114543,0.042605,-0.105099,0.090398
2026-02-23 20:00:00+00:00,-0.123742,-0.006135,-0.072872,0.10279
2026-02-24 00:00:00+00:00,-0.137951,-0.020124,-0.050865,0.103752
2026-02-24 04:00:00+00:00,-0.150643,-0.030991,-0.029863,0.102599
2026-02-24 08:00:00+00:00,-0.162804,-0.026702,-0.021472,0.100317
2026-02-24 12:00:00+00:00,-0.208089,0.048106,-0.024361,0.078617
2026-02-24 16:00:00+00:00,-0.158656,0.004897,-0.052986,0.098835
2026-02-24 20:00:00+00:00,-0.246681,0.053537,0.068393,0.035804
2026-02-25 00:00:00+00:00,-0.091797,0.115788,0.088702,-0.080992
2026-02-25 04:00:00+00:00,-0.03183,0.066504,0.115534,-0.095057
2026-02-25 08:00:00+00:00,-0.082725,0.086698,0.113713,-0.083473
2026-02-25 12:00:00+00:00,0.021573,0.095767,0.061557,-0.104268
2026-02-25 16:00:00+00:00,0.070056,0.049897,0.074066,-0.109138
2026-02-25 20:00:00+00:00,0.063412,0.070989,0.058894,-0.109393
2026-02-26 00:00:00+00:00,0.049483,0.040576,0.093879,-0.107453
2026-02-26 04:00:00+00:00,0.04578,0.064155,0.076623,-0.109975
2026-02-26 08:00:00+00:00,0.027632,0.07807,0.074284,-0.108582
2026-02-26 12:00:00+00:00,-0.03793,0.097497,0.08648,-0.097796
2026-02-26 16:00:00+00:00,-0.066667,0.080424,0.11129,-0.089829
2026-02-26 20:00:00+00:00,-0.068934,0.099506,0.095349,-0.091409
2026-02-27 00:00:00+00:00,-0.086945,0.080932,0.115314,-0.086736
2026-02-27 04:00:00+00:00,0.021122,0.048242,0.102981,-0.110016
2026-02-27 08:00:00+00:00,0.026815,0.050776,0.096592,-0.110911
2026-02-27 12:00:00+00:00,-0.009682,0.051256,0.112771,-0.104394
2026-02-27 16:00:00+00:00,0.08448,-0.026653,0.112381,-0.099689
2026-02-27 20:00:00+00:00,0.10472,-0.047718,0.108669,-0.093985
2026-02-28 00:00:00+00:00,0.081267,-0.023702,0.11313,-0.103067
2026-02-28 04:00:00+00:00,-0.181415,-0.061391,0.092659,0.067025
2026-02-28 08:00:00+00:00,-0.15922,-0.083537,0.08702,0.074358
2026-02-28 12:00:00+00:00,-0.192651,-0.0507,0.087578,0.06802
2026-02-28 16:00:00+00:00,-0.17863,-0.064962,0.088792,0.070001
2026-02-28 20:00:00+00:00,-0.144824,-0.096473,0.087945,0.07361
2026-03-01 00:00:00+00:00,-0.172163,0.000554,0.148026,-0.018875
2026-03-01 04:00:00+00:00,-0.178861,-0.005894,0.145681,-0.009673
2026-03-01 08:00:00+00:00,-0.186042,-0.0344,0.135054,0.0203
2026-03-01 12:00:00+00:00,-0.184432,-0.059391,0.096304,0.064324
2026-03-01 16:00:00+00:00,-0.143787,-0.076903,0.027842,0.109021
2026-03-01 20:00:00+00:00,-0.133947,-0.090204,0.037387,0.106927
2026-03-02 00:00:00+00:00,-0.134759,-0.082249,0.025173,0.111933
2026-03-02 04:00:00+00:00,-0.182368,-0.037226,0.027736,0.102846
2026-03-02 08:00:00+00:00,-0.159857,-0.068229,0.040076,0.10329
2026-03-02 12:00:00+00:00,-0.170805,-0.068,0.082072,0.079909
2026-03-02 16:00:00+00:00,-0.171973,-0.073265,0.079823,0.083639
2026-03-02 20:00:00+00:00,-0.123747,-0.089241,0.016917,0.116806
2026-03-03 00:00:00+00:00,-0.104341,-0.091155,-0.002532,0.122231
2026-03-03 04:00:00+00:00,-0.118172,-0.087458,0.007213,0.12014
2026-03-03 08:00:00+00:00,-0.134465,-0.086518,0.027861,0.112769
2026-03-03 12:00:00+00:00,-0.128995,-0.111686,0.077861,0.091367
2026-03-03 16:00:00+00:00,-0.140676,-0.102289,0.121813,0.058431
2026-03-03 20:00:00+00:00,-0.107792,-0.093111,0.163597,0.001654
2026-03-04 00:00:00+00:00,-0.079853,-0.090655,0.170728,-0.021419
2026-03-04 04:00:00+00:00,-0.022603,-0.141342,0.150562,-0.001545
2026-03-04 08:00:00+00:00,0.031086,-0.069249,0.151912,-0.084933
2026-03-04 12:00:00+00:00,0.0411,-0.006656,0.125902,-0.117908
2026-03-04 16:00:00+00:00,0.047837,-0.00419,0.12137,-0.119812
2026-03-04 20:00:00+00:00,0.071824,-0.009626,0.110468,-0.122068
2026-03-05 00:00:00+00:00,0.081249,-0.002204,0.100763,-0.137204
2026-03-05 04:00:00+00:00,0.073146,-0.000664,0.104869,-0.136987
2026-03-05 08:00:00+00:00,0.058272,-8.9e-05,0.112961,-0.135813
2026-03-05 12:00:00+00:00,0.079818,-0.037662,0.117507,-0.125914
2026-03-05 16:00:00+00:00,0.101153,-0.029098,0.103006,-0.131503
2026-03-05 20:00:00+00:00,0.091923,-0.022532,0.106051,-0.134321
2026-03-06 00:00:00+00:00,0.116949,0.000446,0.076709,-0.143619
2026-03-06 04:00:00+00:00,0.102995,-0.010359,0.093063,-0.140315
2026-03-06 08:00:00+00:00,0.103146,-0.032603,0.103743,-0.131769
2026-03-06 12:00:00+00:00,0.160456,-0.158639,0.062616,-0.031773
2026-03-06 16:00:00+00:00,0.061863,-0.188958,0.046537,0.070562
2026-03-06 20:00:00+00:00,0.047822,-0.170424,-0.003233,0.108138
2026-03-07 00:00:00+00:00,-0.00422,-0.069803,-0.097612,0.147225
2026-03-07 04:00:00+00:00,-0.039692,-0.030774,-0.10802,0.148344
2026-03-07 08:00:00+00:00,-0.072917,-0.012908,-0.100618,0.150126
2026-03-07 12:00:00+00:00,-0.017745,0.051203,-0.158467,0.110865
2026-03-07 16:00:00+00:00,-0.085189,0.172592,-0.121262,0.022992
2026-03-07 20:00:00+00:00,-0.127308,0.16633,-0.109311,0.045408
2026-03-08 00:00:00+00:00,-0.121216,0.119379,-0.124608,0.093137
2026-03-08 04:00:00+00:00,-0.129353,0.015306,-0.091027,0.151796
2026-03-08 08:00:00+00:00,-0.100012,0.007463,-0.108198,0.154113
2026-03-08 12:00:00+00:00,-0.054231,-0.054253,-0.098395,0.16559
2026-03-08 16:00:00+00:00,-0.065038,-0.009874,-0.123174,0.157706
2026-03-08 20:00:00+00:00,-0.155556,0.049634,-0.093785,0.143241
2026-03-09 00:00:00+00:00,-0.077393,0.141028,-0.152046,0.073043
2026-03-09 04:00:00+00:00,-0.057984,0.055992,-0.15559,0.129719
2026-03-09 08:00:00+00:00,-0.083612,-0.000938,-0.119346,0.158256
2026-03-09 12:00:00+00:00,-0.054511,-0.045755,-0.107801,0.164656
2026-03-09 16:00:00+00:00,-0.073341,-0.070551,-0.078221,0.166377
2026-03-09 20:00:00+00:00,-0.058184,-0.081739,-0.077543,0.16535
2026-03-10 00:00:00+00:00,-0.04241,-0.074735,-0.092353,0.163394
2026-03-10 04:00:00+00:00,-0.027255,-0.091534,-0.085933,0.161996
2026-03-10 08:00:00+00:00,-0.050014,-0.089613,-0.075448,0.165808
2026-03-10 12:00:00+00:00,-0.049312,-0.102989,-0.062865,0.16528
2026-03-10 16:00:00+00:00,-0.027913,-0.105273,-0.072266,0.163681
2026-03-10 20:00:00+00:00,-0.034381,-0.099282,-0.074972,0.164865
2026-03-11 00:00:00+00:00,-0.058054,-0.104682,-0.055255,0.166821
2026-03-11 04:00:00+00:00,-0.040894,-0.111895,-0.059549,0.165573
2026-03-11 08:00:00+00:00,-0.064377,-0.083876,-0.073092,0.170301
2026-03-11 12:00:00+00:00,-0.068712,-0.07068,-0.082044,0.168177
2026-03-11 16:00:00+00:00,-0.085869,-0.064046,-0.07806,0.169482
2026-03-11 20:00:00+00:00,-0.07185,-0.072002,-0.080653,0.169883
2026-03-12 00:00:00+00:00,-0.072578,-0.065735,-0.085255,0.169849
2026-03-12 04:00:00+00:00,-0.08733,-0.062225,-0.079317,0.170474
2026-03-12 08:00:00+00:00,-0.076608,-0.054169,-0.092195,0.169252
2026-03-12 12:00:00+00:00,-0.072652,-0.049527,-0.098124,0.168333
2026-03-12 16:00:00+00:00,-0.065901,-0.047836,-0.103443,0.167221
2026-03-12 20:00:00+00:00,-0.076908,-0.045694,-0.098569,0.169719
2026-03-13 00:00:00+00:00,-0.090529,-0.045567,-0.089054,0.170208
2026-03-13 04:00:00+00:00,-0.070638,-0.056307,-0.094656,0.169792
2026-03-13 08:00:00+00:00,-0.060753,-0.057615,-0.098944,0.168875
2026-03-13 12:00:00+00:00,-0.069358,-0.02521,-0.116168,0.16283
2026-03-13 16:00:00+00:00,-0.081263,-0.044354,-0.097036,0.168223
2026-03-13 20:00:00+00:00,-0.073531,-0.045976,-0.100441,0.167657
2026-03-14 00:00:00+00:00,-0.080618,-0.046771,-0.096109,0.170078
2026-03-14 04:00:00+00:00,-0.075239,-0.053582,-0.094158,0.170706
2026-03-14 08:00:00+00:00,-0.069886,-0.054493,-0.096961,0.172877
2026-03-14 12:00:00+00:00,-0.085768,-0.055437,-0.087635,0.17423
2026-03-14 16:00:00+00:00,-0.084865,-0.056636,-0.08884,0.176158
2026-03-14 20:00:00+00:00,-0.090445,-0.064448,-0.079151,0.179918
2026-03-15 00:00:00+00:00,-0.089431,-0.070537,-0.074858,0.180338
2026-03-15 04:00:00+00:00,-0.09813,-0.057435,-0.079851,0.179317
2026-03-15 08:00:00+00:00,-0.08478,-0.069301,-0.079519,0.179688
2026-03-15 12:00:00+00:00,-0.081383,-0.075289,-0.079326,0.181086
2026-03-15 16:00:00+00:00,-0.07243,-0.064485,-0.093818,0.179689
2026-03-15 20:00:00+00:00,-0.107367,-0.060351,-0.071832,0.181062
2026-03-16 00:00:00+00:00,-0.098807,-0.038984,-0.093025,0.178341
2026-03-16 04:00:00+00:00,-0.099622,-0.036329,-0.094347,0.177117
2026-03-16 08:00:00+00:00,-0.10753,-0.029081,-0.095466,0.175717
2026-03-16 12:00:00+00:00,-0.122362,-0.018015,-0.09325,0.174385
2026-03-16 16:00:00+00:00,-0.140762,0.013545,-0.098996,0.166063
2026-03-16 20:00:00+00:00,-0.109086,-0.001255,-0.11071,0.16817
2026-03-17 00:00:00+00:00,-0.087147,-0.018483,-0.112855,0.171076
2026-03-17 04:00:00+00:00,-0.089707,-0.015566,-0.113966,0.169871
2026-03-17 08:00:00+00:00,-0.081456,-0.019455,-0.116607,0.169918
2026-03-17 12:00:00+00:00,-0.083271,-0.029167,-0.110623,0.170553
2026-03-17 16:00:00+00:00,-0.078411,-0.03644,-0.109819,0.170698
2026-03-17 20:00:00+00:00,-0.081654,-0.045623,-0.102001,0.172641
2026-03-18 00:00:00+00:00,-0.085768,-0.041509,-0.102522,0.17191
2026-03-18 04:00:00+00:00,-0.080833,-0.045249,-0.102578,0.172588
2026-03-18 08:00:00+00:00,-0.082286,-0.05154,-0.09643,0.173501
2026-03-18 12:00:00+00:00,-0.07357,-0.059713,-0.094611,0.173845
2026-03-18 16:00:00+00:00,-0.087634,-0.058068,-0.087697,0.174069
2026-03-18 20:00:00+00:00,-0.091337,-0.057244,-0.086749,0.176682
2026-03-19 00:00:00+00:00,-0.085175,-0.052839,-0.093931,0.175757
2026-03-19 04:00:00+00:00,-0.091876,-0.049087,-0.091889,0.174865
2026-03-19 08:00:00+00:00,-0.107087,-0.044405,-0.086004,0.17556
2026-03-19 12:00:00+00:00,-0.102326,-0.052111,-0.082709,0.1764
2026-03-19 16:00:00+00:00,-0.09651,-0.054824,-0.084281,0.176478
2026-03-19 20:00:00+00:00,-0.109379,-0.052047,-0.077909,0.176275
2026-03-20 00:00:00+00:00,-0.100964,-0.055903,-0.080249,0.176411
2026-03-20 04:00:00+00:00,-0.090749,-0.059624,-0.084071,0.176403
2026-03-20 08:00:00+00:00,-0.096317,-0.053797,-0.086219,0.17641
2026-03-20 12:00:00+00:00,-0.103893,-0.047112,-0.086302,0.176045
2026-03-20 16:00:00+00:00,-0.113006,-0.051031,-0.078885,0.176839
2026-03-20 20:00:00+00:00,-0.109493,-0.031813,-0.095502,0.174067
2026-03-21 00:00:00+00:00,-0.071786,-0.049227,-0.106092,0.174095
2026-03-21 04:00:00+00:00,-0.074501,-0.048535,-0.105107,0.174553
2026-03-21 08:00:00+00:00,-0.075832,-0.04633,-0.106417,0.175513
2026-03-21 12:00:00+00:00,-0.077576,-0.043502,-0.107549,0.175163
2026-03-21 16:00:00+00:00,-0.095197,-0.039043,-0.100626,0.176033
2026-03-21 20:00:00+00:00,-0.088755,-0.040005,-0.102129,0.174868
2026-03-22 00:00:00+00:00,-0.111864,-0.03005,-0.094377,0.174788
2026-03-22 04:00:00+00:00,-0.110504,-0.041452,-0.086909,0.176256
2026-03-22 08:00:00+00:00,-0.115363,-0.0342,-0.088767,0.175267
2026-03-22 12:00:00+00:00,-0.109343,-0.038552,-0.089541,0.176062
2026-03-22 16:00:00+00:00,-0.123723,-0.045034,-0.074371,0.17696
2026-03-22 20:00:00+00:00,-0.137438,-0.038738,-0.069096,0.175762
2026-03-23 00:00:00+00:00,-0.133276,-0.032653,-0.076946,0.175118
2026-03-23 04:00:00+00:00,-0.124807,-0.032173,-0.083353,0.174945
2026-03-23 08:00:00+00:00,-0.115241,0.010002,-0.11405,0.164416
2026-03-23 12:00:00+00:00,-0.147527,-0.003231,-0.084377,0.168855
2026-03-23 16:00:00+00:00,-0.176226,-0.011235,-0.055092,0.167427
2026-03-23 20:00:00+00:00,-0.132509,0.001579,-0.098056,0.167435
2026-03-24 00:00:00+00:00,-0.124048,-0.004543,-0.099837,0.168732
2026-03-24 04:00:00+00:00,-0.153005,-0.000851,-0.081078,0.167181
2026-03-24 08:00:00+00:00,-0.160327,-0.005788,-0.072091,0.167803
2026-03-24 12:00:00+00:00,-0.149568,-0.030762,-0.061559,0.17265
2026-03-24 16:00:00+00:00,-0.135098,-0.044899,-0.061395,0.17558
2026-03-24 20:00:00+00:00,-0.143689,-0.042307,-0.055466,0.174324
2026-03-25 00:00:00+00:00,-0.152366,-0.051645,-0.048594,0.180934
2026-03-25 04:00:00+00:00,-0.148374,-0.046614,-0.057539,0.181776
2026-03-25 08:00:00+00:00,-0.140086,-0.051672,-0.059678,0.181842
2026-03-25 12:00:00+00:00,-0.148079,-0.044853,-0.058757,0.182204
2026-03-25 16:00:00+00:00,-0.140851,-0.04891,-0.062839,0.183546
2026-03-25 20:00:00+00:00,-0.132475,-0.051882,-0.066831,0.184239
2026-03-26 00:00:00+00:00,-0.140628,-0.055422,-0.058189,0.182916
2026-03-26 04:00:00+00:00,-0.13526,-0.050272,-0.066091,0.18282
2026-03-26 08:00:00+00:00,-0.125384,-0.061454,-0.062743,0.183882
2026-03-26 12:00:00+00:00,-0.131125,-0.052359,-0.066768,0.183387
2026-03-26 16:00:00+00:00,-0.111558,-0.047962,-0.08386,0.182973
2026-03-26 20:00:00+00:00,-0.121925,-0.048978,-0.075822,0.182716
2026-03-27 00:00:00+00:00,-0.12628,-0.048183,-0.075754,0.182144
2026-03-27 04:00:00+00:00,-0.120187,-0.050451,-0.078305,0.182116
2026-03-27 08:00:00+00:00,-0.122816,-0.054033,-0.070575,0.181134
2026-03-27 12:00:00+00:00,-0.141935,-0.053237,-0.060726,0.181193
2026-03-27 16:00:00+00:00,-0.139179,-0.052112,-0.067189,0.182647
2026-03-27 20:00:00+00:00,-0.129576,-0.057868,-0.07022,0.185345
2026-03-28 00:00:00+00:00,-0.136196,-0.051398,-0.07078,0.184634
2026-03-28 04:00:00+00:00,-0.138361,-0.050725,-0.069591,0.18383
2026-03-28 08:00:00+00:00,-0.142291,-0.047468,-0.069285,0.183417
2026-03-28 12:00:00+00:00,-0.142709,-0.045648,-0.070288,0.182858
2026-03-28 16:00:00+00:00,-0.134639,-0.051244,-0.071688,0.183549
2026-03-28 20:00:00+00:00,-0.114537,-0.054981,-0.082501,0.184372
2026-03-29 00:00:00+00:00,-0.11749,-0.059753,-0.076621,0.185502
2026-03-29 04:00:00+00:00,-0.12352,-0.056783,-0.074815,0.185459
2026-03-29 08:00:00+00:00,-0.124767,-0.058134,-0.076767,0.187505
2026-03-29 12:00:00+00:00,-0.131476,-0.051172,-0.077723,0.186733
2026-03-29 16:00:00+00:00,-0.135456,-0.034789,-0.088347,0.187524
2026-03-29 20:00:00+00:00,-0.161596,-0.00132,-0.09263,0.179435
2026-03-30 00:00:00+00:00,-0.178522,-0.001182,-0.077809,0.17844
2026-03-30 04:00:00+00:00,-0.189688,0.002037,-0.075824,0.177199
2026-03-30 08:00:00+00:00,-0.208625,0.017867,-0.069807,0.171245
2026-03-30 12:00:00+00:00,-0.201274,0.013591,-0.07531,0.175322
2026-03-30 16:00:00+00:00,-0.201163,0.007723,-0.072477,0.17864
2026-03-30 20:00:00+00:00,-0.203386,0.011447,-0.074034,0.183303
2026-03-31 00:00:00+00:00,-0.196951,0.044375,-0.099689,0.173185
2026-03-31 04:00:00+00:00,-0.215498,0.068577,-0.095416,0.160124
2026-03-31 08:00:00+00:00,-0.203932,0.113195,-0.116982,0.13444
2026-03-31 12:00:00+00:00,-0.233201,0.159503,-0.092137,0.0927
2026-03-31 16:00:00+00:00,-0.19396,0.14751,-0.127007,0.108233
2026-03-31 20:00:00+00:00,-0.177934,0.179482,-0.132319,0.076855
2026-04-01 00:00:00+00:00,-0.20002,0.201067,-0.105435,0.049273
2026-04-01 04:00:00+00:00,-0.170576,0.20919,-0.12348,0.04043
2026-04-01 08:00:00+00:00,-0.148039,0.214623,-0.133544,0.030304
2026-04-01 12:00:00+00:00,-0.152872,0.220836,-0.144582,0.035432
2026-04-01 16:00:00+00:00,-0.180013,0.244883,-0.082904,-0.020261
2026-04-01 20:00:00+00:00,-0.110721,0.237985,-0.143385,-0.003796
2026-04-02 00:00:00+00:00,-0.101033,0.201842,-0.174613,0.044649
2026-04-02 04:00:00+00:00,-0.141786,0.215374,-0.146067,0.034025
2026-04-02 08:00:00+00:00,-0.150513,0.170758,-0.16339,0.092725
2026-04-02 12:00:00+00:00,-0.142479,0.140033,-0.170785,0.119699
2026-04-02 16:00:00+00:00,-0.104339,0.18275,-0.18285,0.070486
2026-04-02 20:00:00+00:00,-0.119227,0.162429,-0.182729,0.095655
2026-04-03 00:00:00+00:00,-0.13976,0.167834,-0.172147,0.094448
2026-04-03 04:00:00+00:00,-0.146704,0.199118,-0.160672,0.062408
2026-04-03 08:00:00+00:00,-0.191186,0.18283,-0.144934,0.087964
2026-04-03 12:00:00+00:00,-0.193811,0.240029,-0.115205,0.016787
2026-04-03 16:00:00+00:00,-0.180974,0.241778,-0.123293,0.01534
2026-04-03 20:00:00+00:00,-0.194559,0.221586,-0.138718,0.053164
2026-04-04 00:00:00+00:00,-0.212409,0.219639,-0.12744,0.055841
2026-04-04 04:00:00+00:00,-0.209073,0.189685,-0.143926,0.092362
2026-04-04 08:00:00+00:00,-0.209985,0.175551,-0.148051,0.107227
2026-04-04 12:00:00+00:00,-0.234194,0.188457,-0.131006,0.096319
2026-04-04 16:00:00+00:00,-0.227719,0.16158,-0.140359,0.122904
2026-04-04 20:00:00+00:00,-0.167185,0.085027,-0.167413,0.17243
2026-04-05 00:00:00+00:00,-0.171879,0.054168,-0.153153,0.187662
2026-04-05 04:00:00+00:00,-0.134774,0.064159,-0.178233,0.179315
2026-04-05 08:00:00+00:00,-0.116235,0.070632,-0.190991,0.173875
2026-04-05 12:00:00+00:00,-0.072203,0.05056,-0.207924,0.176654
2026-04-05 16:00:00+00:00,-0.053649,0.004767,-0.196246,0.192751
2026-04-05 20:00:00+00:00,0.003937,0.023883,-0.223585,0.168786
2026-04-06 00:00:00+00:00,-0.068462,0.075707,-0.214782,0.162446
2026-04-06 04:00:00+00:00,0.026927,0.124642,-0.250284,0.097586
2026-04-06 08:00:00+00:00,0.097339,0.133522,-0.255767,0.053793
2026-04-06 12:00:00+00:00,0.015335,0.056599,-0.238192,0.148637
2026-04-06 16:00:00+00:00,0.031672,0.109283,-0.251944,0.108177
2026-04-06 20:00:00+00:00,0.11878,0.106841,-0.258045,0.06426
2026-04-07 00:00:00+00:00,0.126687,0.128578,-0.254978,0.039503
2026-04-07 04:00:00+00:00,0.132587,0.13834,-0.251767,0.025308
2026-04-07 08:00:00+00:00,0.121013,0.144147,-0.251053,0.026961
2026-04-07 12:00:00+00:00,0.155763,0.19731,-0.159572,-0.113775
2026-04-07 16:00:00+00:00,0.186756,0.171495,-0.099529,-0.159672
2026-04-07 20:00:00+00:00,0.191876,0.153215,-0.099225,-0.155423
2026-04-08 00:00:00+00:00,0.181598,0.167887,-0.141052,-0.123348
2026-04-08 04:00:00+00:00,0.161271,0.162919,-0.202034,-0.053828
2026-04-08 08:00:00+00:00,0.174292,0.137501,-0.220748,-0.024819
2026-04-08 12:00:00+00:00,0.178624,0.158508,-0.193866,-0.068124
2026-04-08 16:00:00+00:00,0.171054,0.16888,-0.181228,-0.085831
2026-04-08 20:00:00+00:00,0.174557,0.13241,-0.226877,-0.015445
2026-04-09 00:00:00+00:00,0.152975,0.147881,-0.226456,-0.014535
2026-04-09 04:00:00+00:00,0.155998,0.16257,-0.213615,-0.039747
2026-04-09 08:00:00+00:00,0.161039,0.134139,-0.233223,-0.001378
2026-04-09 12:00:00+00:00,0.19846,0.119344,-0.225569,-0.018794
2026-04-09 16:00:00+00:00,0.156328,0.114335,-0.245123,0.027774
2026-04-09 20:00:00+00:00,0.18115,0.107875,-0.240859,0.01456
2026-04-10 00:00:00+00:00,0.160627,0.082884,-0.248784,0.054852
2026-04-10 04:00:00+00:00,0.146614,0.087874,-0.249697,0.059705
2026-04-10 08:00:00+00:00,0.141156,0.090974,-0.250102,0.0597
2026-04-10 12:00:00+00:00,0.130484,0.074964,-0.25046,0.081909
2026-04-10 16:00:00+00:00,0.183978,0.09224,-0.245746,0.029781
2026-04-10 20:00:00+00:00,0.177746,0.106871,-0.243934,0.019828
2026-04-11 00:00:00+00:00,0.163999,0.0724,-0.251863,0.063689
2026-04-11 04:00:00+00:00,0.119082,0.048158,-0.249417,0.109089
2026-04-11 08:00:00+00:00,0.139208,0.062875,-0.253154,0.087813
2026-04-11 12:00:00+00:00,0.126533,0.081338,-0.25426,0.08068
2026-04-11 16:00:00+00:00,0.118966,0.104794,-0.252583,0.062658
2026-04-11 20:00:00+00:00,0.149213,0.113823,-0.247842,0.032632
2026-04-12 00:00:00+00:00,0.124555,0.101076,-0.252409,0.059743
2026-04-12 04:00:00+00:00,0.095474,0.110763,-0.252213,0.068376
2026-04-12 08:00:00+00:00,0.060162,0.057315,-0.245338,0.127971
2026-04-12 12:00:00+00:00,0.035805,0.05354,-0.239418,0.141913
2026-04-12 16:00:00+00:00,0.029289,0.048988,-0.236538,0.147623
2026-04-12 20:00:00+00:00,-0.001078,0.047053,-0.227613,0.159723
2026-04-13 00:00:00+00:00,0.008293,0.043316,-0.229135,0.158536
2026-04-13 04:00:00+00:00,0.004056,0.051733,-0.231094,0.155084
2026-04-13 08:00:00+00:00,0.008347,0.040821,-0.228843,0.159662
2026-04-13 12:00:00+00:00,0.094601,0.050394,-0.249614,0.118732
2026-04-13 16:00:00+00:00,0.130489,0.059827,-0.252853,0.090172
2026-04-13 20:00:00+00:00,0.087778,0.10639,-0.249726,0.072048
2026-04-14 00:00:00+00:00,0.078371,0.0951,-0.24938,0.087747
2026-04-14 04:00:00+00:00,0.074347,0.102014,-0.249033,0.083958
2026-04-14 08:00:00+00:00,0.065344,0.112709,-0.24776,0.078763
2026-04-14 12:00:00+00:00,0.140036,0.10012,-0.24922,0.044499
2026-04-14 16:00:00+00:00,0.127017,0.081271,-0.249172,0.070099
2026-04-14 20:00:00+00:00,0.09196,0.094078,-0.257967,0.081434
2026-04-15 00:00:00+00:00,0.078705,0.08009,-0.256429,0.101289
2026-04-15 04:00:00+00:00,0.080347,0.091862,-0.25738,0.091185
2026-04-15 08:00:00+00:00,0.078231,0.114646,-0.256214,0.071773
2026-04-15 12:00:00+00:00,0.067957,0.108695,-0.255819,0.083059
2026-04-15 16:00:00+00:00,0.07682,0.115718,-0.256764,0.072067
2026-04-15 20:00:00+00:00,0.094801,0.117811,-0.257408,0.060456
2026-04-16 00:00:00+00:00,0.083692,0.100249,-0.260569,0.0842
2026-04-16 04:00:00+00:00,0.1055,0.090192,-0.261914,0.080984
2026-04-16 08:00:00+00:00,0.136538,0.111357,-0.258786,0.039635
2026-04-16 12:00:00+00:00,0.177183,0.103064,-0.251172,0.016724
2026-04-16 16:00:00+00:00,0.231872,0.116293,-0.200756,-0.070784
2026-04-16 20:00:00+00:00,0.213128,0.123555,-0.212217,-0.054095
2026-04-17 00:00:00+00:00,0.21551,0.12015,-0.213169,-0.051305
2026-04-17 04:00:00+00:00,0.231762,0.110831,-0.208372,-0.057773
2026-04-17 08:00:00+00:00,0.239802,0.120514,-0.184242,-0.094164
2026-04-17 12:00:00+00:00,0.233126,0.122252,-0.189534,-0.088183
2026-04-17 16:00:00+00:00,0.232194,0.126497,-0.179454,-0.100468
2026-04-17 20:00:00+00:00,0.22268,0.13143,-0.188022,-0.091168
2026-04-18 00:00:00+00:00,0.221644,0.123268,-0.205638,-0.067524
2026-04-18 04:00:00+00:00,0.233971,0.12309,-0.192336,-0.087133
2026-04-18 08:00:00+00:00,0.221271,0.10948,-0.220998,-0.040558
2026-04-18 12:00:00+00:00,0.214466,0.114151,-0.225613,-0.036637
2026-04-18 16:00:00+00:00,0.219403,0.106978,-0.228488,-0.0305
2026-04-18 20:00:00+00:00,0.212756,0.100721,-0.236435,-0.013189
2026-04-19 00:00:00+00:00,0.213684,0.086565,-0.242329,0.004872
2026-04-19 04:00:00+00:00,0.217436,0.064487,-0.245455,0.025391
2026-04-19 08:00:00+00:00,0.213058,0.044333,-0.2473,0.048906
2026-04-19 12:00:00+00:00,0.237726,0.039232,-0.240088,0.031573
2026-04-19 16:00:00+00:00,0.256566,0.064319,-0.225203,-0.017368
2026-04-19 20:00:00+00:00,0.224775,0.073288,-0.237076,0.005517
2026-04-20 00:00:00+00:00,0.234399,0.055333,-0.235724,0.013931
2026-04-20 04:00:00+00:00,0.235816,0.059216,-0.234408,0.008293
2026-04-20 08:00:00+00:00,0.247628,0.024715,-0.232094,0.02938
2026-04-20 12:00:00+00:00,0.28509,0.00154,-0.212524,0.008371
2026-04-20 16:00:00+00:00,0.273893,0.009066,-0.218985,0.014464
2026-04-20 20:00:00+00:00,0.273306,0.015947,-0.223972,0.014029
2026-04-21 00:00:00+00:00,0.243486,0.00672,-0.235507,0.051029
2026-04-21 04:00:00+00:00,0.297146,0.007713,-0.210517,-0.006525
2026-04-21 08:00:00+00:00,0.312042,-0.008974,-0.200443,-0.01003
2026-04-21 12:00:00+00:00,0.321336,0.017444,-0.18303,-0.05474
2026-04-21 16:00:00+00:00,0.305357,0.005797,-0.204402,-0.014592
2026-04-21 20:00:00+00:00,0.344177,-0.047342,-0.156193,-0.036957
2026-04-22 00:00:00+00:00,0.334697,0.00211,-0.148238,-0.081825
2026-04-22 04:00:00+00:00,0.319213,0.02266,-0.168653,-0.071765
2026-04-22 08:00:00+00:00,0.329554,0.018495,-0.169651,-0.071157
2026-04-22 12:00:00+00:00,0.335812,-0.003013,-0.169477,-0.058702
2026-04-22 16:00:00+00:00,0.328732,0.000665,-0.181616,-0.047195
2026-04-22 20:00:00+00:00,0.323686,-0.001081,-0.188299,-0.037329
2026-04-23 00:00:00+00:00,0.333309,-0.009453,-0.176058,-0.047056
2026-04-23 04:00:00+00:00,0.325623,-0.011208,-0.189822,-0.02886
2026-04-23 08:00:00+00:00,0.327532,-0.011342,-0.187156,-0.032395
2026-04-23 12:00:00+00:00,0.324883,-0.02458,-0.196253,-0.011012
2026-04-23 16:00:00+00:00,0.3289,-0.014929,-0.191731,-0.025667
2026-04-23 20:00:00+00:00,0.330841,-0.019243,-0.195128,-0.020585
2026-04-24 00:00:00+00:00,0.338525,-0.02351,-0.185596,-0.030452
2026-04-24 04:00:00+00:00,0.33056,-0.017925,-0.195097,-0.022096
2026-04-24 08:00:00+00:00,0.337718,-0.012088,-0.186374,-0.039085
2026-04-24 12:00:00+00:00,0.33015,-0.010698,-0.198803,-0.024542
2026-04-24 16:00:00+00:00,0.330655,-0.021328,-0.19828,-0.016554
2026-04-24 20:00:00+00:00,0.339842,-0.014994,-0.186962,-0.037239
2026-04-25 00:00:00+00:00,0.337425,-0.021262,-0.191656,-0.026401
2026-04-25 04:00:00+00:00,0.33912,-0.019326,-0.193504,-0.028089
2026-04-25 08:00:00+00:00,0.328545,-0.030547,-0.20696,-0.000576
2026-04-25 12:00:00+00:00,0.331849,-0.046074,-0.201091,0.005212
2026-04-25 16:00:00+00:00,0.339119,-0.030701,-0.199895,-0.014533
2026-04-25 20:00:00+00:00,0.328141,-0.026929,-0.211138,-0.001737
2026-04-26 00:00:00+00:00,0.342409,-0.04703,-0.194649,-0.007855
2026-04-26 04:00:00+00:00,0.358609,-0.048764,-0.1721,-0.03632
2026-04-26 08:00:00+00:00,0.363326,-0.042014,-0.1866,-0.02998
2026-04-26 12:00:00+00:00,0.369054,-0.035974,-0.179386,-0.043864
2026-04-26 16:00:00+00:00,0.344019,-0.017634,-0.211544,-0.016381
2026-04-26 20:00:00+00:00,0.336412,-0.048068,-0.213522,0.015168
2026-04-27 00:00:00+00:00,0.327254,-0.055818,-0.216572,0.029796
2026-04-27 04:00:00+00:00,0.298332,-0.083541,-0.210653,0.06672
2026-04-27 08:00:00+00:00,0.32728,-0.071818,-0.203798,0.03296
2026-04-27 12:00:00+00:00,0.311558,-0.093483,-0.199212,0.056796
2026-04-27 16:00:00+00:00,0.315296,-0.036251,-0.222336,0.025507
2026-04-27 20:00:00+00:00,0.297662,-0.073969,-0.216671,0.063336
2026-04-28 00:00:00+00:00,0.318119,-0.085893,-0.202071,0.047892
2026-04-28 04:00:00+00:00,0.369082,-0.076285,-0.162037,-0.02581
2026-04-28 08:00:00+00:00,0.365184,-0.06047,-0.170499,-0.03011
2026-04-28 12:00:00+00:00,0.368482,-0.031445,-0.161636,-0.064368
2026-04-28 16:00:00+00:00,0.343561,-0.033749,-0.202425,-0.012282
2026-04-28 20:00:00+00:00,0.367381,-0.019157,-0.157962,-0.077305
2026-04-29 00:00:00+00:00,0.368589,-0.005108,-0.142853,-0.1024
2026-04-29 04:00:00+00:00,0.358864,0.013575,-0.160653,-0.096964
2026-04-29 08:00:00+00:00,0.356612,0.020179,-0.141423,-0.117881
2026-04-29 12:00:00+00:00,0.35327,0.01097,-0.153224,-0.100907
2026-04-29 16:00:00+00:00,0.361487,-0.020732,-0.177544,-0.058753
2026-04-29 20:00:00+00:00,0.356405,0.004274,-0.17104,-0.082238
2026-04-30 00:00:00+00:00,0.348894,0.027152,-0.11366,-0.145087
2026-04-30 04:00:00+00:00,0.346433,0.029578,-0.107296,-0.151412
2026-04-30 08:00:00+00:00,0.329453,0.034214,-0.063033,-0.183529
2026-04-30 12:00:00+00:00,0.32875,0.037582,-0.067698,-0.182013
2026-04-30 16:00:00+00:00,0.348294,0.031799,-0.102496,-0.15911
2026-04-30 20:00:00+00:00,0.359883,0.013948,-0.101689,-0.151214
2026-05-01 00:00:00+00:00,0.352841,0.018145,-0.089662,-0.160628
2026-05-01 04:00:00+00:00,0.330523,0.031109,-0.053859,-0.188814
2026-05-01 08:00:00+00:00,0.35592,0.005502,-0.073754,-0.165294
2026-05-01 12:00:00+00:00,0.368445,-0.00476,-0.107456,-0.137305
2026-05-01 16:00:00+00:00,0.379818,-0.028794,-0.099708,-0.13151
2026-05-01 20:00:00+00:00,0.384829,-0.039999,-0.110983,-0.117663
2026-05-02 00:00:00+00:00,0.39006,-0.029575,-0.112232,-0.12699
2026-05-02 04:00:00+00:00,0.396906,-0.048995,-0.130078,-0.100123
2026-05-02 08:00:00+00:00,0.395277,-0.035613,-0.142555,-0.099776
2026-05-02 12:00:00+00:00,0.389776,-0.020954,-0.111121,-0.13399
2026-05-02 16:00:00+00:00,0.38924,-0.021969,-0.10522,-0.137622
2026-05-02 20:00:00+00:00,0.385506,-0.018614,-0.094294,-0.146937
2026-05-03 00:00:00+00:00,0.375695,-0.00176,-0.090182,-0.158453
2026-05-03 04:00:00+00:00,0.375928,0.005902,-0.105495,-0.152692
2026-05-03 08:00:00+00:00,0.362371,0.017664,-0.083042,-0.172624
2026-05-03 12:00:00+00:00,0.345756,0.035708,-0.071323,-0.186876
2026-05-03 16:00:00+00:00,0.345903,0.03221,-0.065756,-0.188225
2026-05-03 20:00:00+00:00,0.395032,-0.044703,-0.089341,-0.134856
2026-05-04 00:00:00+00:00,0.372693,-0.01974,-0.071686,-0.159707
2026-05-04 04:00:00+00:00,0.376537,-0.038161,-0.061664,-0.155102
2026-05-04 08:00:00+00:00,0.368414,-0.030521,-0.054945,-0.162816
2026-05-04 12:00:00+00:00,0.377198,-0.037523,-0.084199,-0.140675
2026-05-04 16:00:00+00:00,0.361167,-0.017712,-0.060618,-0.166527
2026-05-04 20:00:00+00:00,0.368356,-0.035452,-0.057844,-0.158567
2026-05-05 00:00:00+00:00,0.360247,-0.028242,-0.050031,-0.166894
2026-05-05 04:00:00+00:00,0.379221,-0.057856,-0.070942,-0.136079
2026-05-05 08:00:00+00:00,0.381913,-0.06633,-0.072032,-0.129346
2026-05-05 12:00:00+00:00,0.380283,-0.061317,-0.071865,-0.132861
2026-05-05 16:00:00+00:00,0.382991,-0.094883,-0.054105,-0.120443
2026-05-05 20:00:00+00:00,0.384924,-0.094582,-0.037292,-0.133703
2026-05-06 00:00:00+00:00,0.382572,-0.090954,-0.035065,-0.137493
2026-05-06 04:00:00+00:00,0.374133,-0.080886,-0.020828,-0.152293
2026-05-06 08:00:00+00:00,0.363736,-0.08545,-0.000437,-0.15926
2026-05-06 12:00:00+00:00,0.370944,-0.079704,-0.021715,-0.150041
2026-05-06 16:00:00+00:00,0.391378,-0.078778,-0.100025,-0.10003
2026-05-06 20:00:00+00:00,0.392995,-0.080948,-0.08574,-0.112008
2026-05-07 00:00:00+00:00,0.390395,-0.079699,-0.076987,-0.117742
2026-05-07 04:00:00+00:00,0.381605,-0.099904,-0.033805,-0.128859
2026-05-07 08:00:00+00:00,0.377744,-0.118695,-0.019555,-0.122409
2026-05-07 12:00:00+00:00,0.354176,-0.148807,0.028489,-0.122065
2026-05-07 16:00:00+00:00,0.357012,-0.175259,0.021173,-0.095922
2026-05-07 20:00:00+00:00,0.378601,-0.193715,0.034485,-0.101588
2026-05-08 00:00:00+00:00,0.362601,-0.171978,0.067549,-0.134484
2026-05-08 04:00:00+00:00,0.374762,-0.203949,0.039725,-0.095568
2026-05-08 08:00:00+00:00,0.361065,-0.149876,0.067589,-0.153505
2026-05-08 12:00:00+00:00,0.338108,-0.183708,0.100768,-0.138132
2026-05-08 16:00:00+00:00,0.25453,-0.178989,0.178316,-0.156752
2026-05-08 20:00:00+00:00,0.273018,-0.202648,0.162621,-0.136858
2026-05-09 00:00:00+00:00,0.218619,-0.231006,0.197559,-0.108874
2026-05-09 04:00:00+00:00,0.196757,-0.209043,0.216252,-0.128567
2026-05-09 08:00:00+00:00,0.214451,-0.211759,0.204562,-0.127689
2026-05-09 12:00:00+00:00,0.261921,-0.188852,0.174827,-0.150347
2026-05-09 16:00:00+00:00,0.274293,-0.22215,0.160377,-0.119428
2026-05-09 20:00:00+00:00,0.267076,-0.221069,0.167482,-0.122473
2026-05-10 00:00:00+00:00,0.258257,-0.218705,0.175336,-0.125957
2026-05-10 04:00:00+00:00,0.24383,-0.252904,0.175585,-0.089025
2026-05-10 08:00:00+00:00,0.240716,-0.246907,0.182275,-0.099529
2026-05-10 12:00:00+00:00,0.236375,-0.250862,0.183068,-0.094222
2026-05-10 16:00:00+00:00,0.130801,-0.240811,0.246954,-0.090788
2026-05-10 20:00:00+00:00,0.18841,-0.230947,0.220982,-0.112966
2026-05-11 00:00:00+00:00,0.168625,-0.207704,0.232393,-0.130516
2026-05-11 04:00:00+00:00,0.147084,-0.210807,0.24316,-0.123965
2026-05-11 08:00:00+00:00,0.161994,-0.193138,0.237026,-0.142869
2026-05-11 12:00:00+00:00,0.164543,-0.231031,0.228501,-0.107497
2026-05-11 16:00:00+00:00,0.135905,-0.26742,0.231031,-0.066872
2026-05-11 20:00:00+00:00,0.126658,-0.262925,0.238943,-0.072136
2026-05-12 00:00:00+00:00,0.113125,-0.269432,0.251272,-0.068272
2026-05-12 04:00:00+00:00,0.100267,-0.291956,0.241076,-0.033267
2026-05-12 08:00:00+00:00,0.132995,-0.28355,0.234422,-0.056157
2026-05-12 12:00:00+00:00,0.088345,-0.274834,0.254819,-0.05182
2026-05-12 16:00:00+00:00,0.092215,-0.252924,0.263085,-0.078975
2026-05-12 20:00:00+00:00,0.119155,-0.234998,0.258222,-0.106282
2026-05-13 00:00:00+00:00,0.106051,-0.207583,0.266859,-0.128437
2026-05-13 04:00:00+00:00,0.101344,-0.179045,0.269818,-0.151289
2026-05-13 08:00:00+00:00,0.112468,-0.135538,0.259982,-0.184457
2026-05-13 12:00:00+00:00,0.120028,-0.140227,0.245111,-0.181815
2026-05-13 16:00:00+00:00,0.149091,-0.15611,0.235393,-0.180641
2026-05-13 20:00:00+00:00,0.123333,-0.155237,0.252112,-0.184087
2026-05-14 00:00:00+00:00,0.163252,-0.136866,0.227642,-0.202718
2026-05-14 04:00:00+00:00,0.166088,-0.152433,0.228112,-0.192335
2026-05-14 08:00:00+00:00,0.133735,-0.175225,0.247316,-0.171388
2026-05-14 12:00:00+00:00,0.142778,-0.306764,0.207693,-0.037764
2026-05-14 16:00:00+00:00,0.129677,-0.35924,0.143658,0.052704
2026-05-14 20:00:00+00:00,0.155313,-0.358478,0.135195,0.044418
2026-05-15 00:00:00+00:00,0.058164,-0.344034,0.062215,0.137355
2026-05-15 04:00:00+00:00,0.065975,-0.343455,0.053795,0.139379
2026-05-15 08:00:00+00:00,0.094755,-0.359205,0.091359,0.106309
2026-05-15 12:00:00+00:00,0.104531,-0.355763,0.077242,0.107557
2026-05-15 16:00:00+00:00,0.057611,-0.354458,0.094536,0.116949
2026-05-15 20:00:00+00:00,0.076217,-0.359321,0.099041,0.106786
2026-05-16 00:00:00+00:00,0.121171,-0.365139,0.11717,0.073742
2026-05-16 04:00:00+00:00,0.109817,-0.362028,0.103381,0.087213
2026-05-16 08:00:00+00:00,0.164278,-0.362082,0.094896,0.064926
2026-05-16 12:00:00+00:00,0.17617,-0.360403,0.106048,0.050612
2026-05-16 16:00:00+00:00,0.161691,-0.363227,0.106546,0.061836
2026-05-16 20:00:00+00:00,0.134014,-0.363489,0.12406,0.064396
2026-05-17 00:00:00+00:00,0.125801,-0.364861,0.113743,0.076198
2026-05-17 04:00:00+00:00,0.123084,-0.361255,0.151075,0.050693
2026-05-17 08:00:00+00:00,0.120746,-0.363202,0.146159,0.055862
2026-05-17 12:00:00+00:00,0.113061,-0.384282,0.112527,0.087333
2026-05-17 16:00:00+00:00,0.032201,-0.347589,0.038815,0.147129
2026-05-17 20:00:00+00:00,0.029861,-0.334359,0.033503,0.148908
2026-05-18 00:00:00+00:00,0.01898,-0.33058,0.033662,0.151963
2026-05-18 04:00:00+00:00,0.014935,-0.326282,0.027662,0.155534
2026-05-18 08:00:00+00:00,0.028962,-0.333146,0.021709,0.154224
2026-05-18 12:00:00+00:00,0.019271,-0.328526,0.022434,0.156015
2026-05-18 16:00:00+00:00,0.009319,-0.319967,0.01421,0.15935
2026-05-18 20:00:00+00:00,-0.015335,-0.30152,-2.9e-05,0.168167
2026-05-19 00:00:00+00:00,-0.035245,-0.290739,-0.002632,0.173193
2026-05-19 04:00:00+00:00,-0.017824,-0.303064,0.002795,0.168101
2026-05-19 08:00:00+00:00,-0.034969,-0.288525,-0.005056,0.173941
2026-05-19 12:00:00+00:00,-0.023631,-0.290784,-0.010306,0.173177
2026-05-19 16:00:00+00:00,-0.030617,-0.287482,-0.013152,0.178346
2026-05-19 20:00:00+00:00,-0.011792,-0.29541,-0.01954,0.176598
2026-05-20 00:00:00+00:00,-0.0168,-0.295368,-0.018119,0.177078
2026-05-20 04:00:00+00:00,-0.026377,-0.283595,-0.028128,0.180873
2026-05-20 08:00:00+00:00,-0.041422,-0.269131,-0.038269,0.184744
2026-05-20 12:00:00+00:00,-0.071584,-0.261834,-0.0253,0.184371
2026-05-20 16:00:00+00:00,-0.07769,-0.257615,-0.027403,0.184144
2026-05-20 20:00:00+00:00,-0.082491,-0.251702,-0.032294,0.184139
2026-05-21 00:00:00+00:00,-0.090347,-0.244157,-0.03498,0.183796
2026-05-21 04:00:00+00:00,-0.097943,-0.232755,-0.043555,0.185212
2026-05-21 08:00:00+00:00,-0.100431,-0.235702,-0.036469,0.183373
2026-05-21 12:00:00+00:00,-0.131413,-0.21686,-0.034172,0.179323
2026-05-21 16:00:00+00:00,-0.132699,-0.243895,0.003336,0.167705
2026-05-21 20:00:00+00:00,-0.131796,-0.242022,-0.004583,0.169479
2026-05-22 00:00:00+00:00,-0.12637,-0.252121,-0.000174,0.167247
2026-05-22 04:00:00+00:00,-0.129176,-0.254424,0.003881,0.166588
2026-05-22 08:00:00+00:00,-0.134536,-0.243945,-0.006816,0.166207
2026-05-22 12:00:00+00:00,-0.144228,-0.248522,0.008459,0.159882
2026-05-22 16:00:00+00:00,-0.125154,-0.249561,0.002399,0.157409
2026-05-22 20:00:00+00:00,-0.136819,-0.247098,0.007905,0.156657
2026-05-23 00:00:00+00:00,-0.136837,-0.247179,0.005336,0.156808
2026-05-23 04:00:00+00:00,-0.130216,-0.233588,-0.013468,0.160393
2026-05-23 08:00:00+00:00,-0.129409,-0.237384,-0.009351,0.159333
2026-05-23 12:00:00+00:00,-0.133355,-0.233739,-0.007979,0.158026
2026-05-23 16:00:00+00:00,-0.133183,-0.235032,-0.006334,0.157916
2026-05-23 20:00:00+00:00,-0.136653,-0.229518,-0.006656,0.158301
2026-05-24 00:00:00+00:00,-0.151156,-0.221661,-0.006018,0.158605
2026-05-24 04:00:00+00:00,-0.149682,-0.217775,-0.012674,0.158884
2026-05-24 08:00:00+00:00,-0.136615,-0.225512,-0.014123,0.158097
2026-05-24 12:00:00+00:00,-0.158927,-0.20514,-0.01863,0.160247
2026-05-24 16:00:00+00:00,-0.150518,-0.212446,-0.016346,0.159151
2026-05-24 20:00:00+00:00,-0.143698,-0.217612,-0.015396,0.158538
2026-05-25 00:00:00+00:00,-0.147281,-0.221705,-0.006754,0.156476
2026-05-25 04:00:00+00:00,-0.151693,-0.219114,-0.004988,0.155391
2026-05-25 08:00:00+00:00,-0.154097,-0.218691,-0.003446,0.155314
2026-05-25 12:00:00+00:00,-0.16301,-0.214903,-0.000215,0.155021
2026-05-25 16:00:00+00:00,-0.1602,-0.204321,-0.016976,0.157955
2026-05-25 20:00:00+00:00,-0.144638,-0.209456,-0.023855,0.157974
2026-05-26 00:00:00+00:00,-0.150409,-0.205449,-0.022972,0.157065
2026-05-26 04:00:00+00:00,-0.145921,-0.204936,-0.028881,0.15771
2026-05-26 08:00:00+00:00,-0.15102,-0.190735,-0.040215,0.159186
2026-05-26 12:00:00+00:00,-0.154034,-0.178882,-0.049311,0.160071
2026-05-26 16:00:00+00:00,-0.150943,-0.176298,-0.054668,0.15972
2026-05-26 20:00:00+00:00,-0.15297,-0.17887,-0.050471,0.158793
2026-05-27 00:00:00+00:00,-0.162317,-0.176733,-0.04669,0.159013
2026-05-27 04:00:00+00:00,-0.158529,-0.175106,-0.06259,0.159883
2026-05-27 08:00:00+00:00,-0.154152,-0.175229,-0.065828,0.160043
2026-05-27 12:00:00+00:00,-0.163683,-0.184312,-0.052889,0.158231
2026-05-27 16:00:00+00:00,-0.165328,-0.184117,-0.051729,0.158125
2026-05-27 20:00:00+00:00,-0.156669,-0.187953,-0.052231,0.155914
2026-05-28 00:00:00+00:00,-0.151791,-0.182384,-0.056697,0.156473
2026-05-28 04:00:00+00:00,-0.156835,-0.180274,-0.054543,0.156384
2026-05-28 08:00:00+00:00,-0.158464,-0.180207,-0.054,0.156168
2026-05-28 12:00:00+00:00,-0.167159,-0.170456,-0.057219,0.156832
2026-05-28 16:00:00+00:00,-0.146464,-0.159707,-0.082321,0.155343
2026-05-28 20:00:00+00:00,-0.145914,-0.162406,-0.080192,0.155148
2026-05-29 00:00:00+00:00,-0.140706,-0.156443,-0.090392,0.155495
2026-05-29 04:00:00+00:00,-0.138418,-0.15853,-0.089964,0.154904
2026-05-29 08:00:00+00:00,-0.14004,-0.156206,-0.091342,0.154877
2026-05-29 12:00:00+00:00,-0.158795,-0.153824,-0.086839,0.152917
2026-05-29 16:00:00+00:00,-0.158086,-0.157661,-0.085577,0.152822
2026-05-29 20:00:00+00:00,-0.156078,-0.162057,-0.083789,0.151806
2026-05-30 00:00:00+00:00,-0.15963,-0.162612,-0.08067,0.151724
2026-05-30 04:00:00+00:00,-0.156768,-0.161093,-0.084216,0.151784
2026-05-30 08:00:00+00:00,-0.158519,-0.156201,-0.087516,0.151802
2026-05-30 12:00:00+00:00,-0.156362,-0.158172,-0.087177,0.151613
2026-05-30 16:00:00+00:00,-0.144142,-0.157725,-0.095723,0.151653
2026-05-30 20:00:00+00:00,-0.156369,-0.153896,-0.090945,0.151787
2026-05-31 00:00:00+00:00,-0.149736,-0.156095,-0.094763,0.151902
2026-05-31 04:00:00+00:00,-0.147882,-0.152419,-0.098923,0.152153
2026-05-31 08:00:00+00:00,-0.153253,-0.153131,-0.094965,0.151869
2026-05-31 12:00:00+00:00,-0.152581,-0.144804,-0.103745,0.151997
2026-05-31 16:00:00+00:00,-0.151783,-0.141307,-0.107186,0.151993
2026-05-31 20:00:00+00:00,-0.15609,-0.145637,-0.100421,0.150694
2026-06-01 00:00:00+00:00,-0.157039,-0.143913,-0.101389,0.150482
2026-06-01 04:00:00+00:00,-0.155478,-0.138696,-0.103013,0.150223
2026-06-01 08:00:00+00:00,-0.166379,-0.136184,-0.097917,0.150229
2026-06-01 12:00:00+00:00,-0.176375,-0.127417,-0.095607,0.149176
2026-06-01 16:00:00+00:00,-0.182038,-0.121804,-0.093497,0.14796
2026-06-01 20:00:00+00:00,-0.185478,-0.120833,-0.092008,0.147996
2026-06-02 00:00:00+00:00,-0.189186,-0.118792,-0.091312,0.147894
2026-06-02 04:00:00+00:00,-0.189409,-0.119007,-0.089096,0.146622
2026-06-02 08:00:00+00:00,-0.188614,-0.119831,-0.088454,0.146622
2026-06-02 12:00:00+00:00,-0.184648,-0.116552,-0.08074,0.14635
2026-06-02 16:00:00+00:00,-0.185448,-0.11513,-0.08121,0.146124
2026-06-02 20:00:00+00:00,-0.175043,-0.120099,-0.081185,0.14607
2026-06-03 00:00:00+00:00,-0.182464,-0.123299,-0.077645,0.146009
2026-06-03 04:00:00+00:00,-0.180295,-0.119997,-0.074082,0.145224
2026-06-03 08:00:00+00:00,-0.181201,-0.119204,-0.075404,0.14531
2026-06-03 12:00:00+00:00,-0.192939,-0.113537,-0.070261,0.144926
2026-06-03 16:00:00+00:00,-0.19282,-0.11439,-0.067709,0.144657
2026-06-03 20:00:00+00:00,-0.200472,-0.104959,-0.067129,0.144158
2026-06-04 00:00:00+00:00,-0.20566,-0.105083,-0.065464,0.144005
2026-06-04 04:00:00+00:00,-0.208099,-0.101824,-0.06325,0.137774
2026-06-04 08:00:00+00:00,-0.209711,-0.102311,-0.059237,0.137271
2026-06-04 12:00:00+00:00,-0.188008,-0.109111,-0.065504,0.138056
2026-06-04 16:00:00+00:00,-0.189078,-0.104559,-0.068722,0.137902
2026-06-04 20:00:00+00:00,-0.185433,-0.108125,-0.068603,0.137284
2026-06-05 00:00:00+00:00,-0.183948,-0.108679,-0.066194,0.135894
2026-06-05 04:00:00+00:00,-0.16688,-0.117085,-0.068518,0.136178
2026-06-05 08:00:00+00:00,-0.178811,-0.116756,-0.061534,0.135455
2026-06-05 12:00:00+00:00,-0.176105,-0.114105,-0.056336,0.132655
2026-06-05 16:00:00+00:00,-0.172774,-0.113019,-0.059859,0.132854
2026-06-05 20:00:00+00:00,-0.161047,-0.116557,-0.064056,0.132962
2026-06-06 00:00:00+00:00,-0.158345,-0.118746,-0.06412,0.133066
2026-06-06 04:00:00+00:00,-0.154723,-0.114841,-0.072186,0.133528
2026-06-06 08:00:00+00:00,-0.155295,-0.117108,-0.069632,0.133548
2026-06-06 12:00:00+00:00,-0.1548,-0.117964,-0.070463,0.13336
2026-06-06 16:00:00+00:00,-0.159838,-0.117666,-0.067071,0.131651
2026-06-06 20:00:00+00:00,-0.165518,-0.108932,-0.070346,0.131593
2026-06-07 00:00:00+00:00,-0.162121,-0.111944,-0.066922,0.131295
2026-06-07 04:00:00+00:00,-0.16042,-0.112918,-0.065324,0.130657
2026-06-07 08:00:00+00:00,-0.162014,-0.111003,-0.066083,0.1305
2026-06-07 12:00:00+00:00,-0.16561,-0.106834,-0.067239,0.130526
2026-06-07 16:00:00+00:00,-0.165934,-0.102833,-0.071748,0.130434
2026-06-07 20:00:00+00:00,-0.156798,-0.088799,-0.077986,0.129884
2026-06-08 00:00:00+00:00,-0.153174,-0.093157,-0.077315,0.129759
2026-06-08 04:00:00+00:00,-0.149182,-0.094677,-0.078872,0.129483
2026-06-08 08:00:00+00:00,-0.155906,-0.092018,-0.075882,0.129155
2026-06-08 12:00:00+00:00,-0.151672,-0.094199,-0.076794,0.128477
2026-06-08 16:00:00+00:00,-0.162817,-0.094518,-0.067978,0.127835
2026-06-08 20:00:00+00:00,-0.164991,-0.088031,-0.072319,0.127876
2026-06-09 00:00:00+00:00,-0.16028,-0.091252,-0.072665,0.127264
2026-06-09 04:00:00+00:00,-0.16385,-0.092926,-0.067562,0.127038
2026-06-09 08:00:00+00:00,-0.168701,-0.088708,-0.067397,0.126864
2026-06-09 12:00:00+00:00,-0.16762,-0.082309,-0.070604,0.125489
2026-06-09 16:00:00+00:00,-0.162109,-0.083476,-0.072497,0.12563
2026-06-09 20:00:00+00:00,-0.166492,-0.081888,-0.07082,0.125416
2026-06-10 00:00:00+00:00,-0.172241,-0.080648,-0.069421,0.125157
2026-06-10 04:00:00+00:00,-0.176683,-0.072352,-0.073322,0.124812
2026-06-10 08:00:00+00:00,-0.1743,-0.073566,-0.073604,0.125001
2026-06-10 12:00:00+00:00,-0.152028,-0.081531,-0.078592,0.125273
2026-06-10 16:00:00+00:00,-0.141635,-0.074509,-0.091558,0.123171
2026-06-10 20:00:00+00:00,-0.15034,-0.070948,-0.088037,0.12288
2026-06-11 00:00:00+00:00,-0.150744,-0.081366,-0.074852,0.122767
2026-06-11 04:00:00+00:00,-0.144257,-0.079302,-0.0817,0.122927
2026-06-11 08:00:00+00:00,-0.145285,-0.0792,-0.080449,0.122703
2026-06-11 12:00:00+00:00,-0.135196,-0.08923,-0.079104,0.123165
2026-06-11 16:00:00+00:00,-0.146471,-0.079091,-0.077996,0.122371
2026-06-11 20:00:00+00:00,-0.13673,-0.087464,-0.077872,0.122644
2026-06-12 00:00:00+00:00,-0.139908,-0.087347,-0.076594,0.122588
2026-06-12 04:00:00+00:00,-0.15002,-0.085381,-0.070324,0.121494
2026-06-12 08:00:00+00:00,-0.142149,-0.089684,-0.071792,0.121357
2026-06-12 12:00:00+00:00,-0.138234,-0.09599,-0.073787,0.121491
2026-06-12 16:00:00+00:00,-0.137332,-0.089275,-0.081523,0.121498
2026-06-12 20:00:00+00:00,-0.137692,-0.096639,-0.07434,0.121108
2026-06-13 00:00:00+00:00,-0.13881,-0.097798,-0.07262,0.12106
2026-06-13 04:00:00+00:00,-0.139833,-0.09725,-0.072849,0.121158
2026-06-13 08:00:00+00:00,-0.149366,-0.095405,-0.067002,0.120878
2026-06-13 12:00:00+00:00,-0.155098,-0.101669,-0.060934,0.124448
2026-06-13 16:00:00+00:00,-0.156755,-0.099435,-0.061871,0.125536
2026-06-13 20:00:00+00:00,-0.167148,-0.101601,-0.050754,0.124805
2026-06-14 00:00:00+00:00,-0.166414,-0.102541,-0.050368,0.126411
2026-06-14 04:00:00+00:00,-0.157165,-0.101381,-0.059342,0.127024
2026-06-14 08:00:00+00:00,-0.151427,-0.104022,-0.061326,0.127378
2026-06-14 12:00:00+00:00,-0.156068,-0.099529,-0.064276,0.128093
2026-06-14 16:00:00+00:00,-0.164988,-0.098354,-0.058093,0.127696
2026-06-14 20:00:00+00:00,-0.167354,-0.108249,-0.034432,0.124621
2026-06-15 00:00:00+00:00,-0.154524,-0.11284,-0.040594,0.125437
2026-06-15 04:00:00+00:00,-0.158492,-0.113226,-0.037723,0.125658
2026-06-15 08:00:00+00:00,-0.170323,-0.098859,-0.040483,0.125382
2026-06-15 12:00:00+00:00,-0.213696,-0.06217,-0.032338,0.121977
2026-06-15 16:00:00+00:00,-0.215235,-0.071741,-0.019738,0.120972
2026-06-15 20:00:00+00:00,-0.195188,-0.078125,-0.032199,0.123517
2026-06-16 00:00:00+00:00,-0.181992,-0.085548,-0.036298,0.12381
2026-06-16 04:00:00+00:00,-0.176622,-0.094654,-0.031026,0.12268
2026-06-16 08:00:00+00:00,-0.180638,-0.085262,-0.037385,0.12247
2026-06-16 12:00:00+00:00,-0.166896,-0.079568,-0.054515,0.12396
2026-06-16 16:00:00+00:00,-0.184949,-0.071914,-0.046877,0.124385
2026-06-16 20:00:00+00:00,-0.182481,-0.073201,-0.049724,0.124932
2026-06-17 00:00:00+00:00,-0.180728,-0.074292,-0.05031,0.12505
2026-06-17 04:00:00+00:00,-0.181715,-0.074137,-0.049536,0.124843
2026-06-17 08:00:00+00:00,-0.186144,-0.070353,-0.048624,0.123774
2026-06-17 12:00:00+00:00,-0.164736,-0.089472,-0.046751,0.123972
2026-06-17 16:00:00+00:00,-0.167512,-0.084847,-0.046119,0.123856
2026-06-17 20:00:00+00:00,-0.181043,-0.075703,-0.043412,0.123205
2026-06-18 00:00:00+00:00,-0.180063,-0.076656,-0.043294,0.123253
2026-06-18 04:00:00+00:00,-0.17903,-0.073501,-0.047473,0.123479
2026-06-18 08:00:00+00:00,-0.183411,-0.070141,-0.047059,0.123106
2026-06-18 12:00:00+00:00,-0.179828,-0.07359,-0.041289,0.121563
2026-06-18 16:00:00+00:00,-0.186863,-0.068335,-0.039322,0.121045
2026-06-18 20:00:00+00:00,-0.186977,-0.067646,-0.039859,0.121189
2026-06-19 00:00:00+00:00,-0.181115,-0.065852,-0.0467,0.121673
2026-06-19 04:00:00+00:00,-0.184642,-0.06101,-0.048672,0.121625
2026-06-19 08:00:00+00:00,-0.185177,-0.06248,-0.046848,0.121792
2026-06-19 12:00:00+00:00,-0.180284,-0.068171,-0.045022,0.122258
2026-06-19 16:00:00+00:00,-0.176766,-0.066892,-0.049355,0.122908
2026-06-19 20:00:00+00:00,-0.177486,-0.070158,-0.045021,0.123273
2026-06-20 00:00:00+00:00,-0.183025,-0.072473,-0.038271,0.12301
2026-06-20 04:00:00+00:00,-0.202834,-0.073786,-0.017468,0.120187
2026-06-20 08:00:00+00:00,-0.198629,-0.074171,-0.021758,0.121087
2026-06-20 12:00:00+00:00,-0.20306,-0.072704,-0.018471,0.122696
2026-06-20 16:00:00+00:00,-0.213106,-0.071244,-0.00989,0.122491
2026-06-20 20:00:00+00:00,-0.22341,-0.073582,0.004958,0.119463
2026-06-21 00:00:00+00:00,-0.232128,-0.078223,0.021866,0.115725
2026-06-21 04:00:00+00:00,-0.244847,-0.077705,0.039324,0.110324
2026-06-21 08:00:00+00:00,-0.233722,-0.094497,0.048966,0.110423
2026-06-21 12:00:00+00:00,-0.206261,-0.124608,0.059806,0.110277
2026-06-21 16:00:00+00:00,-0.195191,-0.138405,0.066761,0.109282
2026-06-21 20:00:00+00:00,-0.184405,-0.13428,0.043631,0.116493
2026-06-22 00:00:00+00:00,-0.175057,-0.160059,0.091806,0.098735
2026-06-22 04:00:00+00:00,-0.169915,-0.15893,0.074142,0.105783
2026-06-22 08:00:00+00:00,-0.138799,-0.179698,0.077911,0.102611
2026-06-22 12:00:00+00:00,0.039,-0.253159,0.093089,0.063051
2026-06-22 16:00:00+00:00,-0.030385,-0.235366,0.095744,0.079472
2026-06-22 20:00:00+00:00,-0.101464,-0.210822,0.124071,0.077282
2026-06-23 00:00:00+00:00,-0.059251,-0.21116,0.186242,0.025482
2026-06-23 04:00:00+00:00,-0.069215,-0.220841,0.139447,0.061496
2026-06-23 08:00:00+00:00,-0.051111,-0.22707,0.102969,0.078885
2026-06-23 12:00:00+00:00,0.008809,-0.229584,0.170746,0.017789
2026-06-23 16:00:00+00:00,0.02759,-0.12484,0.21413,-0.068706
2026-06-23 20:00:00+00:00,0.180218,-0.134658,0.146886,-0.084672
2026-06-24 00:00:00+00:00,0.161877,-0.120171,0.156248,-0.090537
2026-06-24 04:00:00+00:00,0.087548,-0.181067,0.189249,-0.048992
2026-06-24 08:00:00+00:00,0.167688,-0.175843,0.153026,-0.062223
2026-06-24 12:00:00+00:00,-0.089839,-0.179102,0.199008,0.015461
2026-06-24 16:00:00+00:00,-0.057191,-0.218755,0.133302,0.061806
2026-06-24 20:00:00+00:00,-0.102954,-0.196166,0.114326,0.079469
2026-06-25 00:00:00+00:00,-0.10454,-0.195883,0.118471,0.077687
2026-06-25 04:00:00+00:00,-0.20044,-0.092573,0.199807,0.014233
2026-06-25 08:00:00+00:00,-0.155297,-0.148259,0.183341,0.035119
2026-06-25 12:00:00+00:00,-0.217953,-0.106206,0.100006,0.090514
2026-06-25 16:00:00+00:00,-0.21668,-0.109488,0.11128,0.085039
2026-06-25 20:00:00+00:00,-0.220317,-0.101163,0.155926,0.054824
2026-06-26 00:00:00+00:00,-0.19816,-0.113315,0.173558,0.041414
2026-06-26 04:00:00+00:00,-0.183408,-0.101146,0.194083,0.014168
2026-06-26 08:00:00+00:00,-0.192482,-0.083203,0.194624,0.007247
2026-06-26 12:00:00+00:00,-0.189475,-0.092624,0.185122,0.014577
2026-06-26 16:00:00+00:00,-0.204062,-0.096029,0.170352,0.032008
2026-06-26 20:00:00+00:00,-0.199357,-0.102444,0.169302,0.034434
2026-06-27 00:00:00+00:00,-0.198898,-0.104344,0.170372,0.03431
2026-06-27 04:00:00+00:00,-0.194597,-0.098196,0.179866,0.023049
2026-06-27 08:00:00+00:00,-0.199677,-0.107907,0.165329,0.039968
2026-06-27 12:00:00+00:00,-0.188201,-0.116227,0.167298,0.038412
2026-06-27 16:00:00+00:00,-0.171951,-0.124387,0.172953,0.032292
2026-06-27 20:00:00+00:00,-0.172906,-0.135908,0.153916,0.0515
2026-06-28 00:00:00+00:00,-0.16393,-0.131972,0.171268,0.034076
2026-06-28 04:00:00+00:00,-0.165906,-0.115931,0.184716,0.017226
2026-06-28 08:00:00+00:00,-0.172735,-0.122507,0.173995,0.030798
2026-06-28 12:00:00+00:00,-0.176237,-0.102977,0.187042,0.012931
2026-06-28 16:00:00+00:00,-0.17806,-0.113959,0.177467,0.026008
2026-06-28 20:00:00+00:00,-0.155317,-0.113986,0.190134,0.007489
2026-06-29 00:00:00+00:00,-0.168918,-0.113267,0.182884,0.017759
2026-06-29 04:00:00+00:00,-0.168754,-0.116671,0.180552,0.021228
2026-06-29 08:00:00+00:00,-0.16076,-0.126742,0.177496,0.025571
2026-06-29 12:00:00+00:00,-0.157339,-0.135193,0.170856,0.032751
2026-06-29 16:00:00+00:00,-0.190229,-0.11534,0.157976,0.044633
2026-06-29 20:00:00+00:00,-0.192095,-0.117961,0.15001,0.052302
2026-06-30 00:00:00+00:00,-0.192135,-0.120347,0.142282,0.059065
2026-06-30 04:00:00+00:00,-0.195231,-0.119795,0.134791,0.065223
2026-06-30 08:00:00+00:00,-0.192096,-0.1217,0.137222,0.063411
2026-06-30 12:00:00+00:00,-0.209488,-0.106492,0.132558,0.065922
2026-06-30 16:00:00+00:00,-0.209369,-0.107412,0.123611,0.072696
2026-06-30 20:00:00+00:00,-0.204737,-0.111702,0.124163,0.073442
2026-07-01 00:00:00+00:00,-0.209772,-0.105333,0.128814,0.0688
2026-07-01 04:00:00+00:00,-0.208834,-0.105136,0.137417,0.062434
2026-07-01 08:00:00+00:00,-0.206144,-0.102276,0.150734,0.050238
2026-07-01 12:00:00+00:00,-0.204515,-0.093134,0.159346,0.038861
2026-07-01 16:00:00+00:00,-0.198842,-0.091071,0.168746,0.028767
2026-07-01 20:00:00+00:00,-0.193316,-0.088142,0.175195,0.020001
2026-07-02 00:00:00+00:00,-0.183961,-0.088558,0.17937,0.013657
2026-07-02 04:00:00+00:00,-0.193903,-0.09543,0.167082,0.031438
2026-07-02 08:00:00+00:00,-0.178073,-0.087464,0.176613,0.009909
2026-07-02 12:00:00+00:00,-0.212586,-0.05184,0.174769,0.004323
2026-07-02 16:00:00+00:00,-0.208811,-0.052385,0.176866,0.001652
2026-07-02 20:00:00+00:00,-0.218958,-0.062464,0.168128,0.01834
2026-07-03 00:00:00+00:00,-0.22752,-0.058668,0.16477,0.022299
2026-07-03 04:00:00+00:00,-0.231422,-0.060708,0.164635,0.02543
2026-07-03 08:00:00+00:00,-0.24832,-0.053206,0.150049,0.038726
2026-07-03 12:00:00+00:00,-0.251706,-0.0529,0.148499,0.04098
2026-07-03 16:00:00+00:00,-0.248866,-0.049254,0.156438,0.03202
2026-07-03 20:00:00+00:00,-0.258347,-0.039754,0.154074,0.031249
2026-07-04 00:00:00+00:00,-0.256182,-0.047098,0.151849,0.036092
2026-07-04 04:00:00+00:00,-0.258401,-0.047134,0.152172,0.039242
2026-07-04 08:00:00+00:00,-0.263846,-0.033187,0.156829,0.028897
2026-07-04 12:00:00+00:00,-0.270757,-0.017952,0.158951,0.020122
2026-07-04 16:00:00+00:00,-0.261676,-0.018666,0.166609,0.011165
2026-07-04 20:00:00+00:00,-0.271659,-0.0186,0.15793,0.021902
2026-07-05 00:00:00+00:00,-0.270613,-0.004919,0.164302,0.008158
2026-07-05 04:00:00+00:00,-0.269765,0.001764,0.165773,0.002874
2026-07-05 08:00:00+00:00,-0.255137,-0.021611,0.175182,0.002709
2026-07-05 12:00:00+00:00,-0.256891,-0.0667,0.162832,0.037995
2026-07-05 16:00:00+00:00,-0.272132,-0.054045,0.153399,0.044451
2026-07-05 20:00:00+00:00,-0.261678,-0.063161,0.159843,0.040504
2026-07-06 00:00:00+00:00,-0.264928,-0.028237,0.173111,0.01145
2026-07-06 04:00:00+00:00,-0.24486,0.006916,0.182954,-0.025954
2026-07-06 08:00:00+00:00,-0.214912,-0.005054,0.192702,-0.039255
2026-07-06 12:00:00+00:00,-0.176192,-0.001371,0.196492,-0.061569
2026-07-06 16:00:00+00:00,-0.194627,-0.037724,0.199848,-0.034067
2026-07-06 20:00:00+00:00,-0.161369,-0.019196,0.201363,-0.062019
2026-07-07 00:00:00+00:00,-0.176271,-0.02267,0.202042,-0.05272
2026-07-07 04:00:00+00:00,-0.184222,-0.02991,0.202742,-0.045358
2026-07-07 08:00:00+00:00,-0.199685,-0.043025,0.200722,-0.028505
2026-07-07 12:00:00+00:00,-0.187694,0.002893,0.196215,-0.059182
2026-07-07 16:00:00+00:00,-0.146125,0.008246,0.196201,-0.08179
2026-07-07 20:00:00+00:00,-0.16765,-0.017006,0.20614,-0.06424
2026-07-08 00:00:00+00:00,-0.169821,-0.009889,0.20308,-0.066239
2026-07-08 04:00:00+00:00,-0.173208,-0.00134,0.200886,-0.068543
2026-07-08 08:00:00+00:00,-0.191598,-0.014437,0.202255,-0.053156
2026-07-08 12:00:00+00:00,-0.1762,-0.004632,0.201209,-0.065761
2026-07-08 16:00:00+00:00,-0.171122,-0.009142,0.20233,-0.066327
2026-07-08 20:00:00+00:00,-0.17061,-0.015193,0.203864,-0.063927
2026-07-09 00:00:00+00:00,-0.193683,-0.02242,0.203388,-0.048499
2026-07-09 04:00:00+00:00,-0.158175,-0.031884,0.207816,-0.062082
2026-07-09 08:00:00+00:00,-0.145786,-0.019356,0.205818,-0.074065
2026-07-09 12:00:00+00:00,-0.134787,-0.014419,0.206214,-0.083865
2026-07-09 16:00:00+00:00,-0.089571,0.001321,0.197085,-0.107936
2026-07-09 20:00:00+00:00,-0.115704,-0.002062,0.201792,-0.097232
2026-07-10 00:00:00+00:00,-0.131397,0.007896,0.199921,-0.094573
2026-07-10 04:00:00+00:00,-0.102894,0.00916,0.196283,-0.106301
2026-07-10 08:00:00+00:00,-0.080531,0.024455,0.18723,-0.119086
2026-07-10 12:00:00+00:00,-0.096565,0.047513,0.181504,-0.121625
2026-07-10 16:00:00+00:00,-0.120657,0.068562,0.176701,-0.122108
2026-07-10 20:00:00+00:00,-0.114557,0.091898,0.162539,-0.129034
2026-07-11 00:00:00+00:00,-0.138265,0.113318,0.155142,-0.125411
