ts,BTC,ETH,SOL,HYPE
2026-01-01 00:00:00+00:00,0.0,0.0,0.0,0.0
2026-01-01 04:00:00+00:00,0.0,0.0,0.0,0.0
2026-01-01 08:00:00+00:00,0.0,0.0,0.0,0.0
2026-01-01 12:00:00+00:00,0.0,0.0,0.0,0.0
2026-01-01 16:00:00+00:00,0.0,0.0,0.0,0.0
2026-01-01 20:00:00+00:00,0.0,0.0,0.0,0.0
2026-01-02 00:00:00+00:00,0.0,0.0,0.0,0.0
2026-01-02 04:00:00+00:00,0.0,0.0,0.0,0.0
2026-01-02 08:00:00+00:00,0.0,0.0,0.0,0.0
2026-01-02 12:00:00+00:00,0.0,0.0,0.0,0.0
2026-01-02 16:00:00+00:00,0.0,0.0,0.0,0.0
2026-01-02 20:00:00+00:00,0.0,0.0,0.0,0.0
2026-01-03 00:00:00+00:00,0.0,0.0,0.0,0.0
2026-01-03 04:00:00+00:00,0.0,0.0,0.0,0.0
2026-01-03 08:00:00+00:00,0.0,0.0,0.0,0.0
2026-01-03 12:00:00+00:00,0.0,0.0,0.0,0.0
2026-01-03 16:00:00+00:00,0.0,0.0,0.0,0.0
2026-01-03 20:00:00+00:00,0.0,0.0,0.0,0.0
2026-01-04 00:00:00+00:00,0.0,0.0,0.0,0.0
2026-01-04 04:00:00+00:00,0.0,0.0,0.0,0.0
2026-01-04 08:00:00+00:00,0.0,0.0,0.0,0.0
2026-01-04 12:00:00+00:00,0.0,0.0,0.0,0.0
2026-01-04 16:00:00+00:00,0.0,0.0,0.0,0.0
2026-01-04 20:00:00+00:00,0.0,0.0,0.0,0.0
2026-01-05 00:00:00+00:00,0.0,0.0,0.0,0.0
2026-01-05 04:00:00+00:00,0.0,0.0,0.0,0.0
2026-01-05 08:00:00+00:00,0.0,0.0,0.0,0.0
2026-01-05 12:00:00+00:00,0.0,0.0,0.0,0.0
2026-01-05 16:00:00+00:00,0.0,0.0,0.0,0.0
2026-01-05 20:00:00+00:00,0.0,0.0,0.0,0.0
2026-01-06 00:00:00+00:00,0.0,0.0,0.0,0.0
2026-01-06 04:00:00+00:00,0.0,0.0,0.0,0.0
2026-01-06 08:00:00+00:00,0.0,0.0,0.0,0.0
2026-01-06 12:00:00+00:00,0.0,0.0,0.0,0.0
2026-01-06 16:00:00+00:00,0.0,0.0,0.0,0.0
2026-01-06 20:00:00+00:00,0.0,0.0,0.0,0.0
2026-01-07 00:00:00+00:00,0.0,0.0,0.0,0.0
2026-01-07 04:00:00+00:00,0.0,0.0,0.0,0.0
2026-01-07 08:00:00+00:00,0.0,0.0,0.0,0.0
2026-01-07 12:00:00+00:00,0.0,0.0,0.0,0.0
2026-01-07 16:00:00+00:00,0.0,0.0,0.0,0.0
2026-01-07 20:00:00+00:00,0.0,0.0,0.0,0.0
2026-01-08 00:00:00+00:00,0.0,0.0,0.0,0.0
2026-01-08 04:00:00+00:00,0.0,0.0,0.0,0.0
2026-01-08 08:00:00+00:00,0.0,0.0,0.0,0.0
2026-01-08 12:00:00+00:00,0.0,0.0,0.0,0.0
2026-01-08 16:00:00+00:00,0.0,0.0,0.0,0.0
2026-01-08 20:00:00+00:00,0.0,0.0,0.0,0.0
2026-01-09 00:00:00+00:00,0.0,0.0,0.0,0.0
2026-01-09 04:00:00+00:00,0.0,0.0,0.0,0.0
2026-01-09 08:00:00+00:00,0.0,0.0,0.0,0.0
2026-01-09 12:00:00+00:00,0.0,0.0,0.0,0.0
2026-01-09 16:00:00+00:00,0.0,0.0,0.0,0.0
2026-01-09 20:00:00+00:00,0.0,0.0,0.0,0.0
2026-01-10 00:00:00+00:00,0.0,0.0,0.0,0.0
2026-01-10 04:00:00+00:00,0.0,0.0,0.0,0.0
2026-01-10 08:00:00+00:00,0.0,0.0,0.0,0.0
2026-01-10 12:00:00+00:00,0.0,0.0,0.0,0.0
2026-01-10 16:00:00+00:00,0.0,0.0,0.0,0.0
2026-01-10 20:00:00+00:00,0.0,0.0,0.0,0.0
2026-01-11 00:00:00+00:00,0.0,0.0,0.0,0.0
2026-01-11 04:00:00+00:00,0.0,0.0,0.0,0.0
2026-01-11 08:00:00+00:00,0.0,0.0,0.0,0.0
2026-01-11 12:00:00+00:00,0.0,0.0,0.0,0.0
2026-01-11 16:00:00+00:00,0.0,0.0,0.0,0.0
2026-01-11 20:00:00+00:00,0.0,0.0,0.0,0.0
2026-01-12 00:00:00+00:00,0.0,0.0,0.0,0.0
2026-01-12 04:00:00+00:00,0.0,0.0,0.0,0.0
2026-01-12 08:00:00+00:00,0.0,0.0,0.0,0.0
2026-01-12 12:00:00+00:00,0.0,0.0,0.0,0.0
2026-01-12 16:00:00+00:00,0.0,0.0,0.0,0.0
2026-01-12 20:00:00+00:00,0.0,0.0,0.0,0.0
2026-01-13 00:00:00+00:00,0.0,0.0,0.0,0.0
2026-01-13 04:00:00+00:00,0.0,0.0,0.0,0.0
2026-01-13 08:00:00+00:00,0.0,0.0,0.0,0.0
2026-01-13 12:00:00+00:00,0.0,0.0,0.0,0.0
2026-01-13 16:00:00+00:00,0.0,0.0,0.0,0.0
2026-01-13 20:00:00+00:00,0.0,0.0,0.0,0.0
2026-01-14 00:00:00+00:00,0.0,0.0,0.0,0.0
2026-01-14 04:00:00+00:00,0.0,0.0,0.0,0.0
2026-01-14 08:00:00+00:00,0.0,0.0,0.0,0.0
2026-01-14 12:00:00+00:00,0.0,0.0,0.0,0.0
2026-01-14 16:00:00+00:00,0.0,0.0,0.0,0.0
2026-01-14 20:00:00+00:00,0.0,0.0,0.0,0.0
2026-01-15 00:00:00+00:00,0.0,0.0,0.0,0.0
2026-01-15 04:00:00+00:00,0.0,0.0,0.0,0.0
2026-01-15 08:00:00+00:00,0.0,0.0,0.0,0.0
2026-01-15 12:00:00+00:00,0.0,0.0,0.0,0.0
2026-01-15 16:00:00+00:00,0.0,0.0,0.0,0.0
2026-01-15 20:00:00+00:00,0.0,0.0,0.0,0.0
2026-01-16 00:00:00+00:00,0.0,0.0,0.0,0.0
2026-01-16 04:00:00+00:00,0.0,0.0,0.0,0.0
2026-01-16 08:00:00+00:00,0.0,0.0,0.0,0.0
2026-01-16 12:00:00+00:00,0.0,0.0,0.0,0.0
2026-01-16 16:00:00+00:00,0.0,0.0,0.0,0.0
2026-01-16 20:00:00+00:00,0.0,0.0,0.0,0.0
2026-01-17 00:00:00+00:00,0.0,0.0,0.0,0.0
2026-01-17 04:00:00+00:00,0.0,0.0,0.0,0.0
2026-01-17 08:00:00+00:00,0.0,0.0,0.0,0.0
2026-01-17 12:00:00+00:00,0.0,0.0,0.0,0.0
2026-01-17 16:00:00+00:00,0.0,0.0,0.0,0.0
2026-01-17 20:00:00+00:00,0.0,0.0,0.0,0.0
2026-01-18 00:00:00+00:00,0.0,0.0,0.0,0.0
2026-01-18 04:00:00+00:00,0.0,0.0,0.0,0.0
2026-01-18 08:00:00+00:00,0.0,0.0,0.0,0.0
2026-01-18 12:00:00+00:00,0.0,0.0,0.0,0.0
2026-01-18 16:00:00+00:00,0.0,0.0,0.0,0.0
2026-01-18 20:00:00+00:00,0.0,0.0,0.0,0.0
2026-01-19 00:00:00+00:00,0.0,0.0,0.0,0.0
2026-01-19 04:00:00+00:00,0.0,0.0,0.0,0.0
2026-01-19 08:00:00+00:00,0.0,0.0,0.0,0.0
2026-01-19 12:00:00+00:00,0.0,0.0,0.0,0.0
2026-01-19 16:00:00+00:00,0.0,0.0,0.0,0.0
2026-01-19 20:00:00+00:00,0.0,0.0,0.0,0.0
2026-01-20 00:00:00+00:00,0.0,0.0,0.0,0.0
2026-01-20 04:00:00+00:00,0.0,0.0,0.0,0.0
2026-01-20 08:00:00+00:00,0.0,0.0,0.0,0.0
2026-01-20 12:00:00+00:00,0.0,0.0,0.0,0.0
2026-01-20 16:00:00+00:00,0.0,0.0,0.0,0.0
2026-01-20 20:00:00+00:00,0.0,0.0,0.0,0.0
2026-01-21 00:00:00+00:00,0.0,0.0,0.0,0.0
2026-01-21 04:00:00+00:00,0.0,0.0,0.0,0.0
2026-01-21 08:00:00+00:00,0.0,0.0,0.0,0.0
2026-01-21 12:00:00+00:00,0.0,0.0,0.0,0.0
2026-01-21 16:00:00+00:00,0.0,0.0,0.0,0.0
2026-01-21 20:00:00+00:00,0.0,0.0,0.0,0.0
2026-01-22 00:00:00+00:00,0.0,0.0,0.0,0.0
2026-01-22 04:00:00+00:00,0.0,0.0,0.0,0.0
2026-01-22 08:00:00+00:00,0.0,0.0,0.0,0.0
2026-01-22 12:00:00+00:00,0.0,0.0,0.0,0.0
2026-01-22 16:00:00+00:00,0.0,0.0,0.0,0.0
2026-01-22 20:00:00+00:00,0.0,0.0,0.0,0.0
2026-01-23 00:00:00+00:00,0.0,0.0,0.0,0.0
2026-01-23 04:00:00+00:00,0.0,0.0,0.0,0.0
2026-01-23 08:00:00+00:00,0.0,0.0,0.0,0.0
2026-01-23 12:00:00+00:00,0.0,0.0,0.0,0.0
2026-01-23 16:00:00+00:00,0.0,0.0,0.0,0.0
2026-01-23 20:00:00+00:00,0.0,0.0,0.0,0.0
2026-01-24 00:00:00+00:00,0.0,0.0,0.0,0.0
2026-01-24 04:00:00+00:00,0.0,0.0,0.0,0.0
2026-01-24 08:00:00+00:00,0.0,0.0,0.0,0.0
2026-01-24 12:00:00+00:00,0.0,0.0,0.0,0.0
2026-01-24 16:00:00+00:00,0.0,0.0,0.0,0.0
2026-01-24 20:00:00+00:00,0.0,0.0,0.0,0.0
2026-01-25 00:00:00+00:00,0.0,0.0,0.0,0.0
2026-01-25 04:00:00+00:00,0.0,0.0,0.0,0.0
2026-01-25 08:00:00+00:00,0.0,0.0,0.0,0.0
2026-01-25 12:00:00+00:00,0.0,0.0,0.0,0.0
2026-01-25 16:00:00+00:00,0.0,0.0,0.0,0.0
2026-01-25 20:00:00+00:00,0.0,0.0,0.0,0.0
2026-01-26 00:00:00+00:00,0.0,0.0,0.0,0.0
2026-01-26 04:00:00+00:00,0.0,0.0,0.0,0.0
2026-01-26 08:00:00+00:00,0.0,0.0,0.0,0.0
2026-01-26 12:00:00+00:00,0.0,0.0,0.0,0.0
2026-01-26 16:00:00+00:00,0.0,0.0,0.0,0.0
2026-01-26 20:00:00+00:00,0.0,0.0,0.0,0.0
2026-01-27 00:00:00+00:00,0.0,0.0,0.0,0.0
2026-01-27 04:00:00+00:00,0.0,0.0,0.0,0.0
2026-01-27 08:00:00+00:00,0.0,0.0,0.0,0.0
2026-01-27 12:00:00+00:00,0.0,0.0,0.0,0.0
2026-01-27 16:00:00+00:00,0.0,0.0,0.0,0.0
2026-01-27 20:00:00+00:00,0.0,0.0,0.0,0.0
2026-01-28 00:00:00+00:00,0.0,0.0,0.0,0.0
2026-01-28 04:00:00+00:00,0.0,0.0,0.0,0.0
2026-01-28 08:00:00+00:00,0.0,0.0,0.0,0.0
2026-01-28 12:00:00+00:00,0.0,0.0,0.0,0.0
2026-01-28 16:00:00+00:00,0.0,0.0,0.0,0.0
2026-01-28 20:00:00+00:00,0.0,0.0,0.0,0.0
2026-01-29 00:00:00+00:00,0.0,0.0,0.0,0.0
2026-01-29 04:00:00+00:00,0.0,0.0,0.0,0.0
2026-01-29 08:00:00+00:00,0.0,0.0,0.0,0.0
2026-01-29 12:00:00+00:00,0.0,0.0,0.0,0.0
2026-01-29 16:00:00+00:00,0.0,0.0,0.0,0.0
2026-01-29 20:00:00+00:00,0.0,0.0,0.0,0.0
2026-01-30 00:00:00+00:00,0.0,0.0,0.0,0.0
2026-01-30 04:00:00+00:00,0.0,0.0,0.0,0.0
2026-01-30 08:00:00+00:00,0.0,0.0,0.0,0.0
2026-01-30 12:00:00+00:00,0.0,0.0,0.0,0.0
2026-01-30 16:00:00+00:00,0.0,0.0,0.0,0.0
2026-01-30 20:00:00+00:00,0.0,0.0,0.0,0.0
2026-01-31 00:00:00+00:00,0.0,0.0,0.0,0.0
2026-01-31 04:00:00+00:00,0.0,0.0,0.0,0.0
2026-01-31 08:00:00+00:00,0.0,0.0,0.0,0.0
2026-01-31 12:00:00+00:00,0.0,0.0,0.0,0.0
2026-01-31 16:00:00+00:00,0.0,0.0,0.0,0.0
2026-01-31 20:00:00+00:00,0.0,0.0,0.0,0.0
2026-02-01 00:00:00+00:00,0.0,0.0,0.0,0.0
2026-02-01 04:00:00+00:00,0.0,0.0,0.0,0.0
2026-02-01 08:00:00+00:00,0.0,0.0,0.0,0.0
2026-02-01 12:00:00+00:00,0.0,0.0,0.0,0.0
2026-02-01 16:00:00+00:00,0.0,0.0,0.0,0.0
2026-02-01 20:00:00+00:00,0.0,0.0,0.0,0.0
2026-02-02 00:00:00+00:00,0.0,0.0,0.0,0.0
2026-02-02 04:00:00+00:00,0.0,0.0,0.0,0.0
2026-02-02 08:00:00+00:00,0.0,0.0,0.0,0.0
2026-02-02 12:00:00+00:00,0.0,0.0,0.0,0.0
2026-02-02 16:00:00+00:00,0.0,0.0,0.0,0.0
2026-02-02 20:00:00+00:00,0.0,0.0,0.0,0.0
2026-02-03 00:00:00+00:00,0.0,0.0,0.0,0.0
2026-02-03 04:00:00+00:00,0.0,0.0,0.0,0.0
2026-02-03 08:00:00+00:00,-0.239114,-0.214479,-0.118974,0.233828
2026-02-03 12:00:00+00:00,-0.260265,-0.199617,-0.120152,0.23268
2026-02-03 16:00:00+00:00,-0.265533,-0.190167,-0.107976,0.23235
2026-02-03 20:00:00+00:00,-0.244842,-0.185276,-0.125117,0.232981
2026-02-04 00:00:00+00:00,-0.246327,-0.175846,-0.133112,0.232806
2026-02-04 04:00:00+00:00,-0.245419,-0.173062,-0.136396,0.232784
2026-02-04 08:00:00+00:00,-0.240527,-0.176691,-0.135624,0.232757
2026-02-04 12:00:00+00:00,-0.250483,-0.169076,-0.127028,0.232333
2026-02-04 16:00:00+00:00,-0.26029,-0.164718,-0.124305,0.231511
2026-02-04 20:00:00+00:00,-0.2547,-0.164617,-0.126211,0.232011
2026-02-05 00:00:00+00:00,-0.266677,-0.159394,-0.119058,0.228793
2026-02-05 04:00:00+00:00,-0.268647,-0.158208,-0.118694,0.228436
2026-02-05 08:00:00+00:00,-0.271729,-0.156421,-0.119081,0.227385
2026-02-05 12:00:00+00:00,-0.261445,-0.149509,-0.112972,0.226462
2026-02-05 16:00:00+00:00,-0.260513,-0.137054,-0.120932,0.226212
2026-02-05 20:00:00+00:00,-0.259855,-0.132365,-0.117346,0.22713
2026-02-06 00:00:00+00:00,-0.241968,-0.119318,-0.137604,0.225804
2026-02-06 04:00:00+00:00,-0.245129,-0.129611,-0.122725,0.223539
2026-02-06 08:00:00+00:00,-0.220411,-0.137648,-0.1275,0.223661
2026-02-06 12:00:00+00:00,-0.199721,-0.149674,-0.123823,0.222532
2026-02-06 16:00:00+00:00,-0.181898,-0.142773,-0.134551,0.222299
2026-02-06 20:00:00+00:00,-0.184948,-0.144563,-0.131005,0.221752
2026-02-07 00:00:00+00:00,-0.186129,-0.145755,-0.128822,0.221578
2026-02-07 04:00:00+00:00,-0.193763,-0.139613,-0.123178,0.221596
2026-02-07 08:00:00+00:00,-0.19262,-0.140858,-0.122819,0.221886
2026-02-07 12:00:00+00:00,-0.183394,-0.145688,-0.122899,0.221496
2026-02-07 16:00:00+00:00,-0.193931,-0.141593,-0.118328,0.221331
2026-02-07 20:00:00+00:00,-0.189334,-0.144808,-0.118509,0.221404
2026-02-08 00:00:00+00:00,-0.192639,-0.143297,-0.118164,0.22139
2026-02-08 04:00:00+00:00,-0.189301,-0.146466,-0.117047,0.221397
2026-02-08 08:00:00+00:00,-0.17889,-0.143366,-0.12533,0.221195
2026-02-08 12:00:00+00:00,-0.172114,-0.148395,-0.125323,0.220962
2026-02-08 16:00:00+00:00,-0.172316,-0.145132,-0.128813,0.220537
2026-02-08 20:00:00+00:00,-0.176289,-0.142779,-0.127367,0.220506
2026-02-09 00:00:00+00:00,-0.161651,-0.146668,-0.132849,0.220668
2026-02-09 04:00:00+00:00,-0.16217,-0.145631,-0.132246,0.220321
2026-02-09 08:00:00+00:00,-0.173252,-0.142621,-0.125759,0.219644
2026-02-09 12:00:00+00:00,-0.18009,-0.135344,-0.126537,0.219772
2026-02-09 16:00:00+00:00,-0.174852,-0.130488,-0.130546,0.219424
2026-02-09 20:00:00+00:00,-0.172834,-0.12797,-0.133764,0.218978
2026-02-10 00:00:00+00:00,-0.174401,-0.130058,-0.130249,0.218785
2026-02-10 04:00:00+00:00,-0.169666,-0.13347,-0.129108,0.21832
2026-02-10 08:00:00+00:00,-0.171465,-0.129607,-0.131559,0.218122
2026-02-10 12:00:00+00:00,-0.165748,-0.127506,-0.137231,0.217992
2026-02-10 16:00:00+00:00,-0.157477,-0.130117,-0.140292,0.217879
2026-02-10 20:00:00+00:00,-0.162167,-0.123285,-0.143574,0.217017
2026-02-11 00:00:00+00:00,-0.170979,-0.126115,-0.135944,0.217446
2026-02-11 04:00:00+00:00,-0.170945,-0.124593,-0.135198,0.217481
2026-02-11 08:00:00+00:00,-0.174246,-0.121969,-0.135526,0.218047
2026-02-11 12:00:00+00:00,-0.174371,-0.121476,-0.136434,0.218228
2026-02-11 16:00:00+00:00,-0.164139,-0.117699,-0.146033,0.21779
2026-02-11 20:00:00+00:00,-0.166962,-0.118397,-0.143627,0.217886
2026-02-12 00:00:00+00:00,-0.170954,-0.118222,-0.140173,0.217217
2026-02-12 04:00:00+00:00,-0.17556,-0.117289,-0.138156,0.217158
2026-02-12 08:00:00+00:00,-0.168215,-0.120549,-0.139551,0.215849
2026-02-12 12:00:00+00:00,-0.173205,-0.118854,-0.137926,0.215335
2026-02-12 16:00:00+00:00,-0.179295,-0.112586,-0.138111,0.214696
2026-02-12 20:00:00+00:00,-0.176392,-0.117889,-0.136746,0.214096
2026-02-13 00:00:00+00:00,-0.175497,-0.119018,-0.13631,0.214105
2026-02-13 04:00:00+00:00,-0.177739,-0.121966,-0.132056,0.214188
2026-02-13 08:00:00+00:00,-0.170585,-0.125467,-0.132552,0.214306
2026-02-13 12:00:00+00:00,-0.170944,-0.121662,-0.133184,0.213846
2026-02-13 16:00:00+00:00,-0.176644,-0.119728,-0.130486,0.213842
2026-02-13 20:00:00+00:00,-0.17441,-0.12116,-0.130701,0.21399
2026-02-14 00:00:00+00:00,-0.175625,-0.123417,-0.128491,0.215628
2026-02-14 04:00:00+00:00,-0.170225,-0.12585,-0.130499,0.215665
2026-02-14 08:00:00+00:00,-0.162719,-0.127588,-0.131664,0.215585
2026-02-14 12:00:00+00:00,-0.173586,-0.127984,-0.123732,0.215488
2026-02-14 16:00:00+00:00,-0.186909,-0.133086,-0.109627,0.215343
2026-02-14 20:00:00+00:00,-0.18561,-0.131518,-0.112319,0.21542
2026-02-15 00:00:00+00:00,-0.176936,-0.137957,-0.11201,0.215301
2026-02-15 04:00:00+00:00,-0.175796,-0.143895,-0.105509,0.215154
2026-02-15 08:00:00+00:00,-0.173655,-0.142902,-0.107593,0.215279
2026-02-15 12:00:00+00:00,-0.169859,-0.143025,-0.109021,0.215194
2026-02-15 16:00:00+00:00,-0.162371,-0.148257,-0.107679,0.214868
2026-02-15 20:00:00+00:00,-0.164237,-0.148235,-0.105968,0.214862
2026-02-16 00:00:00+00:00,-0.168332,-0.145694,-0.105555,0.21484
2026-02-16 04:00:00+00:00,-0.161827,-0.145187,-0.110564,0.214582
2026-02-16 08:00:00+00:00,-0.157937,-0.147592,-0.110794,0.214551
2026-02-16 12:00:00+00:00,-0.161364,-0.139603,-0.11545,0.214919
2026-02-16 16:00:00+00:00,-0.160855,-0.147506,-0.107138,0.214666
2026-02-16 20:00:00+00:00,-0.155012,-0.157467,-0.099483,0.212941
2026-02-17 00:00:00+00:00,-0.160531,-0.160209,-0.092574,0.212562
2026-02-17 04:00:00+00:00,-0.163028,-0.160693,-0.090199,0.212173
2026-02-17 08:00:00+00:00,-0.170705,-0.156545,-0.088876,0.211855
2026-02-17 12:00:00+00:00,-0.178191,-0.148005,-0.092256,0.212236
2026-02-17 16:00:00+00:00,-0.180523,-0.147353,-0.09051,0.212637
2026-02-17 20:00:00+00:00,-0.19145,-0.149905,-0.081043,0.212633
2026-02-18 00:00:00+00:00,-0.184875,-0.149232,-0.088102,0.213323
2026-02-18 04:00:00+00:00,-0.17863,-0.142919,-0.099033,0.213793
2026-02-18 08:00:00+00:00,-0.173324,-0.138729,-0.10623,0.213642
2026-02-18 12:00:00+00:00,-0.145735,-0.152726,-0.111267,0.213303
2026-02-18 16:00:00+00:00,-0.1485,-0.146331,-0.114089,0.213435
2026-02-18 20:00:00+00:00,-0.155731,-0.143411,-0.111761,0.213686
2026-02-19 00:00:00+00:00,-0.137002,-0.143879,-0.123779,0.213428
2026-02-19 04:00:00+00:00,-0.135135,-0.13849,-0.13135,0.213847
2026-02-19 08:00:00+00:00,-0.129689,-0.13934,-0.133728,0.213283
2026-02-19 12:00:00+00:00,-0.127326,-0.1394,-0.135752,0.213862
2026-02-19 16:00:00+00:00,-0.136563,-0.137158,-0.131411,0.214594
2026-02-19 20:00:00+00:00,-0.162022,-0.125512,-0.125952,0.215499
2026-02-20 00:00:00+00:00,-0.149364,-0.124583,-0.13602,0.215338
2026-02-20 04:00:00+00:00,-0.137107,-0.131868,-0.137085,0.214974
2026-02-20 08:00:00+00:00,-0.153075,-0.130831,-0.127484,0.215875
2026-02-20 12:00:00+00:00,-0.188739,-0.132456,-0.10234,0.216622
2026-02-20 16:00:00+00:00,-0.190656,-0.143089,-0.090613,0.216198
2026-02-20 20:00:00+00:00,-0.147465,-0.150974,-0.114931,0.216686
2026-02-21 00:00:00+00:00,-0.165748,-0.149415,-0.103925,0.216725
2026-02-21 04:00:00+00:00,-0.151532,-0.131673,-0.13107,0.217072
2026-02-21 08:00:00+00:00,-0.180329,-0.130485,-0.111718,0.217229
2026-02-21 12:00:00+00:00,-0.210953,-0.114633,-0.104231,0.21701
2026-02-21 16:00:00+00:00,-0.188234,-0.117189,-0.119386,0.217617
2026-02-21 20:00:00+00:00,-0.233722,-0.071612,-0.125485,0.214772
2026-02-22 00:00:00+00:00,-0.239851,-0.034197,-0.150089,0.210998
2026-02-22 04:00:00+00:00,-0.241109,-0.006058,-0.168446,0.206708
2026-02-22 08:00:00+00:00,-0.228537,-0.046018,-0.149571,0.212854
2026-02-22 12:00:00+00:00,-0.193566,-0.08844,-0.140362,0.218305
2026-02-22 16:00:00+00:00,-0.21112,-0.064402,-0.147576,0.21616
2026-02-22 20:00:00+00:00,-0.200268,-0.042931,-0.17087,0.213451
2026-02-23 00:00:00+00:00,-0.235089,0.034766,-0.186008,0.196584
2026-02-23 04:00:00+00:00,-0.213869,0.04489,-0.203168,0.193201
2026-02-23 08:00:00+00:00,-0.255181,0.126727,-0.208901,0.167387
2026-02-23 12:00:00+00:00,-0.260514,0.036226,-0.167091,0.195407
2026-02-23 16:00:00+00:00,-0.229086,0.085211,-0.210198,0.180796
2026-02-23 20:00:00+00:00,-0.247483,-0.012269,-0.145744,0.205581
2026-02-24 00:00:00+00:00,-0.275902,-0.040247,-0.101729,0.207503
2026-02-24 04:00:00+00:00,-0.301286,-0.061981,-0.059727,0.205198
2026-02-24 08:00:00+00:00,-0.325609,-0.053403,-0.042944,0.200634
2026-02-24 12:00:00+00:00,-0.416178,0.096213,-0.048722,0.157233
2026-02-24 16:00:00+00:00,-0.317312,0.009793,-0.105972,0.19767
2026-02-24 20:00:00+00:00,-0.493361,0.107074,0.136786,0.071608
2026-02-25 00:00:00+00:00,-0.183595,0.231576,0.177405,-0.161984
2026-02-25 04:00:00+00:00,-0.06366,0.133008,0.231067,-0.190113
2026-02-25 08:00:00+00:00,-0.165451,0.173396,0.227425,-0.166945
2026-02-25 12:00:00+00:00,0.043145,0.191535,0.123114,-0.208536
2026-02-25 16:00:00+00:00,0.140113,0.099793,0.148131,-0.218275
2026-02-25 20:00:00+00:00,0.126823,0.141977,0.117789,-0.218785
2026-02-26 00:00:00+00:00,0.098965,0.081151,0.187759,-0.214906
2026-02-26 04:00:00+00:00,0.091559,0.128311,0.153247,-0.219951
2026-02-26 08:00:00+00:00,0.055264,0.15614,0.148568,-0.217163
2026-02-26 12:00:00+00:00,-0.07586,0.194993,0.17296,-0.195593
2026-02-26 16:00:00+00:00,-0.133335,0.160847,0.222581,-0.179659
2026-02-26 20:00:00+00:00,-0.137867,0.199012,0.190698,-0.182817
2026-02-27 00:00:00+00:00,-0.17389,0.161863,0.230629,-0.173471
2026-02-27 04:00:00+00:00,0.042243,0.096484,0.205963,-0.220032
2026-02-27 08:00:00+00:00,0.053629,0.101551,0.193184,-0.221822
2026-02-27 12:00:00+00:00,-0.019364,0.102512,0.225542,-0.208788
2026-02-27 16:00:00+00:00,0.168959,-0.053305,0.224761,-0.199378
2026-02-27 20:00:00+00:00,0.20944,-0.095436,0.217338,-0.18797
2026-02-28 00:00:00+00:00,0.162535,-0.047404,0.22626,-0.206133
2026-02-28 04:00:00+00:00,-0.36283,-0.122781,0.185319,0.13405
2026-02-28 08:00:00+00:00,-0.318439,-0.167074,0.174041,0.148716
2026-02-28 12:00:00+00:00,-0.385302,-0.1014,0.175157,0.13604
2026-02-28 16:00:00+00:00,-0.357261,-0.129925,0.177584,0.140001
2026-02-28 20:00:00+00:00,-0.289648,-0.192945,0.17589,0.14722
2026-03-01 00:00:00+00:00,-0.344326,0.001107,0.296052,-0.03775
2026-03-01 04:00:00+00:00,-0.357721,-0.011788,0.291363,-0.019347
2026-03-01 08:00:00+00:00,-0.372084,-0.0688,0.270109,0.040601
2026-03-01 12:00:00+00:00,-0.368864,-0.118781,0.192608,0.128647
2026-03-01 16:00:00+00:00,-0.287573,-0.153806,0.055684,0.218042
2026-03-01 20:00:00+00:00,-0.267894,-0.180408,0.074775,0.213854
2026-03-02 00:00:00+00:00,-0.269518,-0.164498,0.050345,0.223867
2026-03-02 04:00:00+00:00,-0.364737,-0.074452,0.055472,0.205692
2026-03-02 08:00:00+00:00,-0.319714,-0.136457,0.080152,0.20658
2026-03-02 12:00:00+00:00,-0.341609,-0.136,0.164144,0.159819
2026-03-02 16:00:00+00:00,-0.343946,-0.146529,0.159646,0.167279
2026-03-02 20:00:00+00:00,-0.247494,-0.178482,0.033834,0.233613
2026-03-03 00:00:00+00:00,-0.208682,-0.18231,-0.005064,0.244462
2026-03-03 04:00:00+00:00,-0.236344,-0.174915,0.014426,0.24028
2026-03-03 08:00:00+00:00,-0.26893,-0.173036,0.055721,0.225537
2026-03-03 12:00:00+00:00,-0.25799,-0.223372,0.155722,0.182734
2026-03-03 16:00:00+00:00,-0.281352,-0.204579,0.243625,0.116861
2026-03-03 20:00:00+00:00,-0.215584,-0.186221,0.327195,0.003308
2026-03-04 00:00:00+00:00,-0.159705,-0.18131,0.341456,-0.042838
2026-03-04 04:00:00+00:00,-0.045205,-0.282684,0.301123,-0.00309
2026-03-04 08:00:00+00:00,0.062172,-0.138499,0.303824,-0.169867
2026-03-04 12:00:00+00:00,0.0822,-0.013313,0.251803,-0.235817
2026-03-04 16:00:00+00:00,0.095674,-0.00838,0.242739,-0.239625
2026-03-04 20:00:00+00:00,0.143648,-0.019252,0.220937,-0.244136
2026-03-05 00:00:00+00:00,0.162498,-0.004408,0.201526,-0.274408
2026-03-05 04:00:00+00:00,0.146292,-0.001329,0.209738,-0.273974
2026-03-05 08:00:00+00:00,0.116545,-0.000178,0.225921,-0.271626
2026-03-05 12:00:00+00:00,0.159636,-0.075324,0.235015,-0.251827
2026-03-05 16:00:00+00:00,0.202306,-0.058196,0.206012,-0.263006
2026-03-05 20:00:00+00:00,0.183846,-0.045063,0.212102,-0.268642
2026-03-06 00:00:00+00:00,0.233898,0.000893,0.153417,-0.287239
2026-03-06 04:00:00+00:00,0.20599,-0.020717,0.186125,-0.280631
2026-03-06 08:00:00+00:00,0.206293,-0.065206,0.207486,-0.263538
2026-03-06 12:00:00+00:00,0.320913,-0.317278,0.125232,-0.063547
2026-03-06 16:00:00+00:00,0.123726,-0.377917,0.093073,0.141124
2026-03-06 20:00:00+00:00,0.095644,-0.340848,-0.006465,0.216276
2026-03-07 00:00:00+00:00,-0.00844,-0.139606,-0.195224,0.29445
2026-03-07 04:00:00+00:00,-0.079385,-0.061548,-0.21604,0.296687
2026-03-07 08:00:00+00:00,-0.145834,-0.025817,-0.201235,0.300251
2026-03-07 12:00:00+00:00,-0.03549,0.102405,-0.316934,0.221731
2026-03-07 16:00:00+00:00,-0.170379,0.345185,-0.242523,0.045985
2026-03-07 20:00:00+00:00,-0.254615,0.33266,-0.218622,0.090816
2026-03-08 00:00:00+00:00,-0.242431,0.238759,-0.249215,0.186275
2026-03-08 04:00:00+00:00,-0.258706,0.030612,-0.182055,0.303592
2026-03-08 08:00:00+00:00,-0.200025,0.014927,-0.216396,0.308225
2026-03-08 12:00:00+00:00,-0.108462,-0.108507,-0.19679,0.33118
2026-03-08 16:00:00+00:00,-0.130077,-0.019748,-0.246349,0.315412
2026-03-08 20:00:00+00:00,-0.311113,0.099267,-0.18757,0.286481
2026-03-09 00:00:00+00:00,-0.154785,0.282055,-0.304091,0.146085
2026-03-09 04:00:00+00:00,-0.115969,0.111984,-0.311181,0.259437
2026-03-09 08:00:00+00:00,-0.167225,-0.001875,-0.238693,0.316512
2026-03-09 12:00:00+00:00,-0.109023,-0.091509,-0.215601,0.329312
2026-03-09 16:00:00+00:00,-0.146682,-0.141102,-0.156442,0.332754
2026-03-09 20:00:00+00:00,-0.116368,-0.163478,-0.155087,0.3307
2026-03-10 00:00:00+00:00,-0.08482,-0.14947,-0.184706,0.326788
2026-03-10 04:00:00+00:00,-0.05451,-0.183068,-0.171866,0.323991
2026-03-10 08:00:00+00:00,-0.100027,-0.179226,-0.150896,0.331616
2026-03-10 12:00:00+00:00,-0.098624,-0.205977,-0.12573,0.33056
2026-03-10 16:00:00+00:00,-0.055826,-0.210546,-0.144533,0.327362
2026-03-10 20:00:00+00:00,-0.068762,-0.198563,-0.149943,0.329731
2026-03-11 00:00:00+00:00,-0.116108,-0.209364,-0.11051,0.333642
2026-03-11 04:00:00+00:00,-0.081788,-0.223789,-0.119099,0.331146
2026-03-11 08:00:00+00:00,-0.128753,-0.167753,-0.146185,0.340602
2026-03-11 12:00:00+00:00,-0.137423,-0.14136,-0.164088,0.336354
2026-03-11 16:00:00+00:00,-0.171739,-0.128091,-0.15612,0.338964
2026-03-11 20:00:00+00:00,-0.143701,-0.144004,-0.161306,0.339767
2026-03-12 00:00:00+00:00,-0.145155,-0.13147,-0.17051,0.339698
2026-03-12 04:00:00+00:00,-0.174661,-0.124449,-0.158634,0.340949
2026-03-12 08:00:00+00:00,-0.153217,-0.108339,-0.18439,0.338503
2026-03-12 12:00:00+00:00,-0.145304,-0.099055,-0.196248,0.336666
2026-03-12 16:00:00+00:00,-0.131802,-0.095673,-0.206886,0.334443
2026-03-12 20:00:00+00:00,-0.153817,-0.091388,-0.197139,0.339438
2026-03-13 00:00:00+00:00,-0.181058,-0.091134,-0.178109,0.340416
2026-03-13 04:00:00+00:00,-0.141276,-0.112613,-0.189311,0.339584
2026-03-13 08:00:00+00:00,-0.121507,-0.11523,-0.197888,0.33775
2026-03-13 12:00:00+00:00,-0.138716,-0.050419,-0.232336,0.32566
2026-03-13 16:00:00+00:00,-0.162526,-0.088707,-0.194071,0.336446
2026-03-13 20:00:00+00:00,-0.147061,-0.091953,-0.200883,0.335315
2026-03-14 00:00:00+00:00,-0.161236,-0.093542,-0.192218,0.340156
2026-03-14 04:00:00+00:00,-0.150478,-0.107164,-0.188317,0.341412
2026-03-14 08:00:00+00:00,-0.139773,-0.108986,-0.193923,0.345754
2026-03-14 12:00:00+00:00,-0.171537,-0.110875,-0.17527,0.348461
2026-03-14 16:00:00+00:00,-0.169731,-0.113273,-0.17768,0.352316
2026-03-14 20:00:00+00:00,-0.180891,-0.128895,-0.158302,0.359835
2026-03-15 00:00:00+00:00,-0.178861,-0.141073,-0.149716,0.360675
2026-03-15 04:00:00+00:00,-0.19626,-0.114871,-0.159701,0.358634
2026-03-15 08:00:00+00:00,-0.16956,-0.138603,-0.159039,0.359376
2026-03-15 12:00:00+00:00,-0.162767,-0.150578,-0.158653,0.362172
2026-03-15 16:00:00+00:00,-0.144859,-0.12897,-0.187636,0.359378
2026-03-15 20:00:00+00:00,-0.214735,-0.120702,-0.143663,0.362124
2026-03-16 00:00:00+00:00,-0.197615,-0.077969,-0.186051,0.356681
2026-03-16 04:00:00+00:00,-0.199244,-0.072659,-0.188693,0.354235
2026-03-16 08:00:00+00:00,-0.215061,-0.058162,-0.190931,0.351434
2026-03-16 12:00:00+00:00,-0.244724,-0.03603,-0.1865,0.348771
2026-03-16 16:00:00+00:00,-0.281524,0.02709,-0.197992,0.332125
2026-03-16 20:00:00+00:00,-0.218172,-0.002509,-0.221421,0.33634
2026-03-17 00:00:00+00:00,-0.174295,-0.036966,-0.225709,0.342153
2026-03-17 04:00:00+00:00,-0.179414,-0.031133,-0.227933,0.339743
2026-03-17 08:00:00+00:00,-0.162912,-0.038911,-0.233213,0.339836
2026-03-17 12:00:00+00:00,-0.166542,-0.058334,-0.221245,0.341107
2026-03-17 16:00:00+00:00,-0.156821,-0.07288,-0.219638,0.341397
2026-03-17 20:00:00+00:00,-0.163308,-0.091247,-0.204002,0.345283
2026-03-18 00:00:00+00:00,-0.171535,-0.083018,-0.205045,0.34382
2026-03-18 04:00:00+00:00,-0.161665,-0.090499,-0.205155,0.345176
2026-03-18 08:00:00+00:00,-0.164572,-0.10308,-0.192859,0.347002
2026-03-18 12:00:00+00:00,-0.147141,-0.119427,-0.189222,0.34769
2026-03-18 16:00:00+00:00,-0.175269,-0.116136,-0.175395,0.348139
2026-03-18 20:00:00+00:00,-0.182675,-0.114488,-0.173499,0.353364
2026-03-19 00:00:00+00:00,-0.17035,-0.105678,-0.187862,0.351514
2026-03-19 04:00:00+00:00,-0.183752,-0.098175,-0.183777,0.349729
2026-03-19 08:00:00+00:00,-0.214174,-0.088811,-0.172008,0.351119
2026-03-19 12:00:00+00:00,-0.204651,-0.104223,-0.165417,0.352799
2026-03-19 16:00:00+00:00,-0.193019,-0.109647,-0.168563,0.352956
2026-03-19 20:00:00+00:00,-0.218759,-0.104093,-0.155819,0.352549
2026-03-20 00:00:00+00:00,-0.201928,-0.111806,-0.160499,0.352822
2026-03-20 04:00:00+00:00,-0.181498,-0.119249,-0.168142,0.352807
2026-03-20 08:00:00+00:00,-0.192634,-0.107593,-0.172439,0.352819
2026-03-20 12:00:00+00:00,-0.207786,-0.094224,-0.172605,0.352091
2026-03-20 16:00:00+00:00,-0.226012,-0.102062,-0.157769,0.353678
2026-03-20 20:00:00+00:00,-0.218986,-0.063626,-0.191005,0.348133
2026-03-21 00:00:00+00:00,-0.143572,-0.098453,-0.212183,0.348189
2026-03-21 04:00:00+00:00,-0.149002,-0.09707,-0.210214,0.349106
2026-03-21 08:00:00+00:00,-0.151664,-0.092659,-0.212834,0.351025
2026-03-21 12:00:00+00:00,-0.155151,-0.087003,-0.215098,0.350326
2026-03-21 16:00:00+00:00,-0.190395,-0.078085,-0.201252,0.352066
2026-03-21 20:00:00+00:00,-0.177509,-0.08001,-0.204257,0.349736
2026-03-22 00:00:00+00:00,-0.223728,-0.060099,-0.188754,0.349577
2026-03-22 04:00:00+00:00,-0.221007,-0.082903,-0.173817,0.352512
2026-03-22 08:00:00+00:00,-0.230726,-0.068401,-0.177534,0.350533
2026-03-22 12:00:00+00:00,-0.218687,-0.077105,-0.179081,0.352123
2026-03-22 16:00:00+00:00,-0.247446,-0.090068,-0.148742,0.35392
2026-03-22 20:00:00+00:00,-0.274876,-0.077477,-0.138193,0.351524
2026-03-23 00:00:00+00:00,-0.266551,-0.065306,-0.153892,0.350236
2026-03-23 04:00:00+00:00,-0.249614,-0.064346,-0.166705,0.349889
2026-03-23 08:00:00+00:00,-0.230481,0.020004,-0.2281,0.328833
2026-03-23 12:00:00+00:00,-0.295054,-0.006463,-0.168753,0.33771
2026-03-23 16:00:00+00:00,-0.352451,-0.02247,-0.110185,0.334854
2026-03-23 20:00:00+00:00,-0.265018,0.003158,-0.196112,0.334871
2026-03-24 00:00:00+00:00,-0.248097,-0.009085,-0.199674,0.337465
2026-03-24 04:00:00+00:00,-0.30601,-0.001703,-0.162156,0.334362
2026-03-24 08:00:00+00:00,-0.320655,-0.011575,-0.144181,0.335605
2026-03-24 12:00:00+00:00,-0.299136,-0.061523,-0.123118,0.345301
2026-03-24 16:00:00+00:00,-0.270195,-0.089799,-0.12279,0.351159
2026-03-24 20:00:00+00:00,-0.287377,-0.084614,-0.110931,0.348649
2026-03-25 00:00:00+00:00,-0.304732,-0.103291,-0.097189,0.361868
2026-03-25 04:00:00+00:00,-0.296747,-0.093228,-0.115078,0.363552
2026-03-25 08:00:00+00:00,-0.280172,-0.103343,-0.119355,0.363684
2026-03-25 12:00:00+00:00,-0.296159,-0.089706,-0.117513,0.364409
2026-03-25 16:00:00+00:00,-0.281703,-0.097819,-0.125678,0.367093
2026-03-25 20:00:00+00:00,-0.264951,-0.103763,-0.133663,0.368479
2026-03-26 00:00:00+00:00,-0.281256,-0.110843,-0.116378,0.365832
2026-03-26 04:00:00+00:00,-0.270521,-0.100544,-0.132182,0.36564
2026-03-26 08:00:00+00:00,-0.250767,-0.122907,-0.125486,0.367764
2026-03-26 12:00:00+00:00,-0.26225,-0.104718,-0.133537,0.366775
2026-03-26 16:00:00+00:00,-0.223116,-0.095925,-0.16772,0.365945
2026-03-26 20:00:00+00:00,-0.243849,-0.097957,-0.151644,0.365432
2026-03-27 00:00:00+00:00,-0.25256,-0.096366,-0.151508,0.364288
2026-03-27 04:00:00+00:00,-0.240374,-0.100903,-0.15661,0.364233
2026-03-27 08:00:00+00:00,-0.245632,-0.108067,-0.14115,0.362268
2026-03-27 12:00:00+00:00,-0.283871,-0.106474,-0.121451,0.362386
2026-03-27 16:00:00+00:00,-0.278359,-0.104224,-0.134379,0.365295
2026-03-27 20:00:00+00:00,-0.259151,-0.115736,-0.14044,0.370691
2026-03-28 00:00:00+00:00,-0.272393,-0.102795,-0.14156,0.369268
2026-03-28 04:00:00+00:00,-0.276723,-0.10145,-0.139183,0.36766
2026-03-28 08:00:00+00:00,-0.284582,-0.094935,-0.138571,0.366834
2026-03-28 12:00:00+00:00,-0.285418,-0.091297,-0.140575,0.365716
2026-03-28 16:00:00+00:00,-0.269278,-0.102489,-0.143376,0.367098
2026-03-28 20:00:00+00:00,-0.229074,-0.109963,-0.165002,0.368744
2026-03-29 00:00:00+00:00,-0.234981,-0.119507,-0.153242,0.371004
2026-03-29 04:00:00+00:00,-0.24704,-0.113566,-0.14963,0.370918
2026-03-29 08:00:00+00:00,-0.249534,-0.116268,-0.153534,0.37501
2026-03-29 12:00:00+00:00,-0.262951,-0.102343,-0.155446,0.373466
2026-03-29 16:00:00+00:00,-0.270912,-0.069578,-0.176694,0.375049
2026-03-29 20:00:00+00:00,-0.323193,-0.002641,-0.18526,0.35887
2026-03-30 00:00:00+00:00,-0.357044,-0.002364,-0.155618,0.35688
2026-03-30 04:00:00+00:00,-0.379376,0.004075,-0.151648,0.354398
2026-03-30 08:00:00+00:00,-0.41725,0.035734,-0.139614,0.342489
2026-03-30 12:00:00+00:00,-0.402548,0.027182,-0.15062,0.350643
2026-03-30 16:00:00+00:00,-0.402325,0.015446,-0.144954,0.35728
2026-03-30 20:00:00+00:00,-0.406773,0.022894,-0.148069,0.366607
2026-03-31 00:00:00+00:00,-0.393901,0.08875,-0.199378,0.34637
2026-03-31 04:00:00+00:00,-0.430996,0.137154,-0.190832,0.320248
2026-03-31 08:00:00+00:00,-0.407864,0.22639,-0.233965,0.26888
2026-03-31 12:00:00+00:00,-0.466403,0.319007,-0.184273,0.185401
2026-03-31 16:00:00+00:00,-0.387921,0.295019,-0.254013,0.216465
2026-03-31 20:00:00+00:00,-0.355868,0.358964,-0.264638,0.153709
2026-04-01 00:00:00+00:00,-0.40004,0.402135,-0.210869,0.098546
2026-04-01 04:00:00+00:00,-0.341152,0.41838,-0.24696,0.08086
2026-04-01 08:00:00+00:00,-0.296077,0.429246,-0.267087,0.060609
2026-04-01 12:00:00+00:00,-0.305745,0.441672,-0.289164,0.070864
2026-04-01 16:00:00+00:00,-0.360027,0.489765,-0.165809,-0.040523
2026-04-01 20:00:00+00:00,-0.221443,0.47597,-0.286769,-0.007592
2026-04-02 00:00:00+00:00,-0.202065,0.403684,-0.349225,0.089298
2026-04-02 04:00:00+00:00,-0.283571,0.430747,-0.292135,0.06805
2026-04-02 08:00:00+00:00,-0.301026,0.341515,-0.326779,0.18545
2026-04-02 12:00:00+00:00,-0.284958,0.280066,-0.341569,0.239398
2026-04-02 16:00:00+00:00,-0.208678,0.3655,-0.3657,0.140972
2026-04-02 20:00:00+00:00,-0.238455,0.324857,-0.365458,0.19131
2026-04-03 00:00:00+00:00,-0.27952,0.335668,-0.344293,0.188897
2026-04-03 04:00:00+00:00,-0.293409,0.398237,-0.321344,0.124816
2026-04-03 08:00:00+00:00,-0.382371,0.36566,-0.289868,0.175928
2026-04-03 12:00:00+00:00,-0.387622,0.480059,-0.230411,0.033574
2026-04-03 16:00:00+00:00,-0.361947,0.483557,-0.246586,0.030679
2026-04-03 20:00:00+00:00,-0.389118,0.443173,-0.277435,0.106329
2026-04-04 00:00:00+00:00,-0.424817,0.439277,-0.254881,0.111681
2026-04-04 04:00:00+00:00,-0.418146,0.379369,-0.287853,0.184724
2026-04-04 08:00:00+00:00,-0.41997,0.351102,-0.296101,0.214454
2026-04-04 12:00:00+00:00,-0.468387,0.376913,-0.262013,0.192637
2026-04-04 16:00:00+00:00,-0.455438,0.32316,-0.280718,0.245809
2026-04-04 20:00:00+00:00,-0.334371,0.170054,-0.334825,0.34486
2026-04-05 00:00:00+00:00,-0.343758,0.108336,-0.306305,0.375324
2026-04-05 04:00:00+00:00,-0.269547,0.128317,-0.356466,0.35863
2026-04-05 08:00:00+00:00,-0.23247,0.141265,-0.381981,0.347749
2026-04-05 12:00:00+00:00,-0.144405,0.101119,-0.415848,0.353308
2026-04-05 16:00:00+00:00,-0.107298,0.009533,-0.392492,0.385502
2026-04-05 20:00:00+00:00,0.007873,0.047766,-0.447171,0.337572
2026-04-06 00:00:00+00:00,-0.136925,0.151414,-0.429564,0.324892
2026-04-06 04:00:00+00:00,0.053854,0.249285,-0.500568,0.195171
2026-04-06 08:00:00+00:00,0.194679,0.267044,-0.511534,0.107587
2026-04-06 12:00:00+00:00,0.030669,0.113198,-0.476383,0.297274
2026-04-06 16:00:00+00:00,0.063344,0.218567,-0.503889,0.216353
2026-04-06 20:00:00+00:00,0.237559,0.213683,-0.51609,0.12852
2026-04-07 00:00:00+00:00,0.253374,0.257155,-0.509956,0.079007
2026-04-07 04:00:00+00:00,0.265175,0.276679,-0.503534,0.050616
2026-04-07 08:00:00+00:00,0.242027,0.288294,-0.502105,0.053921
2026-04-07 12:00:00+00:00,0.311527,0.39462,-0.319143,-0.22755
2026-04-07 16:00:00+00:00,0.373513,0.342989,-0.199057,-0.319344
2026-04-07 20:00:00+00:00,0.383752,0.30643,-0.198449,-0.310845
2026-04-08 00:00:00+00:00,0.363196,0.335773,-0.282103,-0.246696
2026-04-08 04:00:00+00:00,0.322542,0.325838,-0.404068,-0.107655
2026-04-08 08:00:00+00:00,0.348583,0.275003,-0.441496,-0.049638
2026-04-08 12:00:00+00:00,0.357248,0.317017,-0.387732,-0.136247
2026-04-08 16:00:00+00:00,0.342107,0.33776,-0.362455,-0.171661
2026-04-08 20:00:00+00:00,0.349115,0.26482,-0.453755,-0.030889
2026-04-09 00:00:00+00:00,0.305951,0.295761,-0.452912,-0.02907
2026-04-09 04:00:00+00:00,0.311995,0.32514,-0.42723,-0.079494
2026-04-09 08:00:00+00:00,0.322078,0.268278,-0.466445,-0.002756
2026-04-09 12:00:00+00:00,0.396919,0.238688,-0.451138,-0.037588
2026-04-09 16:00:00+00:00,0.312656,0.22867,-0.490246,0.055548
2026-04-09 20:00:00+00:00,0.3623,0.21575,-0.481717,0.02912
2026-04-10 00:00:00+00:00,0.321254,0.165768,-0.497569,0.109703
2026-04-10 04:00:00+00:00,0.293227,0.175747,-0.499394,0.119411
2026-04-10 08:00:00+00:00,0.282312,0.181949,-0.500205,0.119401
2026-04-10 12:00:00+00:00,0.260969,0.149929,-0.500921,0.163817
2026-04-10 16:00:00+00:00,0.367956,0.18448,-0.491492,0.059561
2026-04-10 20:00:00+00:00,0.355492,0.213743,-0.487868,0.039657
2026-04-11 00:00:00+00:00,0.327997,0.1448,-0.503727,0.127378
2026-04-11 04:00:00+00:00,0.238165,0.096316,-0.498833,0.218178
2026-04-11 08:00:00+00:00,0.278416,0.12575,-0.506309,0.175626
2026-04-11 12:00:00+00:00,0.253066,0.162677,-0.508521,0.161359
2026-04-11 16:00:00+00:00,0.237933,0.209587,-0.505166,0.125315
2026-04-11 20:00:00+00:00,0.298425,0.227645,-0.495684,0.065264
2026-04-12 00:00:00+00:00,0.249109,0.202153,-0.504818,0.119487
2026-04-12 04:00:00+00:00,0.190948,0.221526,-0.504426,0.136753
2026-04-12 08:00:00+00:00,0.120324,0.11463,-0.490675,0.255943
2026-04-12 12:00:00+00:00,0.071609,0.107079,-0.478836,0.283827
2026-04-12 16:00:00+00:00,0.058578,0.097977,-0.473075,0.295245
2026-04-12 20:00:00+00:00,-0.002156,0.094105,-0.455226,0.319445
2026-04-13 00:00:00+00:00,0.016586,0.086631,-0.45827,0.317073
2026-04-13 04:00:00+00:00,0.008113,0.103467,-0.462189,0.310168
2026-04-13 08:00:00+00:00,0.016694,0.081642,-0.457686,0.319324
2026-04-13 12:00:00+00:00,0.189202,0.100789,-0.499228,0.237463
2026-04-13 16:00:00+00:00,0.260978,0.119653,-0.505705,0.180344
2026-04-13 20:00:00+00:00,0.175557,0.21278,-0.499452,0.144096
2026-04-14 00:00:00+00:00,0.156741,0.1902,-0.498761,0.175493
2026-04-14 04:00:00+00:00,0.148693,0.204028,-0.498066,0.167915
2026-04-14 08:00:00+00:00,0.130688,0.225418,-0.49552,0.157525
2026-04-14 12:00:00+00:00,0.280073,0.200241,-0.49844,0.088999
2026-04-14 16:00:00+00:00,0.254034,0.162542,-0.498345,0.140198
2026-04-14 20:00:00+00:00,0.183919,0.188156,-0.515935,0.162868
2026-04-15 00:00:00+00:00,0.15741,0.160179,-0.512858,0.202578
2026-04-15 04:00:00+00:00,0.160695,0.183724,-0.514759,0.18237
2026-04-15 08:00:00+00:00,0.156463,0.229292,-0.512428,0.143546
2026-04-15 12:00:00+00:00,0.135914,0.217391,-0.511638,0.166118
2026-04-15 16:00:00+00:00,0.15364,0.231436,-0.513528,0.144133
2026-04-15 20:00:00+00:00,0.189601,0.235621,-0.514817,0.120913
2026-04-16 00:00:00+00:00,0.167384,0.200497,-0.521138,0.1684
2026-04-16 04:00:00+00:00,0.211,0.180383,-0.523827,0.161968
2026-04-16 08:00:00+00:00,0.273075,0.222715,-0.517572,0.07927
2026-04-16 12:00:00+00:00,0.354365,0.206128,-0.502344,0.033449
2026-04-16 16:00:00+00:00,0.463745,0.232585,-0.401513,-0.141568
2026-04-16 20:00:00+00:00,0.426255,0.247109,-0.424435,-0.10819
2026-04-17 00:00:00+00:00,0.43102,0.2403,-0.426338,-0.102609
2026-04-17 04:00:00+00:00,0.463523,0.221662,-0.416743,-0.115546
2026-04-17 08:00:00+00:00,0.479603,0.241028,-0.368483,-0.188328
2026-04-17 12:00:00+00:00,0.466252,0.244504,-0.379068,-0.176365
2026-04-17 16:00:00+00:00,0.464388,0.252994,-0.358907,-0.200936
2026-04-17 20:00:00+00:00,0.44536,0.26286,-0.376045,-0.182336
2026-04-18 00:00:00+00:00,0.443289,0.246536,-0.411277,-0.135048
2026-04-18 04:00:00+00:00,0.467942,0.246181,-0.384672,-0.174266
2026-04-18 08:00:00+00:00,0.442542,0.218959,-0.441995,-0.081115
2026-04-18 12:00:00+00:00,0.428932,0.228302,-0.451226,-0.073274
2026-04-18 16:00:00+00:00,0.438806,0.213956,-0.456977,-0.061001
2026-04-18 20:00:00+00:00,0.425512,0.201442,-0.472869,-0.026378
2026-04-19 00:00:00+00:00,0.427368,0.173131,-0.484658,0.009744
2026-04-19 04:00:00+00:00,0.434872,0.128973,-0.49091,0.050783
2026-04-19 08:00:00+00:00,0.426117,0.088665,-0.4946,0.097812
2026-04-19 12:00:00+00:00,0.475451,0.078464,-0.480177,0.063147
2026-04-19 16:00:00+00:00,0.513132,0.128637,-0.450406,-0.034735
2026-04-19 20:00:00+00:00,0.449549,0.146576,-0.474152,0.011034
2026-04-20 00:00:00+00:00,0.468799,0.110666,-0.471448,0.027862
2026-04-20 04:00:00+00:00,0.471632,0.118431,-0.468816,0.016587
2026-04-20 08:00:00+00:00,0.495255,0.04943,-0.464189,0.058761
2026-04-20 12:00:00+00:00,0.57018,0.00308,-0.425049,0.016743
2026-04-20 16:00:00+00:00,0.547786,0.018131,-0.43797,0.028928
2026-04-20 20:00:00+00:00,0.546612,0.031893,-0.447943,0.028059
2026-04-21 00:00:00+00:00,0.486972,0.013441,-0.471014,0.102059
2026-04-21 04:00:00+00:00,0.594291,0.015425,-0.421034,-0.013051
2026-04-21 08:00:00+00:00,0.624084,-0.017948,-0.400886,-0.020061
2026-04-21 12:00:00+00:00,0.642671,0.034889,-0.36606,-0.10948
2026-04-21 16:00:00+00:00,0.610713,0.011594,-0.408804,-0.029185
2026-04-21 20:00:00+00:00,0.688354,-0.094684,-0.312386,-0.073913
2026-04-22 00:00:00+00:00,0.669393,0.004221,-0.296476,-0.163651
2026-04-22 04:00:00+00:00,0.638426,0.04532,-0.337307,-0.143529
2026-04-22 08:00:00+00:00,0.659109,0.036989,-0.339303,-0.142315
2026-04-22 12:00:00+00:00,0.671624,-0.006027,-0.338953,-0.117403
2026-04-22 16:00:00+00:00,0.657464,0.00133,-0.363232,-0.09439
2026-04-22 20:00:00+00:00,0.647373,-0.002161,-0.376599,-0.074658
2026-04-23 00:00:00+00:00,0.666618,-0.018906,-0.352115,-0.094112
2026-04-23 04:00:00+00:00,0.651245,-0.022416,-0.379643,-0.057721
2026-04-23 08:00:00+00:00,0.655064,-0.022683,-0.374313,-0.06479
2026-04-23 12:00:00+00:00,0.649766,-0.049159,-0.392505,-0.022023
2026-04-23 16:00:00+00:00,0.6578,-0.029859,-0.383462,-0.051334
2026-04-23 20:00:00+00:00,0.661682,-0.038486,-0.390257,-0.041171
2026-04-24 00:00:00+00:00,0.677051,-0.04702,-0.371191,-0.060905
2026-04-24 04:00:00+00:00,0.661119,-0.035851,-0.390194,-0.044193
2026-04-24 08:00:00+00:00,0.675436,-0.024177,-0.372749,-0.07817
2026-04-24 12:00:00+00:00,0.660301,-0.021397,-0.397605,-0.049085
2026-04-24 16:00:00+00:00,0.661309,-0.042655,-0.39656,-0.033108
2026-04-24 20:00:00+00:00,0.679684,-0.029988,-0.373923,-0.074477
2026-04-25 00:00:00+00:00,0.674849,-0.042523,-0.383312,-0.052803
2026-04-25 04:00:00+00:00,0.67824,-0.038652,-0.387009,-0.056179
2026-04-25 08:00:00+00:00,0.65709,-0.061094,-0.41392,-0.001151
2026-04-25 12:00:00+00:00,0.663698,-0.092149,-0.402183,0.010423
2026-04-25 16:00:00+00:00,0.678238,-0.061403,-0.39979,-0.029065
2026-04-25 20:00:00+00:00,0.656281,-0.053859,-0.422276,-0.003473
2026-04-26 00:00:00+00:00,0.684817,-0.09406,-0.389298,-0.015709
2026-04-26 04:00:00+00:00,0.717218,-0.097528,-0.344201,-0.07264
2026-04-26 08:00:00+00:00,0.726652,-0.084027,-0.373199,-0.05996
2026-04-26 12:00:00+00:00,0.738109,-0.071948,-0.358773,-0.087728
2026-04-26 16:00:00+00:00,0.688037,-0.035267,-0.423088,-0.032761
2026-04-26 20:00:00+00:00,0.672823,-0.096135,-0.427045,0.030336
2026-04-27 00:00:00+00:00,0.654507,-0.111636,-0.433144,0.059592
2026-04-27 04:00:00+00:00,0.596664,-0.167081,-0.421306,0.133439
2026-04-27 08:00:00+00:00,0.65456,-0.143636,-0.407596,0.065921
2026-04-27 12:00:00+00:00,0.623116,-0.186967,-0.398424,0.113591
2026-04-27 16:00:00+00:00,0.630591,-0.072502,-0.444673,0.051015
2026-04-27 20:00:00+00:00,0.595325,-0.147938,-0.433342,0.126672
2026-04-28 00:00:00+00:00,0.636237,-0.171787,-0.404143,0.095785
2026-04-28 04:00:00+00:00,0.738164,-0.152569,-0.324073,-0.05162
2026-04-28 08:00:00+00:00,0.730368,-0.120939,-0.340999,-0.060219
2026-04-28 12:00:00+00:00,0.736965,-0.062889,-0.323271,-0.128735
2026-04-28 16:00:00+00:00,0.687122,-0.067498,-0.40485,-0.024563
2026-04-28 20:00:00+00:00,0.734761,-0.038315,-0.315924,-0.15461
2026-04-29 00:00:00+00:00,0.737177,-0.010215,-0.285706,-0.2048
2026-04-29 04:00:00+00:00,0.717728,0.02715,-0.321307,-0.193928
2026-04-29 08:00:00+00:00,0.713224,0.040358,-0.282847,-0.235761
2026-04-29 12:00:00+00:00,0.70654,0.02194,-0.306448,-0.201813
2026-04-29 16:00:00+00:00,0.722974,-0.041465,-0.355087,-0.117506
2026-04-29 20:00:00+00:00,0.71281,0.008549,-0.34208,-0.164475
2026-04-30 00:00:00+00:00,0.697789,0.054305,-0.22732,-0.290173
2026-04-30 04:00:00+00:00,0.692865,0.059155,-0.214591,-0.302824
2026-04-30 08:00:00+00:00,0.658907,0.068428,-0.126066,-0.367059
2026-04-30 12:00:00+00:00,0.6575,0.075164,-0.135395,-0.364027
2026-04-30 16:00:00+00:00,0.696589,0.063597,-0.204992,-0.31822
2026-04-30 20:00:00+00:00,0.719766,0.027897,-0.203378,-0.302428
2026-05-01 00:00:00+00:00,0.705682,0.036289,-0.179324,-0.321257
2026-05-01 04:00:00+00:00,0.661045,0.062217,-0.107719,-0.377627
2026-05-01 08:00:00+00:00,0.711839,0.011004,-0.147508,-0.330587
2026-05-01 12:00:00+00:00,0.73689,-0.00952,-0.214912,-0.27461
2026-05-01 16:00:00+00:00,0.759636,-0.057588,-0.199417,-0.26302
2026-05-01 20:00:00+00:00,0.769658,-0.079998,-0.221965,-0.235326
2026-05-02 00:00:00+00:00,0.780121,-0.05915,-0.224464,-0.253979
2026-05-02 04:00:00+00:00,0.793812,-0.09799,-0.260155,-0.200245
2026-05-02 08:00:00+00:00,0.790554,-0.071226,-0.285109,-0.199552
2026-05-02 12:00:00+00:00,0.779552,-0.041908,-0.222242,-0.26798
2026-05-02 16:00:00+00:00,0.77848,-0.043938,-0.210441,-0.275243
2026-05-02 20:00:00+00:00,0.771012,-0.037227,-0.188588,-0.293875
2026-05-03 00:00:00+00:00,0.751389,-0.003519,-0.180365,-0.316906
2026-05-03 04:00:00+00:00,0.751855,0.011805,-0.210989,-0.305384
2026-05-03 08:00:00+00:00,0.724743,0.035327,-0.166083,-0.345248
2026-05-03 12:00:00+00:00,0.691513,0.071416,-0.142646,-0.373752
2026-05-03 16:00:00+00:00,0.691805,0.064421,-0.131511,-0.37645
2026-05-03 20:00:00+00:00,0.790063,-0.089406,-0.178682,-0.269712
2026-05-04 00:00:00+00:00,0.745386,-0.039481,-0.143373,-0.319414
2026-05-04 04:00:00+00:00,0.753074,-0.076323,-0.123328,-0.310205
2026-05-04 08:00:00+00:00,0.736828,-0.061043,-0.109891,-0.325633
2026-05-04 12:00:00+00:00,0.754396,-0.075045,-0.168398,-0.28135
2026-05-04 16:00:00+00:00,0.722334,-0.035423,-0.121236,-0.333054
2026-05-04 20:00:00+00:00,0.736711,-0.070905,-0.115687,-0.317135
2026-05-05 00:00:00+00:00,0.720495,-0.056483,-0.100062,-0.333787
2026-05-05 04:00:00+00:00,0.758442,-0.115712,-0.141884,-0.272157
2026-05-05 08:00:00+00:00,0.763827,-0.13266,-0.144063,-0.258693
2026-05-05 12:00:00+00:00,0.760566,-0.122634,-0.143731,-0.265722
2026-05-05 16:00:00+00:00,0.765983,-0.189766,-0.108211,-0.240887
2026-05-05 20:00:00+00:00,0.769848,-0.189165,-0.074584,-0.267405
2026-05-06 00:00:00+00:00,0.765144,-0.181909,-0.07013,-0.274987
2026-05-06 04:00:00+00:00,0.748266,-0.161772,-0.041656,-0.304587
2026-05-06 08:00:00+00:00,0.727473,-0.170899,-0.000875,-0.318521
2026-05-06 12:00:00+00:00,0.741888,-0.159408,-0.04343,-0.300082
2026-05-06 16:00:00+00:00,0.782756,-0.157556,-0.200049,-0.200061
2026-05-06 20:00:00+00:00,0.785989,-0.161897,-0.171479,-0.224016
2026-05-07 00:00:00+00:00,0.780791,-0.159399,-0.153975,-0.235483
2026-05-07 04:00:00+00:00,0.76321,-0.199808,-0.06761,-0.257718
2026-05-07 08:00:00+00:00,0.755488,-0.23739,-0.039109,-0.244818
2026-05-07 12:00:00+00:00,0.708352,-0.297615,0.056979,-0.24413
2026-05-07 16:00:00+00:00,0.714024,-0.350519,0.042345,-0.191844
2026-05-07 20:00:00+00:00,0.757202,-0.38743,0.06897,-0.203176
2026-05-08 00:00:00+00:00,0.725202,-0.343955,0.135097,-0.268968
2026-05-08 04:00:00+00:00,0.749523,-0.407898,0.079451,-0.191135
2026-05-08 08:00:00+00:00,0.72213,-0.299752,0.135178,-0.307009
2026-05-08 12:00:00+00:00,0.676216,-0.367415,0.201536,-0.276265
2026-05-08 16:00:00+00:00,0.493087,-0.346744,0.345441,-0.303666
2026-05-08 20:00:00+00:00,0.538722,-0.399866,0.320884,-0.27005
2026-05-09 00:00:00+00:00,0.437238,-0.462013,0.395118,-0.217749
2026-05-09 04:00:00+00:00,0.390307,-0.414679,0.428979,-0.255039
2026-05-09 08:00:00+00:00,0.42482,-0.419489,0.405231,-0.252948
2026-05-09 12:00:00+00:00,0.507308,-0.365782,0.338618,-0.291202
2026-05-09 16:00:00+00:00,0.548586,-0.444299,0.320754,-0.238856
2026-05-09 20:00:00+00:00,0.530745,-0.439318,0.332827,-0.243383
2026-05-10 00:00:00+00:00,0.509507,-0.431477,0.345915,-0.248498
2026-05-10 04:00:00+00:00,0.48766,-0.505809,0.35117,-0.17805
2026-05-10 08:00:00+00:00,0.481431,-0.493815,0.364549,-0.199057
2026-05-10 12:00:00+00:00,0.47275,-0.501724,0.366136,-0.188445
2026-05-10 16:00:00+00:00,0.261602,-0.481622,0.493908,-0.181575
2026-05-10 20:00:00+00:00,0.37682,-0.461893,0.441964,-0.225933
2026-05-11 00:00:00+00:00,0.334998,-0.412635,0.461684,-0.259289
2026-05-11 04:00:00+00:00,0.294168,-0.421613,0.486319,-0.24793
2026-05-11 08:00:00+00:00,0.318973,-0.380296,0.466715,-0.281314
2026-05-11 12:00:00+00:00,0.329087,-0.462063,0.457002,-0.214994
2026-05-11 16:00:00+00:00,0.271811,-0.534841,0.462062,-0.133745
2026-05-11 20:00:00+00:00,0.253315,-0.525849,0.477886,-0.144272
2026-05-12 00:00:00+00:00,0.22625,-0.538864,0.502544,-0.136545
2026-05-12 04:00:00+00:00,0.200533,-0.583912,0.482152,-0.066533
2026-05-12 08:00:00+00:00,0.26599,-0.5671,0.468844,-0.112315
2026-05-12 12:00:00+00:00,0.17669,-0.549668,0.509637,-0.103639
2026-05-12 16:00:00+00:00,0.184431,-0.505847,0.52617,-0.157951
2026-05-12 20:00:00+00:00,0.23831,-0.469996,0.516443,-0.212564
2026-05-13 00:00:00+00:00,0.212103,-0.415167,0.533718,-0.256874
2026-05-13 04:00:00+00:00,0.201559,-0.356096,0.536632,-0.300894
2026-05-13 08:00:00+00:00,0.220429,-0.265644,0.509545,-0.361522
2026-05-13 12:00:00+00:00,0.238725,-0.2789,0.487505,-0.361614
2026-05-13 16:00:00+00:00,0.288048,-0.301609,0.454785,-0.349002
2026-05-13 20:00:00+00:00,0.237079,-0.298408,0.484628,-0.353865
2026-05-14 00:00:00+00:00,0.307818,-0.258067,0.429229,-0.382233
2026-05-14 04:00:00+00:00,0.313196,-0.287446,0.430156,-0.362689
2026-05-14 08:00:00+00:00,0.257125,-0.336895,0.475502,-0.329519
2026-05-14 12:00:00+00:00,0.285556,-0.613528,0.415386,-0.075527
2026-05-14 16:00:00+00:00,0.259355,-0.71848,0.287316,0.105409
2026-05-14 20:00:00+00:00,0.310627,-0.716957,0.27039,0.088836
2026-05-15 00:00:00+00:00,0.116329,-0.688068,0.124431,0.27471
2026-05-15 04:00:00+00:00,0.131951,-0.68691,0.10759,0.278758
2026-05-15 08:00:00+00:00,0.18951,-0.718409,0.182718,0.212619
2026-05-15 12:00:00+00:00,0.209062,-0.711526,0.154484,0.215113
2026-05-15 16:00:00+00:00,0.115222,-0.708916,0.189073,0.233897
2026-05-15 20:00:00+00:00,0.152435,-0.718641,0.198083,0.213571
2026-05-16 00:00:00+00:00,0.242341,-0.730277,0.234339,0.147484
2026-05-16 04:00:00+00:00,0.219634,-0.724055,0.206762,0.174426
2026-05-16 08:00:00+00:00,0.328556,-0.724165,0.189791,0.129853
2026-05-16 12:00:00+00:00,0.35234,-0.720806,0.212096,0.101224
2026-05-16 16:00:00+00:00,0.323382,-0.726455,0.213092,0.123672
2026-05-16 20:00:00+00:00,0.268028,-0.726978,0.248121,0.128792
2026-05-17 00:00:00+00:00,0.251602,-0.729723,0.227486,0.152395
2026-05-17 04:00:00+00:00,0.246169,-0.72251,0.30215,0.101386
2026-05-17 08:00:00+00:00,0.241491,-0.726404,0.292317,0.111724
2026-05-17 12:00:00+00:00,0.226122,-0.768564,0.225054,0.174666
2026-05-17 16:00:00+00:00,0.064403,-0.695178,0.077631,0.294258
2026-05-17 20:00:00+00:00,0.059722,-0.668718,0.067006,0.297816
2026-05-18 00:00:00+00:00,0.03796,-0.66116,0.067323,0.303925
2026-05-18 04:00:00+00:00,0.02987,-0.652565,0.055324,0.311069
2026-05-18 08:00:00+00:00,0.057923,-0.666292,0.043419,0.308447
2026-05-18 12:00:00+00:00,0.038542,-0.657052,0.044867,0.312031
2026-05-18 16:00:00+00:00,0.018638,-0.639933,0.02842,0.318701
2026-05-18 20:00:00+00:00,-0.03067,-0.60304,-5.9e-05,0.336334
2026-05-19 00:00:00+00:00,-0.07049,-0.581479,-0.005264,0.346387
2026-05-19 04:00:00+00:00,-0.035647,-0.606128,0.005591,0.336203
2026-05-19 08:00:00+00:00,-0.069938,-0.577051,-0.010112,0.347881
2026-05-19 12:00:00+00:00,-0.047262,-0.581567,-0.020611,0.346354
2026-05-19 16:00:00+00:00,-0.061235,-0.574964,-0.026305,0.356693
2026-05-19 20:00:00+00:00,-0.023585,-0.590819,-0.039081,0.353197
2026-05-20 00:00:00+00:00,-0.0336,-0.590735,-0.036238,0.354157
2026-05-20 04:00:00+00:00,-0.052754,-0.56719,-0.056256,0.361745
2026-05-20 08:00:00+00:00,-0.082844,-0.538261,-0.076538,0.369489
2026-05-20 12:00:00+00:00,-0.143168,-0.523669,-0.050599,0.368742
2026-05-20 16:00:00+00:00,-0.15538,-0.515229,-0.054806,0.368288
2026-05-20 20:00:00+00:00,-0.164982,-0.503404,-0.064588,0.368277
2026-05-21 00:00:00+00:00,-0.180694,-0.488315,-0.069961,0.367592
2026-05-21 04:00:00+00:00,-0.195886,-0.465509,-0.087109,0.370423
2026-05-21 08:00:00+00:00,-0.200863,-0.471405,-0.072938,0.366746
2026-05-21 12:00:00+00:00,-0.262827,-0.433721,-0.068345,0.358646
2026-05-21 16:00:00+00:00,-0.265397,-0.487789,0.006672,0.33541
2026-05-21 20:00:00+00:00,-0.263592,-0.484043,-0.009165,0.338959
2026-05-22 00:00:00+00:00,-0.25274,-0.504243,-0.000349,0.334493
2026-05-22 04:00:00+00:00,-0.258352,-0.508848,0.007762,0.333176
2026-05-22 08:00:00+00:00,-0.269073,-0.48789,-0.013631,0.332414
2026-05-22 12:00:00+00:00,-0.288455,-0.497044,0.016917,0.319764
2026-05-22 16:00:00+00:00,-0.250307,-0.499123,0.004799,0.314817
2026-05-22 20:00:00+00:00,-0.273637,-0.494197,0.01581,0.313314
2026-05-23 00:00:00+00:00,-0.273674,-0.494357,0.010672,0.313616
2026-05-23 04:00:00+00:00,-0.260432,-0.467176,-0.026935,0.320785
2026-05-23 08:00:00+00:00,-0.258818,-0.474768,-0.018702,0.318666
2026-05-23 12:00:00+00:00,-0.266711,-0.467478,-0.015957,0.316052
2026-05-23 16:00:00+00:00,-0.266366,-0.470064,-0.012667,0.315832
2026-05-23 20:00:00+00:00,-0.273306,-0.459036,-0.013312,0.316602
2026-05-24 00:00:00+00:00,-0.302312,-0.443323,-0.012037,0.31721
2026-05-24 04:00:00+00:00,-0.299363,-0.43555,-0.025349,0.317767
2026-05-24 08:00:00+00:00,-0.27323,-0.451025,-0.028246,0.316195
2026-05-24 12:00:00+00:00,-0.317855,-0.41028,-0.037261,0.320494
2026-05-24 16:00:00+00:00,-0.301036,-0.424893,-0.032692,0.318302
2026-05-24 20:00:00+00:00,-0.287396,-0.435225,-0.030792,0.317076
2026-05-25 00:00:00+00:00,-0.294561,-0.44341,-0.013507,0.312952
2026-05-25 04:00:00+00:00,-0.303385,-0.438228,-0.009976,0.310782
2026-05-25 08:00:00+00:00,-0.308195,-0.437383,-0.006891,0.310628
2026-05-25 12:00:00+00:00,-0.326019,-0.429807,-0.00043,0.310042
2026-05-25 16:00:00+00:00,-0.320399,-0.408643,-0.033953,0.315909
2026-05-25 20:00:00+00:00,-0.289277,-0.418913,-0.047711,0.315949
2026-05-26 00:00:00+00:00,-0.300818,-0.410898,-0.045944,0.31413
2026-05-26 04:00:00+00:00,-0.291842,-0.409871,-0.057762,0.315421
2026-05-26 08:00:00+00:00,-0.302041,-0.38147,-0.080429,0.318371
2026-05-26 12:00:00+00:00,-0.308069,-0.357763,-0.098623,0.320141
2026-05-26 16:00:00+00:00,-0.301886,-0.352597,-0.109335,0.31944
2026-05-26 20:00:00+00:00,-0.30594,-0.35774,-0.100942,0.317586
2026-05-27 00:00:00+00:00,-0.324634,-0.353466,-0.093379,0.318026
2026-05-27 04:00:00+00:00,-0.317058,-0.350213,-0.12518,0.319766
2026-05-27 08:00:00+00:00,-0.308305,-0.350458,-0.131657,0.320086
2026-05-27 12:00:00+00:00,-0.327367,-0.368625,-0.105778,0.316462
2026-05-27 16:00:00+00:00,-0.330656,-0.368235,-0.103459,0.316249
2026-05-27 20:00:00+00:00,-0.313337,-0.375905,-0.104463,0.311829
2026-05-28 00:00:00+00:00,-0.303582,-0.364769,-0.113395,0.312945
2026-05-28 04:00:00+00:00,-0.313669,-0.360548,-0.109086,0.312768
2026-05-28 08:00:00+00:00,-0.316929,-0.360414,-0.108001,0.312336
2026-05-28 12:00:00+00:00,-0.334319,-0.340913,-0.114439,0.313664
2026-05-28 16:00:00+00:00,-0.292928,-0.319415,-0.164643,0.310687
2026-05-28 20:00:00+00:00,-0.291828,-0.324812,-0.160385,0.310297
2026-05-29 00:00:00+00:00,-0.281411,-0.312886,-0.180784,0.310989
2026-05-29 04:00:00+00:00,-0.276835,-0.317061,-0.179929,0.309807
2026-05-29 08:00:00+00:00,-0.28008,-0.312412,-0.182683,0.309755
2026-05-29 12:00:00+00:00,-0.31759,-0.307649,-0.173679,0.305834
2026-05-29 16:00:00+00:00,-0.316172,-0.315321,-0.171153,0.305644
2026-05-29 20:00:00+00:00,-0.312156,-0.324114,-0.167577,0.303612
2026-05-30 00:00:00+00:00,-0.31926,-0.325223,-0.16134,0.303449
2026-05-30 04:00:00+00:00,-0.313536,-0.322185,-0.168431,0.303568
2026-05-30 08:00:00+00:00,-0.317038,-0.312401,-0.175032,0.303605
2026-05-30 12:00:00+00:00,-0.312724,-0.316343,-0.174354,0.303226
2026-05-30 16:00:00+00:00,-0.288284,-0.315449,-0.191446,0.303307
2026-05-30 20:00:00+00:00,-0.312738,-0.307791,-0.181889,0.303574
2026-05-31 00:00:00+00:00,-0.299472,-0.31219,-0.189526,0.303805
2026-05-31 04:00:00+00:00,-0.295763,-0.304838,-0.197846,0.304306
2026-05-31 08:00:00+00:00,-0.306506,-0.306261,-0.189931,0.303738
2026-05-31 12:00:00+00:00,-0.305161,-0.289608,-0.207489,0.303994
2026-05-31 16:00:00+00:00,-0.303566,-0.282613,-0.214372,0.303987
2026-05-31 20:00:00+00:00,-0.31218,-0.291273,-0.200842,0.301389
2026-06-01 00:00:00+00:00,-0.314077,-0.287825,-0.202778,0.300964
2026-06-01 04:00:00+00:00,-0.310956,-0.277392,-0.206027,0.300445
2026-06-01 08:00:00+00:00,-0.332758,-0.272367,-0.195833,0.300459
2026-06-01 12:00:00+00:00,-0.35275,-0.254835,-0.191214,0.298352
2026-06-01 16:00:00+00:00,-0.364075,-0.243608,-0.186995,0.295921
2026-06-01 20:00:00+00:00,-0.370957,-0.241667,-0.184017,0.295992
2026-06-02 00:00:00+00:00,-0.378371,-0.237584,-0.182624,0.295788
2026-06-02 04:00:00+00:00,-0.378817,-0.238014,-0.178192,0.293244
2026-06-02 08:00:00+00:00,-0.377227,-0.239662,-0.176908,0.293245
2026-06-02 12:00:00+00:00,-0.369297,-0.233105,-0.16148,0.2927
2026-06-02 16:00:00+00:00,-0.370896,-0.230261,-0.16242,0.292248
2026-06-02 20:00:00+00:00,-0.350087,-0.240198,-0.16237,0.29214
2026-06-03 00:00:00+00:00,-0.364928,-0.246598,-0.155291,0.292017
2026-06-03 04:00:00+00:00,-0.360589,-0.239993,-0.148164,0.290447
2026-06-03 08:00:00+00:00,-0.362403,-0.238407,-0.150808,0.290619
2026-06-03 12:00:00+00:00,-0.385878,-0.227074,-0.140522,0.289853
2026-06-03 16:00:00+00:00,-0.385641,-0.228779,-0.135418,0.289314
2026-06-03 20:00:00+00:00,-0.400945,-0.209919,-0.134258,0.288317
2026-06-04 00:00:00+00:00,-0.41132,-0.210167,-0.130928,0.288011
2026-06-04 04:00:00+00:00,-0.416198,-0.203648,-0.126499,0.275548
2026-06-04 08:00:00+00:00,-0.419422,-0.204623,-0.118475,0.274541
2026-06-04 12:00:00+00:00,-0.376016,-0.218222,-0.131008,0.276112
2026-06-04 16:00:00+00:00,-0.378156,-0.209118,-0.137444,0.275804
2026-06-04 20:00:00+00:00,-0.370865,-0.21625,-0.137207,0.274568
2026-06-05 00:00:00+00:00,-0.367896,-0.217359,-0.132387,0.271788
2026-06-05 04:00:00+00:00,-0.33376,-0.234171,-0.137036,0.272356
2026-06-05 08:00:00+00:00,-0.357623,-0.233511,-0.123067,0.27091
2026-06-05 12:00:00+00:00,-0.35221,-0.228209,-0.112671,0.26531
2026-06-05 16:00:00+00:00,-0.345548,-0.226039,-0.119717,0.265708
2026-06-05 20:00:00+00:00,-0.322094,-0.233114,-0.128112,0.265925
2026-06-06 00:00:00+00:00,-0.316689,-0.237491,-0.128241,0.266132
2026-06-06 04:00:00+00:00,-0.309446,-0.229682,-0.144372,0.267056
2026-06-06 08:00:00+00:00,-0.310591,-0.234216,-0.139264,0.267096
2026-06-06 12:00:00+00:00,-0.309601,-0.235929,-0.140925,0.266719
2026-06-06 16:00:00+00:00,-0.319675,-0.235332,-0.134143,0.263301
2026-06-06 20:00:00+00:00,-0.331035,-0.217864,-0.140692,0.263187
2026-06-07 00:00:00+00:00,-0.324243,-0.223887,-0.133845,0.262589
2026-06-07 04:00:00+00:00,-0.320839,-0.225836,-0.130647,0.261315
2026-06-07 08:00:00+00:00,-0.324028,-0.222007,-0.132166,0.261001
2026-06-07 12:00:00+00:00,-0.331221,-0.213668,-0.134478,0.261053
2026-06-07 16:00:00+00:00,-0.331868,-0.205666,-0.143496,0.260868
2026-06-07 20:00:00+00:00,-0.313596,-0.177599,-0.155973,0.259768
2026-06-08 00:00:00+00:00,-0.306347,-0.186315,-0.154631,0.259517
2026-06-08 04:00:00+00:00,-0.298365,-0.189354,-0.157744,0.258967
2026-06-08 08:00:00+00:00,-0.311811,-0.184037,-0.151764,0.258311
2026-06-08 12:00:00+00:00,-0.303344,-0.188398,-0.153588,0.256953
2026-06-08 16:00:00+00:00,-0.325633,-0.189035,-0.135955,0.25567
2026-06-08 20:00:00+00:00,-0.329981,-0.176062,-0.144639,0.255752
2026-06-09 00:00:00+00:00,-0.320561,-0.182505,-0.14533,0.254528
2026-06-09 04:00:00+00:00,-0.3277,-0.185852,-0.135124,0.254075
2026-06-09 08:00:00+00:00,-0.337402,-0.177415,-0.134795,0.253727
2026-06-09 12:00:00+00:00,-0.335241,-0.164619,-0.141208,0.250978
2026-06-09 16:00:00+00:00,-0.324218,-0.166951,-0.144994,0.25126
2026-06-09 20:00:00+00:00,-0.332983,-0.163775,-0.141641,0.250832
2026-06-10 00:00:00+00:00,-0.344483,-0.161296,-0.138843,0.250314
2026-06-10 04:00:00+00:00,-0.353366,-0.144705,-0.146645,0.249624
2026-06-10 08:00:00+00:00,-0.348599,-0.147133,-0.147209,0.250001
2026-06-10 12:00:00+00:00,-0.304056,-0.163062,-0.157185,0.250546
2026-06-10 16:00:00+00:00,-0.28327,-0.149019,-0.183116,0.246342
2026-06-10 20:00:00+00:00,-0.300681,-0.141895,-0.176074,0.24576
2026-06-11 00:00:00+00:00,-0.301488,-0.162731,-0.149704,0.245535
2026-06-11 04:00:00+00:00,-0.288514,-0.158604,-0.163399,0.245855
2026-06-11 08:00:00+00:00,-0.29057,-0.158401,-0.160897,0.245406
2026-06-11 12:00:00+00:00,-0.270392,-0.178459,-0.158209,0.246329
2026-06-11 16:00:00+00:00,-0.292942,-0.158181,-0.155993,0.244743
2026-06-11 20:00:00+00:00,-0.273461,-0.174928,-0.155745,0.245288
2026-06-12 00:00:00+00:00,-0.279816,-0.174694,-0.153189,0.245176
2026-06-12 04:00:00+00:00,-0.300041,-0.170762,-0.140647,0.242989
2026-06-12 08:00:00+00:00,-0.284299,-0.179369,-0.143584,0.242713
2026-06-12 12:00:00+00:00,-0.276467,-0.191979,-0.147575,0.242982
2026-06-12 16:00:00+00:00,-0.274665,-0.178549,-0.163047,0.242996
2026-06-12 20:00:00+00:00,-0.275385,-0.193277,-0.14868,0.242215
2026-06-13 00:00:00+00:00,-0.277621,-0.195595,-0.14524,0.24212
2026-06-13 04:00:00+00:00,-0.279666,-0.194501,-0.145698,0.242316
2026-06-13 08:00:00+00:00,-0.298732,-0.190809,-0.134003,0.241755
2026-06-13 12:00:00+00:00,-0.310197,-0.203338,-0.121869,0.248896
2026-06-13 16:00:00+00:00,-0.31351,-0.19887,-0.123742,0.251072
2026-06-13 20:00:00+00:00,-0.334296,-0.203201,-0.101509,0.249609
2026-06-14 00:00:00+00:00,-0.332828,-0.205083,-0.100736,0.252822
2026-06-14 04:00:00+00:00,-0.314329,-0.202762,-0.118685,0.254048
2026-06-14 08:00:00+00:00,-0.302854,-0.208045,-0.122651,0.254755
2026-06-14 12:00:00+00:00,-0.312136,-0.199057,-0.128553,0.256185
2026-06-14 16:00:00+00:00,-0.329977,-0.196709,-0.116185,0.255391
2026-06-14 20:00:00+00:00,-0.334709,-0.216497,-0.068864,0.249241
2026-06-15 00:00:00+00:00,-0.309049,-0.225681,-0.081188,0.250873
2026-06-15 04:00:00+00:00,-0.316983,-0.226452,-0.075446,0.251315
2026-06-15 08:00:00+00:00,-0.340645,-0.197718,-0.080966,0.250764
2026-06-15 12:00:00+00:00,-0.427392,-0.124339,-0.064676,0.243954
2026-06-15 16:00:00+00:00,-0.43047,-0.143483,-0.039475,0.241943
2026-06-15 20:00:00+00:00,-0.390376,-0.15625,-0.064399,0.247034
2026-06-16 00:00:00+00:00,-0.363983,-0.171096,-0.072597,0.247619
2026-06-16 04:00:00+00:00,-0.353245,-0.189307,-0.062052,0.24536
2026-06-16 08:00:00+00:00,-0.361277,-0.170523,-0.07477,0.244941
2026-06-16 12:00:00+00:00,-0.333791,-0.159136,-0.10903,0.24792
2026-06-16 16:00:00+00:00,-0.369898,-0.143827,-0.093754,0.248769
2026-06-16 20:00:00+00:00,-0.364962,-0.146403,-0.099449,0.249865
2026-06-17 00:00:00+00:00,-0.361456,-0.148584,-0.100619,0.250099
2026-06-17 04:00:00+00:00,-0.363431,-0.148274,-0.099073,0.249686
2026-06-17 08:00:00+00:00,-0.372288,-0.140705,-0.097248,0.247548
2026-06-17 12:00:00+00:00,-0.329472,-0.178945,-0.093502,0.247944
2026-06-17 16:00:00+00:00,-0.335023,-0.169693,-0.092238,0.247713
2026-06-17 20:00:00+00:00,-0.362086,-0.151406,-0.086823,0.246411
2026-06-18 00:00:00+00:00,-0.360125,-0.153311,-0.086589,0.246505
2026-06-18 04:00:00+00:00,-0.358059,-0.147001,-0.094945,0.246959
2026-06-18 08:00:00+00:00,-0.366823,-0.140281,-0.094119,0.246211
2026-06-18 12:00:00+00:00,-0.359655,-0.14718,-0.082578,0.243125
2026-06-18 16:00:00+00:00,-0.373726,-0.13667,-0.078645,0.242089
2026-06-18 20:00:00+00:00,-0.373954,-0.135293,-0.079718,0.242377
2026-06-19 00:00:00+00:00,-0.362231,-0.131705,-0.093401,0.243346
2026-06-19 04:00:00+00:00,-0.369285,-0.122021,-0.097344,0.24325
2026-06-19 08:00:00+00:00,-0.370354,-0.12496,-0.093696,0.243585
2026-06-19 12:00:00+00:00,-0.360568,-0.136342,-0.090044,0.244516
2026-06-19 16:00:00+00:00,-0.353533,-0.133783,-0.098711,0.245816
2026-06-19 20:00:00+00:00,-0.354971,-0.140315,-0.090043,0.246547
2026-06-20 00:00:00+00:00,-0.36605,-0.144945,-0.076543,0.246019
2026-06-20 04:00:00+00:00,-0.405667,-0.147572,-0.034937,0.240374
2026-06-20 08:00:00+00:00,-0.397258,-0.148342,-0.043515,0.242175
2026-06-20 12:00:00+00:00,-0.406121,-0.145408,-0.036942,0.245392
2026-06-20 16:00:00+00:00,-0.426212,-0.142487,-0.019781,0.244983
2026-06-20 20:00:00+00:00,-0.446819,-0.147164,0.009916,0.238926
2026-06-21 00:00:00+00:00,-0.464257,-0.156447,0.043733,0.231449
2026-06-21 04:00:00+00:00,-0.489694,-0.15541,0.078648,0.220648
2026-06-21 08:00:00+00:00,-0.467444,-0.188995,0.097932,0.220847
2026-06-21 12:00:00+00:00,-0.412522,-0.249215,0.119613,0.220553
2026-06-21 16:00:00+00:00,-0.390382,-0.27681,0.133522,0.218564
2026-06-21 20:00:00+00:00,-0.368811,-0.26856,0.087262,0.232987
2026-06-22 00:00:00+00:00,-0.350113,-0.320118,0.183612,0.19747
2026-06-22 04:00:00+00:00,-0.339831,-0.317859,0.148284,0.211566
2026-06-22 08:00:00+00:00,-0.277597,-0.359395,0.155822,0.205222
2026-06-22 12:00:00+00:00,0.078001,-0.506319,0.186178,0.126101
2026-06-22 16:00:00+00:00,-0.060771,-0.470731,0.191488,0.158944
2026-06-22 20:00:00+00:00,-0.202929,-0.421644,0.248141,0.154564
2026-06-23 00:00:00+00:00,-0.118502,-0.422319,0.372484,0.050963
2026-06-23 04:00:00+00:00,-0.138429,-0.441682,0.278894,0.122991
2026-06-23 08:00:00+00:00,-0.102223,-0.45414,0.205938,0.157771
2026-06-23 12:00:00+00:00,0.017619,-0.459168,0.341491,0.035578
2026-06-23 16:00:00+00:00,0.055181,-0.249679,0.42826,-0.137412
2026-06-23 20:00:00+00:00,0.360436,-0.269317,0.293772,-0.169343
2026-06-24 00:00:00+00:00,0.323754,-0.240341,0.312497,-0.181075
2026-06-24 04:00:00+00:00,0.175097,-0.362133,0.378498,-0.097984
2026-06-24 08:00:00+00:00,0.335375,-0.351686,0.306053,-0.124446
2026-06-24 12:00:00+00:00,-0.179677,-0.358203,0.398016,0.030923
2026-06-24 16:00:00+00:00,-0.114383,-0.437511,0.266603,0.123611
2026-06-24 20:00:00+00:00,-0.205908,-0.392332,0.228653,0.158938
2026-06-25 00:00:00+00:00,-0.209079,-0.391767,0.236941,0.155374
2026-06-25 04:00:00+00:00,-0.40088,-0.185146,0.399613,0.028466
2026-06-25 08:00:00+00:00,-0.310593,-0.296518,0.366682,0.070238
2026-06-25 12:00:00+00:00,-0.435905,-0.212412,0.200013,0.181028
2026-06-25 16:00:00+00:00,-0.43336,-0.218976,0.22256,0.170078
2026-06-25 20:00:00+00:00,-0.440634,-0.202327,0.311852,0.109648
2026-06-26 00:00:00+00:00,-0.396321,-0.22663,0.347116,0.082828
2026-06-26 04:00:00+00:00,-0.366815,-0.202293,0.388166,0.028335
2026-06-26 08:00:00+00:00,-0.384963,-0.166406,0.389247,0.014494
2026-06-26 12:00:00+00:00,-0.378949,-0.185248,0.370243,0.029155
2026-06-26 16:00:00+00:00,-0.408125,-0.192058,0.340704,0.064016
2026-06-26 20:00:00+00:00,-0.398715,-0.204888,0.338604,0.068868
2026-06-27 00:00:00+00:00,-0.397797,-0.208689,0.340744,0.06862
2026-06-27 04:00:00+00:00,-0.389193,-0.196391,0.359732,0.046098
2026-06-27 08:00:00+00:00,-0.399354,-0.215815,0.330658,0.079936
2026-06-27 12:00:00+00:00,-0.376401,-0.232454,0.334597,0.076823
2026-06-27 16:00:00+00:00,-0.343902,-0.248775,0.345905,0.064583
2026-06-27 20:00:00+00:00,-0.345812,-0.271815,0.307833,0.103
2026-06-28 00:00:00+00:00,-0.327861,-0.263944,0.342536,0.068153
2026-06-28 04:00:00+00:00,-0.331812,-0.231861,0.369433,0.034452
2026-06-28 08:00:00+00:00,-0.34547,-0.245014,0.347989,0.061596
2026-06-28 12:00:00+00:00,-0.352474,-0.205955,0.374083,0.025863
2026-06-28 16:00:00+00:00,-0.35612,-0.227917,0.354934,0.052017
2026-06-28 20:00:00+00:00,-0.310635,-0.227973,0.380267,0.014977
2026-06-29 00:00:00+00:00,-0.337836,-0.226533,0.365768,0.035518
2026-06-29 04:00:00+00:00,-0.337507,-0.233343,0.361104,0.042456
2026-06-29 08:00:00+00:00,-0.321521,-0.253485,0.354992,0.051142
2026-06-29 12:00:00+00:00,-0.314678,-0.270387,0.341711,0.065502
2026-06-29 16:00:00+00:00,-0.380458,-0.230679,0.315952,0.089265
2026-06-29 20:00:00+00:00,-0.384191,-0.235921,0.30002,0.104603
2026-06-30 00:00:00+00:00,-0.384269,-0.240694,0.284564,0.11813
2026-06-30 04:00:00+00:00,-0.390461,-0.239589,0.269582,0.130446
2026-06-30 08:00:00+00:00,-0.384193,-0.243399,0.274444,0.126822
2026-06-30 12:00:00+00:00,-0.418975,-0.212984,0.265115,0.131844
2026-06-30 16:00:00+00:00,-0.418738,-0.214824,0.247222,0.145393
2026-06-30 20:00:00+00:00,-0.409473,-0.223404,0.248325,0.146883
2026-07-01 00:00:00+00:00,-0.419543,-0.210666,0.257627,0.137599
2026-07-01 04:00:00+00:00,-0.417668,-0.210272,0.274833,0.124868
2026-07-01 08:00:00+00:00,-0.412287,-0.204552,0.301469,0.100476
2026-07-01 12:00:00+00:00,-0.409029,-0.186267,0.318693,0.077721
2026-07-01 16:00:00+00:00,-0.397684,-0.182142,0.337492,0.057535
2026-07-01 20:00:00+00:00,-0.386632,-0.176284,0.350389,0.040002
2026-07-02 00:00:00+00:00,-0.367922,-0.177116,0.358739,0.027315
2026-07-02 04:00:00+00:00,-0.387805,-0.19086,0.334163,0.062876
2026-07-02 08:00:00+00:00,-0.356146,-0.174929,0.353226,0.019818
2026-07-02 12:00:00+00:00,-0.425172,-0.103681,0.349539,0.008647
2026-07-02 16:00:00+00:00,-0.417623,-0.10477,0.353733,0.003304
2026-07-02 20:00:00+00:00,-0.437915,-0.124927,0.336257,0.036679
2026-07-03 00:00:00+00:00,-0.455039,-0.117336,0.329539,0.044599
2026-07-03 04:00:00+00:00,-0.462845,-0.121415,0.329271,0.05086
2026-07-03 08:00:00+00:00,-0.496641,-0.106411,0.300098,0.077452
2026-07-03 12:00:00+00:00,-0.503411,-0.105799,0.296999,0.081959
2026-07-03 16:00:00+00:00,-0.497732,-0.098507,0.312877,0.064041
2026-07-03 20:00:00+00:00,-0.516694,-0.079507,0.308148,0.062498
2026-07-04 00:00:00+00:00,-0.512363,-0.094196,0.303697,0.072185
2026-07-04 04:00:00+00:00,-0.516803,-0.094267,0.304345,0.078485
2026-07-04 08:00:00+00:00,-0.527692,-0.066374,0.313658,0.057793
2026-07-04 12:00:00+00:00,-0.541514,-0.035904,0.317902,0.040245
2026-07-04 16:00:00+00:00,-0.523352,-0.037332,0.333219,0.022331
2026-07-04 20:00:00+00:00,-0.543318,-0.0372,0.315859,0.043804
2026-07-05 00:00:00+00:00,-0.541226,-0.009837,0.328604,0.016316
2026-07-05 04:00:00+00:00,-0.539531,0.003528,0.331546,0.005747
2026-07-05 08:00:00+00:00,-0.510273,-0.043222,0.350363,0.005418
2026-07-05 12:00:00+00:00,-0.513782,-0.1334,0.325664,0.075989
2026-07-05 16:00:00+00:00,-0.544264,-0.10809,0.306799,0.088902
2026-07-05 20:00:00+00:00,-0.523356,-0.126322,0.319686,0.081008
2026-07-06 00:00:00+00:00,-0.529856,-0.056474,0.346222,0.0229
2026-07-06 04:00:00+00:00,-0.489719,0.013833,0.365908,-0.051909
2026-07-06 08:00:00+00:00,-0.429824,-0.010108,0.385404,-0.078509
2026-07-06 12:00:00+00:00,-0.352385,-0.002741,0.392984,-0.123137
2026-07-06 16:00:00+00:00,-0.389253,-0.075448,0.399696,-0.068133
2026-07-06 20:00:00+00:00,-0.322739,-0.038391,0.402726,-0.124038
2026-07-07 00:00:00+00:00,-0.352541,-0.04534,0.404084,-0.10544
2026-07-07 04:00:00+00:00,-0.368443,-0.05982,0.405485,-0.090716
2026-07-07 08:00:00+00:00,-0.399371,-0.08605,0.401444,-0.05701
2026-07-07 12:00:00+00:00,-0.375387,0.005787,0.39243,-0.118364
2026-07-07 16:00:00+00:00,-0.29225,0.016491,0.392402,-0.163579
2026-07-07 20:00:00+00:00,-0.335301,-0.034012,0.412281,-0.12848
2026-07-08 00:00:00+00:00,-0.339643,-0.019779,0.40616,-0.132478
2026-07-08 04:00:00+00:00,-0.346416,-0.002679,0.401772,-0.137086
2026-07-08 08:00:00+00:00,-0.383195,-0.028874,0.404509,-0.106313
2026-07-08 12:00:00+00:00,-0.3524,-0.009264,0.402418,-0.131521
2026-07-08 16:00:00+00:00,-0.342243,-0.018284,0.404659,-0.132653
2026-07-08 20:00:00+00:00,-0.34122,-0.030387,0.407728,-0.127854
2026-07-09 00:00:00+00:00,-0.387365,-0.044841,0.406775,-0.096998
2026-07-09 04:00:00+00:00,-0.316349,-0.063768,0.415632,-0.124163
2026-07-09 08:00:00+00:00,-0.291572,-0.038712,0.411635,-0.14813
2026-07-09 12:00:00+00:00,-0.269574,-0.028838,0.412427,-0.167729
2026-07-09 16:00:00+00:00,-0.179143,0.002643,0.394169,-0.215873
2026-07-09 20:00:00+00:00,-0.231409,-0.004123,0.403584,-0.194464
2026-07-10 00:00:00+00:00,-0.262793,0.015791,0.399841,-0.189147
2026-07-10 04:00:00+00:00,-0.205789,0.018319,0.392567,-0.212602
2026-07-10 08:00:00+00:00,-0.164433,0.092108,0.355488,-0.24904
2026-07-10 12:00:00+00:00,-0.19313,0.095027,0.363009,-0.243251
